<?xml version="1.0"?>
<opencv_storage>
<opencv_ml_svm>
  <format>3</format>
  <svmType>C_SVC</svmType>
  <kernel>
    <type>RBF</type>
    <gamma>1.</gamma></kernel>
  <C>1.</C>
  <term_criteria><epsilon>9.9999999999999995e-07</epsilon>
    <iterations>1000</iterations></term_criteria>
  <var_count>7</var_count>
  <class_count>4</class_count>
  <class_labels type_id="opencv-matrix">
    <rows>4</rows>
    <cols>1</cols>
    <dt>i</dt>
    <data>
      1 2 3 4</data></class_labels>
  <sv_total>352</sv_total>
  <support_vectors>
    <_>
      4.49342012e-01 1.56798005e+00 1.62239301e+00 2.43009806e+00
      -4.55270576e+00 -3.40092206e+00 -4.67917109e+00</_>
    <_>
      3.02884996e-01 6.81986988e-01 1.23581898e+00 1.35540903e+00
      2.65110993e+00 1.69935596e+00 4.34939289e+00</_>
    <_>
      3.85206997e-01 1.03201699e+00 1.45110095e+00 2.20854306e+00
      4.22060919e+00 3.11829305e+00 4.16120100e+00</_>
    <_>
      4.78336990e-01 1.10652101e+00 2.34503293e+00 3.10619402e+00
      6.08296585e+00 4.52086306e+00 5.91381788e+00</_>
    <_>
      6.03073001e-01 1.52064204e+00 3.35980701e+00 4.84858179e+00
      8.95344257e+00 5.63049793e+00 1.02097569e+01</_>
    <_>
      3.21065992e-01 7.27191985e-01 1.41884601e+00 1.60667503e+00
      3.12068510e+00 1.99204803e+00 -4.24009609e+00</_>
    <_>
      4.91272002e-01 1.13519001e+00 2.64491391e+00 3.44608808e+00
      7.04999685e+00 -4.80796194e+00 6.50885105e+00</_>
    <_>
      4.30040002e-01 1.01124799e+00 1.68113005e+00 1.97668397e+00
      3.80757594e+00 2.49751806e+00 4.82612085e+00</_>
    <_>
      6.43912971e-01 1.59990799e+00 3.57733607e+00 4.04482412e+00
      7.85757494e+00 4.86331177e+00 8.91371441e+00</_>
    <_>
      3.47683012e-01 8.05841029e-01 1.51444995e+00 1.65229595e+00
      3.23566890e+00 2.05784011e+00 -6.04193115e+00</_>
    <_>
      5.50852001e-01 1.31773102e+00 2.53433490e+00 2.88291597e+00
      5.59276819e+00 3.57516503e+00 -6.71616602e+00</_>
    <_>
      5.00371993e-01 1.19695103e+00 2.01847410e+00 2.37512803e+00
      4.57708693e+00 2.99173188e+00 5.38665390e+00</_>
    <_>
      3.60861003e-01 9.76023972e-01 1.41979098e+00 2.36247611e+00
      -4.25991583e+00 -2.87525892e+00 5.02524185e+00</_>
    <_>
      7.27891028e-01 2.58179402e+00 3.08278203e+00 4.37553310e+00
      8.20693874e+00 6.21046209e+00 8.31736088e+00</_>
    <_>
      4.87464994e-01 1.13013899e+00 2.38269401e+00 3.22997403e+00
      6.66598797e+00 -4.57383204e+00 -6.04860020e+00</_>
    <_>
      4.79290009e-01 1.13735604e+00 1.90686202e+00 2.19960904e+00
      4.25662422e+00 2.79552293e+00 5.13446808e+00</_>
    <_>
      3.47402990e-01 9.25176024e-01 1.55231595e+00 2.51959205e+00
      -4.94335890e+00 -3.35430503e+00 -4.59539080e+00</_>
    <_>
      4.99262989e-01 1.18165398e+00 2.37271690e+00 2.95379090e+00
      5.65485477e+00 3.73302007e+00 -6.01525021e+00</_>
    <_>
      5.48384011e-01 1.30596805e+00 2.63295007e+00 3.69228411e+00
      -6.85497904e+00 -4.34546900e+00 -8.57518196e+00</_>
    <_>
      5.05694985e-01 1.21498501e+00 2.18686604e+00 3.04959393e+00
      6.33125305e+00 -4.58601904e+00 5.67830276e+00</_>
    <_>
      6.15149975e-01 1.69480503e+00 2.58395600e+00 3.78958797e+00
      -7.53260612e+00 5.70591116e+00 6.99380207e+00</_>
    <_>
      4.90985006e-01 1.64848995e+00 1.67242002e+00 2.48818707e+00
      4.62024879e+00 3.58520293e+00 4.90524292e+00</_>
    <_>
      5.48996985e-01 1.28610504e+00 3.55486989e+00 4.09821606e+00
      7.94182110e+00 4.76377010e+00 8.48558712e+00</_>
    <_>
      6.82004988e-01 2.74543595e+00 2.40437603e+00 3.91758490e+00
      -7.10678291e+00 -5.29394007e+00 7.53564310e+00</_>
    <_>
      4.93225008e-01 1.18401301e+00 2.15566206e+00 2.98819304e+00
      5.89770508e+00 5.15504408e+00 5.61165619e+00</_>
    <_>
      6.91833019e-01 2.29958010e+00 2.48188996e+00 4.20920610e+00
      8.22235394e+00 -5.58540821e+00 7.56502914e+00</_>
    <_>
      3.48919004e-01 1.16837895e+00 1.16973901e+00 1.98727000e+00
      3.64828801e+00 2.88552499e+00 -3.81584096e+00</_>
    <_>
      3.56227994e-01 7.89569020e-01 3.67744398e+00 3.97930098e+00
      7.80860806e+00 4.37444782e+00 8.99128819e+00</_>
    <_>
      5.30407012e-01 1.27294397e+00 2.32167101e+00 3.28081298e+00
      -6.82129717e+00 -4.26068211e+00 -6.08939314e+00</_>
    <_>
      5.05622029e-01 1.26556504e+00 2.22818208e+00 3.04384398e+00
      7.11107016e+00 -4.41653395e+00 5.68015480e+00</_>
    <_>
      5.16933024e-01 1.24363303e+00 2.25540495e+00 3.13911295e+00
      6.19398308e+00 4.89769316e+00 5.88284206e+00</_>
    <_>
      6.64655983e-01 2.76472592e+00 2.42801595e+00 3.28012109e+00
      -6.17853022e+00 -4.70065117e+00 -6.50095510e+00</_>
    <_>
      6.37084007e-01 1.59622598e+00 3.22401500e+00 4.46264982e+00
      -8.30837727e+00 -5.26329517e+00 9.28595257e+00</_>
    <_>
      3.88341010e-01 1.11532402e+00 1.31106400e+00 1.62968504e+00
      3.11546612e+00 2.22988105e+00 3.68224096e+00</_>
    <_>
      4.84975994e-01 1.12059796e+00 2.37678504e+00 3.01178408e+00
      5.82637787e+00 3.90894389e+00 -5.89167881e+00</_>
    <_>
      5.73620975e-01 2.07321095e+00 1.93540394e+00 2.75222993e+00
      5.50956106e+00 -4.34207678e+00 -5.13106394e+00</_>
    <_>
      5.57500005e-01 1.57735896e+00 3.91838408e+00 3.52046990e+00
      -7.24015713e+00 4.33090305e+00 8.70097923e+00</_>
    <_>
      6.40173972e-01 1.71529400e+00 2.58422589e+00 3.61477804e+00
      7.67075109e+00 -4.76920319e+00 6.71694994e+00</_>
    <_>
      6.27572000e-01 1.54229999e+00 3.18551993e+00 3.73986197e+00
      7.21371317e+00 4.55774117e+00 7.85265112e+00</_>
    <_>
      6.89189017e-01 1.84344900e+00 3.48681808e+00 4.27374411e+00
      8.15695095e+00 5.19912004e+00 9.09080887e+00</_>
    <_>
      3.39130014e-01 1.18580496e+00 1.66715002e+00 2.16608810e+00
      4.10239887e+00 2.79651999e+00 4.61370611e+00</_>
    <_>
      5.13738990e-01 1.21381700e+00 2.39495397e+00 3.27829790e+00
      6.86434078e+00 -4.72458887e+00 -6.12192011e+00</_>
    <_>
      5.63748002e-01 1.49187505e+00 2.96837091e+00 4.04415083e+00
      7.59766293e+00 5.29981422e+00 7.90478277e+00</_>
    <_>
      5.62772989e-01 2.34929204e+00 1.81069398e+00 2.90607595e+00
      5.39431286e+00 4.18521976e+00 5.43781614e+00</_>
    <_>
      5.10146976e-01 1.17824805e+00 2.78429294e+00 3.18862295e+00
      6.17509413e+00 3.77776003e+00 8.29986858e+00</_>
    <_>
      3.49611998e-01 7.90542006e-01 3.10776210e+00 3.98745489e+00
      7.99593496e+00 -6.55740595e+00 -7.56275892e+00</_>
    <_>
      4.41835999e-01 1.00717103e+00 2.20441794e+00 2.60449100e+00
      5.02405787e+00 3.20866394e+00 5.59518099e+00</_>
    <_>
      5.16081989e-01 1.33366501e+00 1.97097397e+00 2.74953294e+00
      5.13529396e+00 3.47040701e+00 -5.58745813e+00</_>
    <_>
      4.89430994e-01 1.12105405e+00 2.75689697e+00 3.05142593e+00
      5.95559502e+00 3.61428094e+00 -8.18962860e+00</_>
    <_>
      4.52966988e-01 1.02313197e+00 2.66437411e+00 3.00440001e+00
      5.84024286e+00 3.52243590e+00 6.92636204e+00</_>
    <_>
      3.91247004e-01 9.41199005e-01 1.92928600e+00 2.34012103e+00
      4.47557783e+00 2.84666491e+00 5.70480013e+00</_>
    <_>
      9.20239985e-02 2.17480004e-01 2.20721412e+00 2.30492902e+00
      4.56147623e+00 2.41623497e+00 -5.89131403e+00</_>
    <_>
      6.79368973e-01 2.43679905e+00 2.91736698e+00 3.30010104e+00
      6.64374399e+00 4.53177023e+00 -6.49873018e+00</_>
    <_>
      4.78302002e-01 1.07976401e+00 3.15028596e+00 3.63282609e+00
      7.05326605e+00 4.32727480e+00 7.47671604e+00</_>
    <_>
      3.97536993e-01 8.97804976e-01 1.97438300e+00 2.28874898e+00
      4.42729092e+00 2.81990600e+00 -5.17036676e+00</_>
    <_>
      2.52766013e-01 5.73975027e-01 2.27195001e+00 2.33929992e+00
      4.64501619e+00 2.63484311e+00 -6.33226109e+00</_>
    <_>
      4.21364009e-01 1.19576001e+00 1.49655497e+00 1.73865604e+00
      3.36281991e+00 2.34178400e+00 -4.11950922e+00</_>
    <_>
      6.25335991e-01 1.55065000e+00 3.30308700e+00 4.53994894e+00
      -8.46638107e+00 -5.31638479e+00 -9.28660011e+00</_>
    <_>
      7.39861012e-01 2.25239992e+00 3.36979103e+00 4.70443010e+00
      9.08321571e+00 6.21698284e+00 8.79199219e+00</_>
    <_>
      4.84486997e-01 1.14596403e+00 2.12879395e+00 2.46866202e+00
      4.77756310e+00 3.10168099e+00 5.43709993e+00</_>
    <_>
      4.15674001e-01 9.44450021e-01 1.83417594e+00 1.99846494e+00
      3.91478705e+00 2.47083306e+00 -6.46898985e+00</_>
    <_>
      4.92500007e-01 1.25883698e+00 2.01572704e+00 2.83547807e+00
      5.27995920e+00 3.54984689e+00 -5.80083609e+00</_>
    <_>
      6.87583029e-01 1.84630895e+00 3.06206799e+00 3.95926690e+00
      7.58151102e+00 5.16241503e+00 -7.66793013e+00</_>
    <_>
      5.10186970e-01 1.36446702e+00 2.06044793e+00 3.03136110e+00
      -7.87617683e+00 -4.04486513e+00 5.57727098e+00</_>
    <_>
      5.76013029e-01 1.58992803e+00 2.29692793e+00 2.54221010e+00
      4.96233988e+00 3.33961296e+00 -6.25570583e+00</_>
    <_>
      3.45245004e-01 8.09023023e-01 2.04116392e+00 2.88077903e+00
      5.73647308e+00 4.60986185e+00 5.38022804e+00</_>
    <_>
      3.99159014e-01 1.19736397e+00 1.66843700e+00 2.41585588e+00
      -4.46197319e+00 -3.02040410e+00 -5.32896519e+00</_>
    <_>
      6.48060024e-01 1.63861704e+00 3.39109707e+00 4.04123020e+00
      7.76349592e+00 4.92545795e+00 8.53607273e+00</_>
    <_>
      4.24315006e-01 9.57318008e-01 2.05755901e+00 2.22722101e+00
      4.36964893e+00 2.70682406e+00 6.24607801e+00</_>
    <_>
      4.84537005e-01 1.11682904e+00 2.18371511e+00 2.41056991e+00
      4.70807123e+00 2.97318912e+00 -6.09868813e+00</_>
    <_>
      5.79299986e-01 1.41135204e+00 2.53507900e+00 3.04759407e+00
      5.85022020e+00 3.77936196e+00 6.48659420e+00</_>
    <_>
      5.19620001e-01 1.21422803e+00 2.72011089e+00 3.53867793e+00
      7.20402813e+00 6.16622400e+00 -6.68730021e+00</_>
    <_>
      2.99225986e-01 6.76904023e-01 1.49733603e+00 1.74943197e+00
      3.37563705e+00 2.12704206e+00 4.31746483e+00</_>
    <_>
      3.51480991e-01 8.54694009e-01 1.15605104e+00 1.32128704e+00
      2.56081295e+00 1.75918806e+00 -3.76215601e+00</_>
    <_>
      5.56276023e-01 1.30893302e+00 2.83015704e+00 3.23922706e+00
      6.28503323e+00 3.96957898e+00 -6.92490005e+00</_>
    <_>
      4.25273001e-01 9.43561018e-01 4.19754982e+00 5.12952518e+00
      1.06230602e+01 -6.06106806e+00 9.79786682e+00</_>
    <_>
      5.94341993e-01 1.55475700e+00 2.78274894e+00 4.17866993e+00
      7.66842318e+00 4.97946119e+00 -8.35408878e+00</_>
    <_>
      4.38235998e-01 1.08538401e+00 1.86708200e+00 2.32935190e+00
      4.48711300e+00 3.00082111e+00 -4.73761702e+00</_>
    <_>
      7.55728006e-01 2.66054201e+00 3.44529510e+00 4.64061880e+00
      8.80134392e+00 -6.81389713e+00 8.87266827e+00</_>
    <_>
      5.55752993e-01 1.33177400e+00 2.66954398e+00 3.05183005e+00
      5.93314314e+00 3.81839609e+00 6.43391085e+00</_>
    <_>
      4.34801996e-01 1.01697302e+00 2.87659502e+00 3.09049010e+00
      6.09782314e+00 3.67923307e+00 -6.56600094e+00</_>
    <_>
      2.79177994e-01 6.16348028e-01 1.47480404e+00 1.56861103e+00
      3.09033203e+00 1.87705696e+00 -5.19549608e+00</_>
    <_>
      4.42476988e-01 1.94630599e+00 1.64032400e+00 2.70273089e+00
      -5.00168610e+00 5.41940689e+00 5.05060911e+00</_>
    <_>
      3.65092993e-01 8.29484999e-01 1.53144801e+00 1.70927000e+00
      3.32964110e+00 2.12412190e+00 5.46767616e+00</_>
    <_>
      7.28519976e-01 2.45543694e+00 2.83306503e+00 3.72626495e+00
      7.00941610e+00 4.99671602e+00 -7.90492296e+00</_>
    <_>
      2.85510987e-01 6.45062029e-01 2.45094800e+00 3.12751603e+00
      6.15310907e+00 -4.78082609e+00 6.00590086e+00</_>
    <_>
      3.28873008e-01 9.04329002e-01 1.43252099e+00 2.43074608e+00
      -4.39647579e+00 -2.88316298e+00 -4.78122520e+00</_>
    <_>
      4.46110010e-01 1.00163198e+00 2.59743190e+00 2.80866408e+00
      5.51245499e+00 3.31787300e+00 -6.74517298e+00</_>
    <_>
      3.55293006e-01 8.41419995e-01 1.42287695e+00 1.68036795e+00
      3.23928905e+00 2.16939807e+00 3.97240591e+00</_>
    <_>
      2.99677014e-01 7.71139026e-01 1.92280495e+00 2.21438289e+00
      4.30596399e+00 2.72775698e+00 4.78201294e+00</_>
    <_>
      4.71937001e-01 1.31905103e+00 1.58292794e+00 2.53250599e+00
      -4.93441105e+00 -3.44902301e+00 4.64002323e+00</_>
    <_>
      1.16421998e-01 3.64365995e-01 9.77375984e-01 1.88260603e+00
      -3.54300499e+00 -2.21057892e+00 -3.40483594e+00</_>
    <_>
      3.78621995e-01 1.40960503e+00 1.40437400e+00 2.68672991e+00
      -4.81918621e+00 -3.39237189e+00 4.97314596e+00</_>
    <_>
      5.59405029e-01 1.32084799e+00 2.91818810e+00 3.86258006e+00
      8.44408226e+00 -5.19047689e+00 7.25386620e+00</_>
    <_>
      5.45028985e-01 1.76696801e+00 1.67740703e+00 2.71111989e+00
      6.20900822e+00 4.60358286e+00 4.90592194e+00</_>
    <_>
      5.08978009e-01 1.95203996e+00 1.88903499e+00 2.74257708e+00
      -5.42023611e+00 4.61192083e+00 -5.10385418e+00</_>
    <_>
      3.66079003e-01 1.05568802e+00 1.47535098e+00 1.99842405e+00
      3.79248190e+00 2.56817102e+00 4.05306005e+00</_>
    <_>
      6.17191970e-01 1.51780498e+00 3.28864789e+00 4.36410713e+00
      -8.46468353e+00 -5.40494108e+00 -8.26268768e+00</_>
    <_>
      5.96616030e-01 1.70342100e+00 2.28401399e+00 2.92574096e+00
      5.56794977e+00 3.79722404e+00 5.93135691e+00</_>
    <_>
      4.68275994e-01 1.07458198e+00 2.39174294e+00 3.04193306e+00
      5.92153597e+00 4.08111811e+00 -5.89768982e+00</_>
    <_>
      5.59105992e-01 1.32330596e+00 2.67277288e+00 3.06773210e+00
      5.94353819e+00 3.75246406e+00 -6.73688507e+00</_>
    <_>
      5.18459976e-01 1.19648898e+00 2.80100489e+00 3.34913707e+00
      6.48021078e+00 4.15756178e+00 -6.74588203e+00</_>
    <_>
      6.09463990e-01 2.71657801e+00 1.89568698e+00 3.50261807e+00
      -7.12169695e+00 -5.56023216e+00 -6.20493317e+00</_>
    <_>
      6.93225980e-01 2.12859511e+00 2.93336797e+00 4.00100803e+00
      7.47180605e+00 5.97050619e+00 -8.35965729e+00</_>
    <_>
      6.42464995e-01 1.68369198e+00 2.80094099e+00 4.13454103e+00
      -7.70987701e+00 -5.02336216e+00 -7.80634403e+00</_>
    <_>
      4.72963005e-01 2.28526306e+00 1.34857404e+00 2.22094393e+00
      -4.66581106e+00 -3.69927406e+00 4.01634789e+00</_>
    <_>
      4.96127993e-01 1.13815296e+00 2.63444901e+00 3.19192910e+00
      6.15686417e+00 3.97000408e+00 6.44191599e+00</_>
    <_>
      4.15250003e-01 1.06659400e+00 1.73205101e+00 2.47889805e+00
      4.63727093e+00 3.22055411e+00 4.91694021e+00</_>
    <_>
      3.85558993e-01 8.62788975e-01 1.90061498e+00 2.08839512e+00
      4.08381081e+00 2.53803492e+00 5.27201796e+00</_>
    <_>
      5.64608991e-01 1.34115601e+00 2.79174805e+00 3.87149405e+00
      -7.20742607e+00 -4.54643011e+00 8.05635738e+00</_>
    <_>
      5.24324000e-01 1.22638297e+00 2.76939988e+00 3.79494596e+00
      -7.80533123e+00 -4.72752523e+00 -7.08484602e+00</_>
    <_>
      5.85493028e-01 1.42356503e+00 2.72843003e+00 3.63198900e+00
      7.78259182e+00 -4.96534395e+00 -6.81470108e+00</_>
    <_>
      5.31243026e-01 1.33343101e+00 2.91358805e+00 3.75940990e+00
      7.13773203e+00 4.54505205e+00 7.47415781e+00</_>
    <_>
      5.06282985e-01 1.16191101e+00 2.75198293e+00 2.99932289e+00
      5.87505102e+00 3.58045506e+00 7.60826588e+00</_>
    <_>
      5.00199974e-01 1.16142595e+00 2.31187296e+00 2.60842490e+00
      5.06863880e+00 3.18938994e+00 6.83110714e+00</_>
    <_>
      1.22994997e-01 2.84087986e-01 1.45532203e+00 1.54177904e+00
      3.04040098e+00 1.69686496e+00 4.78117895e+00</_>
    <_>
      5.41006029e-01 1.55579698e+00 2.03771400e+00 3.47099996e+00
      7.44889307e+00 -4.28403902e+00 6.22613382e+00</_>
    <_>
      6.36011004e-01 1.59827495e+00 3.13128901e+00 3.92039394e+00
      7.55487108e+00 4.89123917e+00 7.64868689e+00</_>
    <_>
      6.34872973e-01 2.08741093e+00 2.19899297e+00 4.24468994e+00
      7.48679209e+00 5.28906107e+00 7.99163294e+00</_>
    <_>
      4.65018988e-01 1.13522398e+00 1.80601394e+00 2.37942791e+00
      4.52525806e+00 3.21621299e+00 4.80395412e+00</_>
    <_>
      5.52964985e-01 1.77231002e+00 1.90276599e+00 2.84259295e+00
      -5.52222109e+00 -3.81277490e+00 -5.27580404e+00</_>
    <_>
      4.09487009e-01 9.17281985e-01 2.29257011e+00 2.46939301e+00
      4.85067987e+00 2.93361211e+00 -6.27598906e+00</_>
    <_>
      5.33214986e-01 1.65545201e+00 1.74677896e+00 2.71478701e+00
      -5.21403790e+00 -3.68725395e+00 5.02007580e+00</_>
    <_>
      5.48735976e-01 1.55372703e+00 1.90280700e+00 2.33663297e+00
      4.46052885e+00 3.12618709e+00 -5.31638622e+00</_>
    <_>
      5.94290972e-01 1.46775401e+00 2.59636092e+00 3.44001508e+00
      6.82673216e+00 5.26160383e+00 -6.50214720e+00</_>
    <_>
      6.65114999e-01 1.83846903e+00 2.77206111e+00 4.11227608e+00
      -7.96402216e+00 -5.18057299e+00 -7.59015799e+00</_>
    <_>
      2.73393989e-01 6.00387990e-01 1.62811804e+00 1.76181805e+00
      3.45691895e+00 2.06946492e+00 5.06315279e+00</_>
    <_>
      4.62958008e-01 1.09206605e+00 2.07000804e+00 2.66554189e+00
      5.09698820e+00 3.46586490e+00 5.33077812e+00</_>
    <_>
      3.94486994e-01 1.05807102e+00 1.40213895e+00 1.94173205e+00
      3.65382695e+00 2.50056410e+00 -3.99992204e+00</_>
    <_>
      7.27339983e-02 2.04781994e-01 1.50797796e+00 1.99693894e+00
      3.78911495e+00 2.43833208e+00 4.13784122e+00</_>
    <_>
      5.55256009e-01 1.34709501e+00 2.29018593e+00 2.75567508e+00
      5.28815508e+00 3.46808791e+00 5.96175814e+00</_>
    <_>
      5.67758024e-01 1.35919499e+00 2.78825307e+00 3.18293405e+00
      6.17043877e+00 3.87322593e+00 -7.19704390e+00</_>
    <_>
      3.93063009e-01 1.07048094e+00 1.49146903e+00 2.08496809e+00
      3.88151312e+00 2.63763309e+00 4.58548212e+00</_>
    <_>
      5.60711980e-01 1.42906296e+00 3.07423210e+00 3.22091007e+00
      6.47203016e+00 4.04533911e+00 6.57900381e+00</_>
    <_>
      7.30198026e-01 2.71329808e+00 2.96574593e+00 4.77847099e+00
      8.66510677e+00 -6.81735420e+00 9.24507523e+00</_>
    <_>
      5.92525005e-01 1.45048106e+00 2.87725592e+00 3.65959406e+00
      7.10239506e+00 4.76176977e+00 -7.05703783e+00</_>
    <_>
      5.56496024e-01 1.31666696e+00 3.09743810e+00 3.74832010e+00
      7.22851896e+00 4.49577808e+00 -7.48845577e+00</_>
    <_>
      4.85011011e-01 1.11981905e+00 2.61780906e+00 3.39324594e+00
      6.82006502e+00 5.32826614e+00 -6.43245697e+00</_>
    <_>
      2.77563989e-01 6.33621991e-01 1.92889798e+00 2.44451404e+00
      4.70980215e+00 3.20762610e+00 4.89004421e+00</_>
    <_>
      5.23468971e-01 1.23130202e+00 2.55980992e+00 3.39273095e+00
      7.01451588e+00 -5.11263323e+00 6.38040590e+00</_>
    <_>
      6.41393006e-01 3.48675108e+00 2.34460497e+00 3.72162509e+00
      -6.82812119e+00 -5.64166880e+00 7.02598381e+00</_>
    <_>
      5.59485972e-01 1.32693803e+00 2.99592710e+00 3.94110394e+00
      7.82819605e+00 -6.16641188e+00 -7.44376183e+00</_>
    <_>
      5.20241022e-01 1.24547303e+00 2.31220007e+00 3.24225998e+00
      -7.22253323e+00 -4.33301497e+00 6.02034378e+00</_>
    <_>
      4.41554993e-01 1.04418802e+00 1.86337101e+00 2.20217204e+00
      4.24418211e+00 2.83243608e+00 -4.92510319e+00</_>
    <_>
      5.06397009e-01 1.16015100e+00 2.91370106e+00 3.39580393e+00
      6.58120823e+00 4.15877485e+00 6.99085283e+00</_>
    <_>
      5.73491991e-01 1.64171195e+00 2.09875298e+00 2.87471890e+00
      5.38532782e+00 3.69980097e+00 5.85269785e+00</_>
    <_>
      4.21467990e-01 9.41425979e-01 2.38289404e+00 2.56203604e+00
      5.03457785e+00 3.03346395e+00 6.75895596e+00</_>
    <_>
      4.88290995e-01 1.14217198e+00 2.28399897e+00 3.07660794e+00
      6.22686386e+00 -6.06522179e+00 5.78340006e+00</_>
    <_>
      5.99085987e-01 1.72642601e+00 2.53560996e+00 3.95682812e+00
      7.27989578e+00 4.93519115e+00 -7.46589613e+00</_>
    <_>
      5.36813974e-01 3.29681396e+00 1.81978297e+00 3.28448105e+00
      5.83714390e+00 5.17481089e+00 7.14264584e+00</_>
    <_>
      4.13471997e-01 9.87547994e-01 2.19022608e+00 2.44448805e+00
      4.78462076e+00 2.96653104e+00 5.26276302e+00</_>
    <_>
      2.04049006e-01 4.70012993e-01 1.98097003e+00 2.87314701e+00
      -5.67217922e+00 -3.23961592e+00 -5.34338379e+00</_>
    <_>
      5.07173002e-01 1.94414699e+00 1.76531100e+00 2.55582595e+00
      5.31851387e+00 -4.11416578e+00 -4.73040390e+00</_>
    <_>
      6.52944028e-01 1.75489199e+00 2.60416389e+00 3.37322497e+00
      6.38890219e+00 4.41362190e+00 6.82810497e+00</_>
    <_>
      4.01068002e-01 8.96824002e-01 1.97441399e+00 2.13577890e+00
      4.19088411e+00 2.58439708e+00 6.39731789e+00</_>
    <_>
      4.39447999e-01 9.85641003e-01 2.81946707e+00 3.03574109e+00
      5.96372890e+00 3.53367209e+00 -7.33995485e+00</_>
    <_>
      5.04890978e-01 2.11201811e+00 1.55780602e+00 2.28917193e+00
      -4.97446108e+00 -3.71341991e+00 4.21926403e+00</_>
    <_>
      5.25923014e-01 1.25456905e+00 2.26725411e+00 2.82366109e+00
      5.40289497e+00 3.62914300e+00 5.78985691e+00</_>
    <_>
      3.71989012e-01 8.30829978e-01 2.95281291e+00 3.64385390e+00
      7.10556889e+00 4.37618780e+00 7.08055592e+00</_>
    <_>
      3.10487986e-01 7.10856020e-01 2.21885300e+00 3.15872502e+00
      -6.14812517e+00 -3.69068193e+00 5.91012192e+00</_>
    <_>
      5.30707002e-01 1.22646797e+00 3.09780908e+00 3.41194296e+00
      6.66707611e+00 4.02782822e+00 -8.13127327e+00</_>
    <_>
      4.03465003e-01 1.22312701e+00 1.31590199e+00 1.85344100e+00
      3.47130203e+00 2.46766400e+00 -3.86237597e+00</_>
    <_>
      1.32092997e-01 2.99241006e-01 2.11706996e+00 2.92155409e+00
      6.68008900e+00 -3.69905090e+00 -5.44158888e+00</_>
    <_>
      5.05715013e-01 1.29480696e+00 1.87893999e+00 3.01324892e+00
      -5.46136618e+00 -3.66128492e+00 6.47568989e+00</_>
    <_>
      4.33209002e-01 9.91764009e-01 2.04024291e+00 2.37928891e+00
      4.59685087e+00 2.92957497e+00 -5.31538105e+00</_>
    <_>
      3.80861998e-01 1.07562602e+00 2.25621295e+00 2.59522104e+00
      5.43740892e+00 3.60342503e+00 -5.05544186e+00</_>
    <_>
      4.94089991e-01 1.12061095e+00 3.12748408e+00 4.16131496e+00
      -7.83890104e+00 -4.74400377e+00 8.22998905e+00</_>
    <_>
      7.44387984e-01 2.45483994e+00 3.24090004e+00 4.70262003e+00
      8.80630493e+00 -6.66547489e+00 -8.84522629e+00</_>
    <_>
      4.35654014e-01 9.82667029e-01 2.21727204e+00 2.45006108e+00
      4.78373003e+00 2.94151092e+00 -7.36747789e+00</_>
    <_>
      5.40409982e-01 1.41027701e+00 2.32576108e+00 3.76897097e+00
      -7.11617088e+00 -4.47494698e+00 6.87920618e+00</_>
    <_>
      5.73357999e-01 1.64446402e+00 2.00939488e+00 2.82935596e+00
      5.89405584e+00 -4.85486889e+00 5.26014614e+00</_>
    <_>
      3.07556987e-01 7.22742021e-01 1.35659206e+00 1.49770200e+00
      2.92486501e+00 1.86166501e+00 -4.98657894e+00</_>
    <_>
      3.52723986e-01 9.97780025e-01 1.80509305e+00 2.42762899e+00
      4.59249020e+00 2.92652702e+00 4.89329815e+00</_>
    <_>
      5.67992985e-01 1.88748097e+00 1.98105097e+00 3.10472012e+00
      -5.66856909e+00 -4.04857206e+00 6.16564417e+00</_>
    <_>
      4.54780012e-01 1.02242303e+00 2.79772305e+00 3.09798694e+00
      6.04834890e+00 3.64115906e+00 7.01590490e+00</_>
    <_>
      5.75713992e-01 2.00043106e+00 1.96485603e+00 3.00474191e+00
      6.15745115e+00 -4.12013388e+00 5.49980211e+00</_>
    <_>
      4.43078995e-01 1.09579206e+00 2.00419807e+00 2.61398602e+00
      4.92514706e+00 3.21084499e+00 5.93449783e+00</_>
    <_>
      5.19496024e-01 1.23187006e+00 2.43282509e+00 3.40181303e+00
      -7.01924276e+00 -4.35834312e+00 6.32794809e+00</_>
    <_>
      4.54560012e-01 1.03781295e+00 2.66092491e+00 3.10098004e+00
      5.99529123e+00 3.69138098e+00 6.59408188e+00</_>
    <_>
      3.28453988e-01 1.35591304e+00 1.76848698e+00 2.31252909e+00
      -4.64044094e+00 -3.76457000e+00 4.42024612e+00</_>
    <_>
      6.90653980e-01 2.56048107e+00 3.62141609e+00 3.89516497e+00
      -7.95066690e+00 -5.19526482e+00 -7.71721220e+00</_>
    <_>
      3.49642992e-01 1.36526895e+00 1.27332699e+00 2.50405693e+00
      4.45926094e+00 3.20005298e+00 -4.68208122e+00</_>
    <_>
      5.25605023e-01 1.25193202e+00 3.61861300e+00 4.80807590e+00
      -9.23762989e+00 -5.70266104e+00 9.12156677e+00</_>
    <_>
      6.31541014e-01 2.08039904e+00 3.06948805e+00 3.31194806e+00
      6.52129221e+00 4.35214901e+00 -7.04523516e+00</_>
    <_>
      5.48699975e-01 1.39158499e+00 2.17924309e+00 2.87026596e+00
      5.68053579e+00 4.60217714e+00 -5.46291924e+00</_>
    <_>
      3.82317990e-01 1.27015197e+00 1.47700799e+00 2.35631609e+00
      4.36640882e+00 4.07863522e+00 -4.50115204e+00</_>
    <_>
      3.27114999e-01 7.22195983e-01 2.79193306e+00 3.40625811e+00
      6.67695999e+00 4.49396420e+00 -6.63664579e+00</_>
    <_>
      6.33364022e-01 2.28624105e+00 2.40460491e+00 3.35528398e+00
      -6.37276316e+00 -4.53396702e+00 -6.39954901e+00</_>
    <_>
      3.44303995e-01 9.35715973e-01 1.43332100e+00 2.31197190e+00
      -4.30421114e+00 -2.86512208e+00 4.37120199e+00</_>
    <_>
      4.26423997e-01 2.01646805e+00 2.64446497e+00 3.57374191e+00
      6.98987913e+00 -4.86577702e+00 -6.74334908e+00</_>
    <_>
      6.57648981e-01 2.32451606e+00 2.48426008e+00 3.53939295e+00
      -6.94901896e+00 -4.70331097e+00 -6.58910608e+00</_>
    <_>
      3.89934987e-01 9.78497982e-01 1.57485604e+00 2.30499697e+00
      4.57511997e+00 3.65008807e+00 -4.29848003e+00</_>
    <_>
      6.28527999e-01 1.55681098e+00 3.28781104e+00 4.35086203e+00
      -8.52554607e+00 -5.26216888e+00 -8.21721172e+00</_>
    <_>
      4.55381006e-01 1.09009695e+00 2.42194104e+00 3.28742695e+00
      6.46671915e+00 4.90468597e+00 -6.19725800e+00</_>
    <_>
      5.50525010e-01 1.28049099e+00 3.55477309e+00 4.39675093e+00
      9.00745773e+00 -5.67787886e+00 8.38450336e+00</_>
    <_>
      2.70567000e-01 6.06872022e-01 1.25961399e+00 1.39443398e+00
      2.72188401e+00 1.71390998e+00 4.07517004e+00</_>
    <_>
      3.16648990e-01 7.00958014e-01 2.62186098e+00 3.40210509e+00
      6.88742924e+00 -4.64580822e+00 -6.44014215e+00</_>
    <_>
      4.62875009e-01 1.05940104e+00 2.34804296e+00 2.92805409e+00
      5.65254498e+00 3.77828097e+00 5.80790615e+00</_>
    <_>
      6.00076973e-01 1.87896097e+00 2.53531289e+00 3.34907794e+00
      -6.31786013e+00 -4.36971712e+00 6.76046801e+00</_>
    <_>
      1.72337994e-01 4.62127000e-01 1.12792003e+00 1.79427302e+00
      3.54504609e+00 2.96358705e+00 -3.32175899e+00</_>
    <_>
      5.95462024e-01 2.10357189e+00 1.89546800e+00 2.86479902e+00
      5.76908016e+00 4.93890381e+00 5.26528692e+00</_>
    <_>
      5.67466974e-01 1.34391606e+00 3.12376809e+00 3.50263500e+00
      6.81602716e+00 4.17530012e+00 -8.34496689e+00</_>
    <_>
      2.99356997e-01 6.83806002e-01 1.24061406e+00 1.40858197e+00
      2.73392200e+00 1.76959503e+00 3.96692896e+00</_>
    <_>
      4.64547008e-01 1.07095695e+00 2.37235093e+00 2.48905706e+00
      4.92025280e+00 3.04478502e+00 -6.24199581e+00</_>
    <_>
      5.91481984e-01 1.43003595e+00 2.99811292e+00 3.99769211e+00
      -8.34386635e+00 -5.20569181e+00 -7.50000715e+00</_>
    <_>
      4.70706999e-01 1.06397498e+00 2.85039401e+00 3.26653910e+00
      6.33911800e+00 3.86469603e+00 -6.92560005e+00</_>
    <_>
      7.06817985e-01 1.98280501e+00 3.46580505e+00 4.47382593e+00
      8.60984612e+00 5.74216986e+00 -8.57952309e+00</_>
    <_>
      6.58991992e-01 2.53359604e+00 2.54229212e+00 3.52467799e+00
      -6.74935389e+00 4.83615017e+00 6.67443180e+00</_>
    <_>
      4.55487996e-01 1.03039002e+00 2.55682898e+00 2.83854294e+00
      5.53792381e+00 3.37821507e+00 6.59080887e+00</_>
    <_>
      3.78980994e-01 8.54627013e-01 1.80211902e+00 1.86891794e+00
      3.70465302e+00 2.30107903e+00 -5.20488214e+00</_>
    <_>
      4.98607993e-01 2.28397202e+00 2.48156309e+00 4.28175211e+00
      -7.91123486e+00 -5.42851210e+00 -7.74696684e+00</_>
    <_>
      6.34409010e-01 1.56872296e+00 3.58926105e+00 4.27949810e+00
      8.26363659e+00 5.30377913e+00 8.55821800e+00</_>
    <_>
      5.10227025e-01 1.20944297e+00 2.35329604e+00 3.25063396e+00
      7.59046602e+00 -4.29249907e+00 6.05278206e+00</_>
    <_>
      5.98187029e-01 1.68239903e+00 3.19975901e+00 3.26165104e+00
      7.47738981e+00 4.10571718e+00 6.49469519e+00</_>
    <_>
      4.48163003e-01 1.11023200e+00 2.35436797e+00 3.02933002e+00
      5.72633410e+00 3.61219001e+00 -6.53602409e+00</_>
    <_>
      4.33584005e-01 1.35049295e+00 1.57263899e+00 2.44772911e+00
      -5.19774914e+00 -4.29987478e+00 4.46522999e+00</_>
    <_>
      6.17659986e-01 1.50375104e+00 3.61514306e+00 3.97432399e+00
      7.76998901e+00 4.76344681e+00 -8.95313931e+00</_>
    <_>
      4.94648993e-01 1.18033195e+00 2.25919199e+00 3.13395500e+00
      -6.65739918e+00 -4.02423477e+00 5.83540201e+00</_>
    <_>
      2.90156990e-01 7.41137981e-01 1.64941001e+00 2.27907300e+00
      4.60738897e+00 -3.54211092e+00 -4.28827000e+00</_>
    <_>
      5.42459011e-01 1.31732404e+00 2.25026989e+00 2.69730806e+00
      5.17636013e+00 3.39037395e+00 -5.98145485e+00</_>
    <_>
      6.99651003e-01 1.88199699e+00 3.65355611e+00 4.46066380e+00
      8.52403355e+00 5.48280382e+00 -9.29096317e+00</_>
    <_>
      7.22446024e-01 2.24287295e+00 3.92600489e+00 4.89471388e+00
      1.01257801e+01 6.44759512e+00 -9.31008911e+00</_>
    <_>
      5.42806029e-01 1.26588297e+00 3.23882198e+00 3.64156294e+00
      7.08931398e+00 4.32416105e+00 -7.81468582e+00</_>
    <_>
      6.65575981e-01 3.20593810e+00 2.79165411e+00 3.56603098e+00
      -7.03341818e+00 5.24794388e+00 6.81166983e+00</_>
    <_>
      5.56629002e-01 1.35283399e+00 2.39788699e+00 3.08603597e+00
      5.97996378e+00 4.14810896e+00 -5.97707081e+00</_>
    <_>
      5.85812986e-01 1.47451496e+00 2.39051199e+00 3.50410008e+00
      -6.45487881e+00 -4.24430704e+00 -7.35116577e+00</_>
    <_>
      2.86036998e-01 6.43568993e-01 2.31996202e+00 3.28713989e+00
      -6.12591219e+00 -3.62004995e+00 -6.50304317e+00</_>
    <_>
      4.09096986e-01 9.16758001e-01 2.16000605e+00 2.31722999e+00
      4.55593204e+00 2.77653408e+00 6.26376820e+00</_>
    <_>
      3.88745010e-01 1.05731404e+00 1.65567195e+00 2.19704509e+00
      4.13408709e+00 2.72573090e+00 4.78273582e+00</_>
    <_>
      4.68858004e-01 1.10447598e+00 2.28540492e+00 2.82031703e+00
      5.38775396e+00 3.48060393e+00 5.96698380e+00</_>
    <_>
      3.80174011e-01 9.38942015e-01 1.89072597e+00 2.24086690e+00
      4.33565712e+00 2.73670292e+00 -4.75822783e+00</_>
    <_>
      3.54045004e-01 8.66587996e-01 2.64921498e+00 3.15599298e+00
      6.06094885e+00 3.61891103e+00 7.04248810e+00</_>
    <_>
      5.90842009e-01 1.42802596e+00 2.99162006e+00 3.52062798e+00
      6.80237818e+00 4.36034918e+00 -7.25347424e+00</_>
    <_>
      5.38893998e-01 1.29620898e+00 2.37223411e+00 3.39513707e+00
      -6.66643095e+00 -4.25787878e+00 -6.31870794e+00</_>
    <_>
      5.87979019e-01 1.40249503e+00 3.15440702e+00 4.00955200e+00
      7.94568110e+00 5.67866182e+00 -7.63883591e+00</_>
    <_>
      4.75627989e-01 1.07690704e+00 2.85218000e+00 3.33617592e+00
      6.45945787e+00 4.03351498e+00 -6.88114309e+00</_>
    <_>
      6.12672985e-01 1.51123595e+00 2.93399501e+00 3.56161594e+00
      6.83747196e+00 4.36409616e+00 7.26770020e+00</_>
    <_>
      4.14436996e-01 9.38347995e-01 2.08177996e+00 2.26353908e+00
      4.43639994e+00 2.73454094e+00 5.95303011e+00</_>
    <_>
      5.91497004e-01 1.78781998e+00 2.25441790e+00 3.25047398e+00
      -6.15584707e+00 -4.14444590e+00 6.15105009e+00</_>
    <_>
      3.00922990e-01 6.90352976e-01 1.87776995e+00 2.70592308e+00
      -7.53489494e+00 -3.44082689e+00 -4.99777079e+00</_>
    <_>
      5.66691995e-01 1.34138799e+00 3.21135402e+00 4.32217407e+00
      -8.11818314e+00 -5.03012609e+00 -8.53874302e+00</_>
    <_>
      5.54391026e-01 1.44240904e+00 2.24444008e+00 2.41130304e+00
      4.74275017e+00 3.15730596e+00 5.63272715e+00</_>
    <_>
      4.00700003e-01 9.82443988e-01 2.02616596e+00 2.48552299e+00
      4.74332523e+00 2.98092389e+00 -5.76485586e+00</_>
    <_>
      6.80319011e-01 1.76519501e+00 3.99630499e+00 4.97030497e+00
      9.58309937e+00 6.01574707e+00 9.62740898e+00</_>
    <_>
      5.63112020e-01 1.33811796e+00 3.92031503e+00 4.70952797e+00
      9.29137230e+00 6.99784088e+00 9.09959126e+00</_>
    <_>
      2.98841000e-01 6.66803002e-01 1.93357396e+00 2.14193010e+00
      4.18174219e+00 2.49487901e+00 5.19215012e+00</_>
    <_>
      4.62235004e-01 1.06362998e+00 1.92273402e+00 2.09814191e+00
      4.10863590e+00 2.63098311e+00 -5.90015411e+00</_>
    <_>
      4.36886013e-01 9.83956993e-01 2.24881005e+00 2.44249010e+00
      4.78849602e+00 2.93893909e+00 -6.18167686e+00</_>
    <_>
      4.66410011e-01 1.07848096e+00 2.36619711e+00 3.36996388e+00
      -6.59190989e+00 -4.08971596e+00 -6.28541803e+00</_>
    <_>
      4.88624007e-01 1.11601698e+00 2.97777009e+00 3.36652088e+00
      6.54268694e+00 3.95152402e+00 7.40686798e+00</_>
    <_>
      7.00987995e-01 2.27862191e+00 3.15799904e+00 4.41164923e+00
      -8.34061718e+00 -5.55723000e+00 8.35355091e+00</_>
    <_>
      7.07426012e-01 2.28112292e+00 3.04472303e+00 4.32053423e+00
      -8.15512371e+00 -5.93280792e+00 -8.15224171e+00</_>
    <_>
      5.99139988e-01 1.44745803e+00 3.84808302e+00 4.69055223e+00
      9.22524071e+00 6.43366814e+00 9.03565788e+00</_>
    <_>
      5.43918014e-01 2.05908394e+00 1.66825497e+00 2.78529692e+00
      -5.11908007e+00 -4.16803694e+00 -5.21705389e+00</_>
    <_>
      4.45522994e-01 1.00125301e+00 2.99525905e+00 3.22422791e+00
      6.33419800e+00 3.73703504e+00 -7.82407284e+00</_>
    <_>
      4.81525004e-01 1.12053895e+00 2.14135003e+00 2.44766903e+00
      4.74759579e+00 3.05496693e+00 -5.54634190e+00</_>
    <_>
      5.34130991e-01 1.75975299e+00 1.75371897e+00 2.72942495e+00
      -5.66680479e+00 -3.72514510e+00 4.97999382e+00</_>
    <_>
      4.19294000e-01 1.05232704e+00 1.73537898e+00 2.36693001e+00
      4.42669582e+00 2.91456509e+00 5.12318420e+00</_>
    <_>
      2.21239999e-01 4.93007988e-01 2.34874201e+00 3.27349901e+00
      -6.39175797e+00 -3.68957591e+00 6.14509010e+00</_>
    <_>
      5.56828976e-01 1.31137502e+00 4.29907703e+00 4.56881809e+00
      9.00593853e+00 5.25194597e+00 -9.92193794e+00</_>
    <_>
      6.95249975e-01 1.89825499e+00 4.06814814e+00 5.36361504e+00
      -1.01581306e+01 -6.32899904e+00 -1.03381987e+01</_>
    <_>
      4.13794994e-01 1.15638006e+00 2.44357610e+00 3.13427711e+00
      -6.11316013e+00 -4.62404108e+00 -6.04035091e+00</_>
    <_>
      5.26437998e-01 1.23363304e+00 2.51478195e+00 2.84922004e+00
      5.53129578e+00 3.46666789e+00 -7.25965881e+00</_>
    <_>
      9.34059992e-02 2.45413005e-01 2.17455792e+00 2.10523009e+00
      4.25056410e+00 2.23000908e+00 5.04844093e+00</_>
    <_>
      4.27545011e-01 9.88668978e-01 3.28286004e+00 3.45390892e+00
      6.82622385e+00 3.98713493e+00 7.69537306e+00</_>
    <_>
      3.52605999e-01 9.73821998e-01 1.65743303e+00 2.51609993e+00
      4.70320082e+00 3.08316898e+00 -4.81875896e+00</_>
    <_>
      5.17982006e-01 1.22302496e+00 2.35388589e+00 2.76579809e+00
      5.33706379e+00 3.45267391e+00 -5.97080803e+00</_>
    <_>
      5.57754993e-01 1.32172096e+00 2.72550797e+00 3.58456612e+00
      7.12749004e+00 5.54606390e+00 6.77943182e+00</_>
    <_>
      4.73612994e-01 1.36433399e+00 2.03142309e+00 2.60178089e+00
      5.85232782e+00 3.95347190e+00 4.92134619e+00</_>
    <_>
      6.50895000e-01 1.84012699e+00 2.71517611e+00 3.79162407e+00
      7.06522989e+00 4.83247709e+00 7.57067919e+00</_>
    <_>
      5.87706983e-01 1.77128899e+00 2.92345190e+00 3.74735188e+00
      -7.23557091e+00 4.84917116e+00 -7.23098993e+00</_>
    <_>
      3.79155993e-01 8.42022002e-01 1.98938501e+00 2.13144708e+00
      4.19192219e+00 2.55490303e+00 -5.97515011e+00</_>
    <_>
      5.70885003e-01 1.63552904e+00 2.31238508e+00 2.62109804e+00
      5.19322300e+00 3.47652698e+00 5.29539394e+00</_>
    <_>
      5.20111978e-01 1.22054303e+00 2.47073793e+00 3.13680410e+00
      6.02853489e+00 3.98228312e+00 6.17930794e+00</_>
    <_>
      4.91158009e-01 1.13708305e+00 2.47065592e+00 3.24757409e+00
      6.42519617e+00 4.93722677e+00 -6.16363096e+00</_>
    <_>
      5.76481998e-01 2.00480890e+00 1.85828495e+00 3.05940104e+00
      -5.81717920e+00 -4.17725611e+00 5.58141613e+00</_>
    <_>
      5.43949008e-01 1.88334894e+00 1.68675101e+00 2.78485990e+00
      -5.02562284e+00 -3.77851892e+00 -5.84387207e+00</_>
    <_>
      5.88693976e-01 1.41546202e+00 2.93771100e+00 3.75119400e+00
      7.30468512e+00 5.06951904e+00 -7.20010805e+00</_>
    <_>
      2.73324013e-01 6.02724016e-01 2.82648492e+00 3.64790106e+00
      -8.03841877e+00 -4.26934385e+00 6.88616896e+00</_>
    <_>
      3.54806006e-01 7.83488989e-01 1.95568001e+00 2.08661199e+00
      4.10780096e+00 2.48364592e+00 -5.95732689e+00</_>
    <_>
      4.82793003e-01 1.09215295e+00 2.90432501e+00 3.31442404e+00
      6.43924999e+00 3.97174096e+00 7.00537205e+00</_>
    <_>
      3.45086992e-01 1.18707395e+00 9.85925019e-01 1.69643700e+00
      3.36323690e+00 2.86153793e+00 3.09247303e+00</_>
    <_>
      2.72839010e-01 6.21213973e-01 1.84044504e+00 2.79562593e+00
      -5.12179279e+00 -3.11578608e+00 5.83100986e+00</_>
    <_>
      5.79132974e-01 1.38725495e+00 2.73762393e+00 3.21385503e+00
      6.19594812e+00 3.93064904e+00 6.95961905e+00</_>
    <_>
      6.57155991e-01 1.67198598e+00 3.31545210e+00 3.79338694e+00
      7.35101891e+00 4.64249086e+00 8.26433563e+00</_>
    <_>
      6.06588006e-01 1.52109694e+00 3.05505109e+00 3.28687191e+00
      6.46617794e+00 4.07260990e+00 -7.16966105e+00</_>
    <_>
      3.10647011e-01 7.47839987e-01 2.02385402e+00 2.53521609e+00
      4.86252880e+00 3.61055899e+00 5.16696692e+00</_>
    <_>
      7.08567977e-01 2.42671990e+00 3.60296512e+00 3.70941401e+00
      7.37322998e+00 4.93684578e+00 -8.09663105e+00</_>
    <_>
      6.70304000e-01 1.72230601e+00 3.79380989e+00 4.83862495e+00
      -9.43704605e+00 -5.80707121e+00 9.22396946e+00</_>
    <_>
      5.94121993e-01 1.45340800e+00 2.95246410e+00 4.05509281e+00
      -7.93026686e+00 -4.97411823e+00 7.60217810e+00</_>
    <_>
      5.52302003e-01 2.24518299e+00 1.66485906e+00 3.12206101e+00
      -5.52119780e+00 -4.24725580e+00 -6.30967712e+00</_>
    <_>
      2.44545996e-01 5.59477985e-01 1.67716205e+00 2.51677394e+00
      -5.34729195e+00 -3.10546088e+00 -4.62127876e+00</_>
    <_>
      4.80338991e-01 1.08908904e+00 2.73738790e+00 2.97015810e+00
      5.82420778e+00 3.51760292e+00 7.27095222e+00</_>
    <_>
      6.00588977e-01 2.01845694e+00 1.88204801e+00 2.77725291e+00
      5.37586021e+00 4.11924505e+00 5.18121099e+00</_>
    <_>
      3.10389012e-01 8.45945001e-01 1.38486505e+00 2.22396493e+00
      4.22820377e+00 3.05186605e+00 4.13873720e+00</_>
    <_>
      4.87232000e-01 1.14082301e+00 2.26826811e+00 2.78808403e+00
      5.36779308e+00 3.55239701e+00 5.65385389e+00</_>
    <_>
      5.60202003e-01 1.32538497e+00 2.82043910e+00 3.29714990e+00
      6.37625694e+00 4.03458881e+00 -6.88050985e+00</_>
    <_>
      3.35503995e-01 7.43171990e-01 2.36752510e+00 2.94980097e+00
      5.72266817e+00 3.72333097e+00 5.80260706e+00</_>
    <_>
      6.25214994e-01 1.52690005e+00 3.65670896e+00 4.72757387e+00
      -9.79064941e+00 -5.86580801e+00 8.92368603e+00</_>
    <_>
      3.74837995e-01 8.49685013e-01 2.22231293e+00 3.03503203e+00
      6.35293102e+00 -4.23842192e+00 5.67298412e+00</_>
    <_>
      5.19146979e-01 1.21564996e+00 2.75149012e+00 3.38199806e+00
      6.61318207e+00 4.36647081e+00 6.58617020e+00</_>
    <_>
      4.86568987e-01 1.11652696e+00 2.61024189e+00 3.38867998e+00
      6.69326210e+00 4.77764988e+00 6.44926310e+00</_>
    <_>
      5.75747013e-01 1.81954098e+00 2.92807508e+00 3.31238890e+00
      -7.73981380e+00 -4.48921013e+00 6.43314886e+00</_>
    <_>
      4.27558005e-01 9.64658976e-01 2.19319296e+00 2.52935696e+00
      4.89719296e+00 3.07021809e+00 5.65377998e+00</_>
    <_>
      4.38562989e-01 9.91002023e-01 2.53665996e+00 3.21798992e+00
      6.26562691e+00 4.24620295e+00 6.22768784e+00</_>
    <_>
      4.44110990e-01 1.00675797e+00 2.31283903e+00 2.67000794e+00
      5.17441416e+00 3.27162504e+00 -5.77958584e+00</_>
    <_>
      4.51920986e-01 1.33929801e+00 3.22807097e+00 2.59892106e+00
      5.51838493e+00 3.26992202e+00 6.29584789e+00</_>
    <_>
      3.72909009e-01 8.49209011e-01 1.78574097e+00 2.14360189e+00
      4.12136698e+00 2.66433096e+00 -4.72462797e+00</_>
    <_>
      6.47664011e-01 2.41434002e+00 2.26984811e+00 3.26034403e+00
      6.25024986e+00 4.46916389e+00 6.12070084e+00</_>
    <_>
      5.89280009e-01 1.39966094e+00 4.13951111e+00 4.66072416e+00
      9.06130600e+00 5.37750912e+00 -1.03960581e+01</_>
    <_>
      6.27835989e-01 1.56316400e+00 3.11591601e+00 3.61881304e+00
      6.98624420e+00 4.40060711e+00 8.74122906e+00</_>
    <_>
      7.26429999e-01 2.15429497e+00 3.25450993e+00 4.04413223e+00
      7.70836878e+00 5.14469719e+00 8.28241158e+00</_>
    <_>
      6.76899016e-01 4.22648287e+00 2.41643405e+00 3.39213490e+00
      -6.50317478e+00 6.72002506e+00 6.40230417e+00</_>
    <_>
      5.28114974e-01 2.04440999e+00 2.02949500e+00 2.82144594e+00
      -5.88015604e+00 4.36765814e+00 -5.25900316e+00</_>
    <_>
      5.34303010e-01 1.24956203e+00 2.71077204e+00 3.74950504e+00
      -7.11618185e+00 -4.45864201e+00 7.14509678e+00</_>
    <_>
      5.42797983e-01 1.27573502e+00 3.30314708e+00 4.55425406e+00
      -8.51625919e+00 -5.23834610e+00 -8.90652084e+00</_>
    <_>
      6.26565993e-01 1.59938502e+00 2.77981710e+00 3.57212400e+00
      6.88524485e+00 4.93706083e+00 -6.91284990e+00</_>
    <_>
      2.63963997e-01 5.89115024e-01 2.04662490e+00 2.19204307e+00
      4.31139183e+00 2.48733211e+00 6.38638115e+00</_>
    <_>
      6.35939002e-01 1.57967103e+00 3.76297593e+00 4.27118587e+00
      8.29142570e+00 5.07631683e+00 -9.20846844e+00</_>
    <_>
      3.52292001e-01 7.90553987e-01 1.90961003e+00 2.14461493e+00
      4.17513323e+00 2.57453489e+00 5.07568121e+00</_>
    <_>
      3.93007010e-01 1.08626997e+00 1.58414102e+00 2.38065290e+00
      4.53811216e+00 3.16588306e+00 4.49151421e+00</_>
    <_>
      4.80567008e-01 1.09736300e+00 2.50110602e+00 2.78962708e+00
      5.43741703e+00 3.37100601e+00 6.41229820e+00</_>
    <_>
      5.21202028e-01 1.22023904e+00 2.54687905e+00 3.27085304e+00
      6.33801985e+00 4.46785498e+00 -6.32271814e+00</_>
    <_>
      3.98622990e-01 1.31070602e+00 1.44401705e+00 2.33191109e+00
      -4.32515097e+00 -3.15228200e+00 4.42760420e+00</_>
    <_>
      6.07230008e-01 1.50628495e+00 2.85565710e+00 3.54501295e+00
      6.83201885e+00 4.54037714e+00 6.98668718e+00</_>
    <_>
      4.85951990e-01 3.00655508e+00 2.26866794e+00 3.34324193e+00
      -7.07184696e+00 -4.88072300e+00 -6.15231991e+00</_>
    <_>
      4.49297994e-01 1.07791102e+00 1.91025496e+00 2.69932795e+00
      5.54780817e+00 -4.18758297e+00 -5.02264500e+00</_>
    <_>
      6.23665988e-01 1.53363895e+00 3.36390805e+00 3.72606802e+00
      7.27108479e+00 4.50006819e+00 -9.20582199e+00</_>
    <_>
      4.73037988e-01 1.09507406e+00 2.08578801e+00 2.42769504e+00
      4.68758106e+00 2.99766707e+00 5.60566711e+00</_>
    <_>
      5.57971001e-01 1.34204304e+00 2.54153490e+00 3.35413909e+00
      6.53147793e+00 4.85239601e+00 6.39469719e+00</_>
    <_>
      5.61769009e-01 1.32577002e+00 3.48569798e+00 3.92970490e+00
      7.64647293e+00 4.63813877e+00 8.33156967e+00</_>
    <_>
      4.60694999e-01 1.08425105e+00 2.02746201e+00 2.61448193e+00
      5.01542377e+00 3.45966792e+00 5.19112492e+00</_>
    <_>
      3.20125014e-01 7.15498984e-01 1.41632998e+00 1.52355194e+00
      2.99349308e+00 1.88154399e+00 -6.17162609e+00</_>
    <_>
      3.25834990e-01 9.94665027e-01 1.20791900e+00 2.18838000e+00
      -4.26667976e+00 -3.03412700e+00 -3.92795110e+00</_>
    <_>
      2.77249008e-01 6.31888986e-01 2.03706598e+00 2.90206695e+00
      -6.36850882e+00 -3.64593196e+00 5.37384796e+00</_>
    <_>
      3.58972996e-01 8.34273994e-01 1.86658204e+00 2.82322788e+00
      -5.18451977e+00 -3.24516702e+00 5.73739910e+00</_>
    <_>
      2.13707000e-01 4.77454990e-01 3.31545305e+00 4.47062302e+00
      -8.83081245e+00 -4.74360085e+00 8.39051723e+00</_>
    <_>
      3.41955990e-01 7.99471974e-01 2.28428698e+00 2.29729891e+00
      4.58875895e+00 2.71146703e+00 5.84462881e+00</_>
    <_>
      4.35716003e-01 1.07815194e+00 2.22643209e+00 2.89338708e+00
      5.57175303e+00 3.65758491e+00 -5.64143610e+00</_>
    <_>
      4.92042989e-01 1.56278300e+00 1.99907601e+00 3.41294694e+00
      6.13240004e+00 4.19566107e+00 6.72979307e+00</_>
    <_>
      6.12210989e-01 1.47506905e+00 4.40233994e+00 5.26151896e+00
      1.02782040e+01 6.47618294e+00 1.02143927e+01</_>
    <_>
      3.07601005e-01 7.13732004e-01 2.14954495e+00 3.08712602e+00
      -6.70031500e+00 -3.66147208e+00 -5.70769691e+00</_>
    <_>
      5.50553977e-01 2.12542391e+00 1.90845394e+00 3.23886204e+00
      5.81834221e+00 4.30404615e+00 -6.60126877e+00</_>
    <_>
      5.04404008e-01 1.18346798e+00 2.40223098e+00 3.11027408e+00
      5.99598122e+00 4.00060415e+00 6.04036617e+00</_>
    <_>
      4.26571995e-01 9.71723020e-01 2.13802409e+00 2.58087993e+00
      4.97056484e+00 3.23534703e+00 -5.38340187e+00</_>
    <_>
      1.08029999e-01 3.51675004e-01 1.01684296e+00 2.00600791e+00
      -3.54163504e+00 -2.20087004e+00 4.00587416e+00</_>
    <_>
      3.48827004e-01 9.85602975e-01 1.49061704e+00 2.44227791e+00
      4.42688704e+00 2.97022009e+00 -4.95655394e+00</_>
    <_>
      5.06735027e-01 1.51072502e+00 2.47407699e+00 4.14719391e+00
      7.65459919e+00 -5.05062389e+00 -7.57023287e+00</_>
    <_>
      3.59669000e-01 9.74785984e-01 1.57234800e+00 2.44622707e+00
      -4.71833181e+00 -3.09025097e+00 4.53237820e+00</_>
    <_>
      5.13864994e-01 1.19239402e+00 2.37986803e+00 2.64941597e+00
      5.16429377e+00 3.24585390e+00 -6.64626789e+00</_>
    <_>
      5.24735987e-01 2.40983295e+00 1.58838105e+00 3.14005494e+00
      6.13508415e+00 -5.07642984e+00 -5.51650000e+00</_>
    <_>
      4.73035991e-01 1.15480399e+00 2.78872395e+00 3.05661798e+00
      5.99277306e+00 3.63603401e+00 -6.58946514e+00</_></support_vectors>
  <decision_functions>
    <_>
      <sv_count>278</sv_count>
      <rho>3.1850121609507109e-01</rho>
      <alpha>
        1. 8.9096211341010556e-01 1. 1. 7.1693463665723645e-01 1.
        1.4190420031754858e-02 1. 2.7581675256664318e-01 1. 1. 1. 1.
        4.1615601633804755e-01 1. 1. 2.8387458056872067e-02 1. 1.
        6.5367258735267897e-01 1. 1. 9.3101282868067148e-01
        3.4896622765258800e-01 1. 5.2213623734109049e-01
        6.7728338914874753e-01 8.2339333481982446e-01 1.
        8.4687300139500166e-01 3.4326127486563562e-01 1.
        4.9846589676977721e-01 8.9221422816419005e-01
        9.6470633838543862e-01 9.0691140779444412e-01
        1.1632026605970532e-01 6.0217371020992116e-01 1. 1. 1. 1.
        5.9343724871565950e-01 1. 8.2871143367531164e-01 1. 1. 1. 1. 1.
        4.4593690794315832e-01 6.6447218007725267e-02
        7.0333102756554067e-01 5.7074005096429536e-01
        4.1262549440477891e-01 1.9151608515374777e-01 1.
        7.6925345920428123e-01 7.7093921048028247e-01
        2.2669431096813603e-02 1. 1. 3.3643508223123036e-01 1. 1.
        2.4712814009702544e-01 1. 6.2578459162291289e-01
        9.1751932032766781e-01 1. 1.0766773459445443e-01 1.
        6.1233134106954279e-01 1. 1. 2.9023337039846227e-02
        6.1574194274390703e-01 1. 1. 5.0929603517951824e-02 1. 1.
        4.8557124256001105e-01 6.4866830280743104e-01 1.
        1.5915626925840531e-01 2.0063163197254399e-01
        4.1383095690386135e-01 2.0987670187468049e-01 1.
        8.1029137734040557e-01 1. 1. 1.7235633714942977e-01
        7.5875758520013359e-01 9.4994347424973746e-01
        7.5722669405573884e-01 1. 6.4530698688049914e-01 1.
        7.8308514154317421e-01 3.5310501540857059e-01
        3.9832737781257344e-01 3.4683899392679685e-01
        7.4862980486220343e-01 1. 8.4258145511095828e-01
        6.4669272734884679e-03 3.6201869317966806e-01
        7.0968677333266628e-01 1. 1. 1.6607201347153186e-01 1.
        6.1579471052996076e-02 1. 9.0249803048957700e-01
        3.2169495380557724e-02 1. 1. 1. 1. 1. 9.1753592825551811e-01 1.
        9.0417973667770024e-01 1. 1. 2.9170237725737080e-01
        2.9014790261758450e-01 1. 5.8339134778821675e-02 1. 1.
        8.0355556926469374e-01 1. 9.3315471882282092e-02 1. 1. 1. 1. 1.
        -1. -1. -4.2953003775371190e-01 -9.9015375156589891e-01 -1.
        -3.9724942416189390e-01 -6.9764288168982969e-01 -1.
        -6.1187882717308784e-01 -4.5054355401643209e-01
        -2.9595438503436733e-01 -1. -1. -1. -1. -1. -1. -1. -1.
        -4.8682195966966557e-01 -1. -1. -7.5567672796807073e-01
        -4.9990807570681411e-01 -1. -1. -3.5883746901198893e-01 -1. -1.
        -7.7489171848088445e-01 -6.8488551712164802e-01 -1. -1.
        -4.3988150383254021e-01 -1. -8.8563875064571773e-01
        -6.8107368406926805e-01 -1. -6.8049297607374393e-01
        -9.6941650545052369e-02 -3.2888622010079105e-01
        -3.9768363822018127e-01 -1. -1. -1. -4.5257750245245199e-01
        -2.4055026676311858e-01 -8.1844129743189575e-01 -1.
        -5.5497401347692776e-01 -5.4879750902582747e-01
        -6.8392095735488068e-01 -1. -1. -1. -1. -1. -1.
        -3.9932606815838850e-01 -8.5469614531171290e-01 -1.
        -6.8237901408397628e-01 -9.2475357813684600e-02 -1. -1.
        -3.9193320874498927e-01 -1. -1. -1. -1.9066089943635822e-01
        -2.8191907258900273e-01 -6.7241548244545446e-01 -1. -1.
        -8.4863426257149333e-01 -3.4255083763103938e-01
        -6.2644730762763001e-01 -1. -1. -7.0278290983954134e-02 -1. -1.
        -1. -6.3920004875877023e-01 -1. -1. -4.9240656443430197e-01
        -7.8224433471554933e-01 -8.6383015167227706e-01
        -1.5087691457821589e-01 -1. -6.8315691254975541e-01 -1. -1.
        -7.8703399269341301e-01 -4.1784582400375631e-01 -1.
        -9.9573500919472169e-01 -1. -3.9285459824417135e-01 -1.
        -5.2054736060095297e-01 -1. -1. -1. -6.7158640422874893e-01
        -3.9589483318956242e-01 -1. -1. -7.2713145206655438e-01 -1. -1.
        -1.6351892306260013e-01 -6.9352372308732013e-01 -1.
        -4.6085201690464483e-02 -1. -7.4478164063123020e-01
        -4.9703834955870785e-01 -6.7386735215586113e-01 -1. -1.
        -4.7418408379669241e-01 -5.3246262903127106e-01
        -8.6368367367433430e-01 -1. -6.7646166741545732e-01 -1. -1.
        -3.6146759554480262e-01 -6.2575516226925898e-01 -1. -1.
        -1.0073501039499272e-01 -1. -1.</alpha>
      <index>
        1 3 117 5 6 7 8 164 10 11 154 14 15 121 18 19 205 22 24 155 204
        28 124 30 32 34 126 37 38 39 201 127 174 41 44 130 46 131 48 157
        220 53 54 197 135 57 58 59 60 62 137 195 166 139 67 68 70 71 72
        74 141 142 79 194 81 83 143 87 88 192 144 93 146 147 99 101 160
        177 104 106 168 108 109 110 111 113 114 209 211 212 216 217 219
        222 224 225 227 232 233 234 235 236 237 240 244 248 252 255 259
        266 267 274 279 280 283 288 289 292 295 296 298 300 303 305 307
        309 310 314 315 318 319 322 324 326 327 328 329 331 332 340 343
        344 213 214 215 25 27 175 221 29 35 223 0 226 42 228 229 45 47
        50 51 52 56 61 238 239 63 65 66 241 243 73 75 76 77 78 250 251
        82 85 91 94 253 95 97 98 254 102 256 103 257 105 107 260 261 115
        116 263 264 265 118 268 269 270 120 125 272 128 129 132 133 275
        276 140 278 145 281 282 149 150 284 151 285 286 287 152 153 158
        291 159 162 163 165 167 297 169 170 299 171 172 304 134 176 308
        178 182 183 312 313 184 186 187 316 317 188 190 193 323 196 198
        199 200 203 206 207 334 336 337 4 341 9 12 345 346 347 348 13
        351</index></_>
    <_>
      <sv_count>121</sv_count>
      <rho>-7.5562527827042780e-01</rho>
      <alpha>
        1.3714144247116755e-02 3.9084952062964373e-01
        3.4939893927313170e-01 4.0932329522969157e-02
        7.5756844580560034e-01 6.1648535000291367e-03
        9.1520897863299214e-02 1.5663292503253190e-01
        1.6216950908922123e-01 2.5946766898014073e-01 1.
        2.9843214376034544e-01 1.8191441561044591e-01
        1.7754360493020799e-01 4.2351964365101291e-01
        8.2187937343220696e-01 1.8819135400896866e-01
        6.5156374345886031e-02 1.3487331445876882e-01
        1.7715282671767180e-01 8.8134444483463387e-02
        2.1160872680258400e-01 7.2955663259858694e-01
        1.0861785480720737e-01 4.5029215103281933e-01
        6.8275392740583543e-02 1.2269063895521425e-01
        4.6108916359086871e-01 4.9989453491548153e-02
        1.3250432977260590e-01 1.2294518943743658e-01
        4.3279138955631130e-01 1.4746399704819904e-01
        5.5831373905641890e-01 3.5507968604169671e-01
        1.8609626077254404e-01 1.9521033471192600e-01
        2.3601422378572635e-02 4.0573735966815107e-02
        5.8465831716701888e-01 7.8497175551723863e-03
        4.6953405676148641e-02 1.7628426718865275e-01
        2.1863125796625360e-01 1.2730999703842649e-01
        2.2897554184823271e-01 2.1386976992971093e-01
        6.1163380305905646e-01 1.9003698536631067e-01
        1.9137802343122190e-01 9.6408183585696361e-02
        2.1591453635258995e-01 5.0216935410335839e-01
        2.8465378417329207e-01 2.5063990553632781e-01
        1.6944507071661510e-01 2.4724241556990267e-01
        9.0676670488039512e-02 7.8366656929053646e-02
        1.9057947978309125e-01 9.0900464351324164e-02
        3.7502166857620524e-03 1.4502489473758678e-01
        1.5917758461739501e-02 4.8604023088777454e-01
        1.4141394577239663e-01 1.8488200526588977e-01
        1.1692157859252013e-02 1.8544153680125858e-01
        7.3060951779602964e-02 8.7507933089399914e-02
        2.6104930578772556e-02 7.0445475413139266e-02
        1.5331779726918082e-01 5.7314622825502881e-01
        3.7880435877682367e-01 5.1016163164750744e-02
        1.6618524237952118e-01 3.1889466232918279e-01
        9.6838698359953346e-02 2.7654625608316707e-01
        1.6059059543794765e-01 1.9916882816316192e-02 1.
        1.6669661067425615e-01 2.5772123337034031e-01
        2.7428314672403659e-01 6.0107687799818371e-02 1.
        2.7445558094831712e-01 3.4311798955645983e-01
        1.6853275166039175e-01 2.1761190464894470e-01
        2.5325004971760512e-01 1.9026243782510577e-01
        2.3359648748361755e-01 9.3733076146656247e-01 -1. -1. -1. -1.
        -1. -1. -1. -1. -1. -1. -1. -1. -1. -1. -1. -1. -1. -1. -1. -1.
        -1. -1. -1. -1.</alpha>
      <index>
        1 117 5 6 7 8 164 154 14 15 121 17 18 19 205 22 24 155 204 28
        124 32 34 37 38 39 201 174 41 44 48 49 220 53 135 57 58 136 60
        62 166 139 71 141 142 194 143 88 192 93 146 147 100 177 104 168
        108 109 110 111 113 114 212 216 217 224 225 234 244 247 248 252
        259 267 271 273 274 277 283 288 289 298 303 307 309 310 314 318
        319 324 326 327 329 331 332 340 344 148 55 339 180 96 89 218 342
        86 230 258 290 26 302 242 330 23 231 333 80 245 112 20 338</index></_>
    <_>
      <sv_count>99</sv_count>
      <rho>-7.8298834509855686e-01</rho>
      <alpha>
        3.4880297155749845e-01 1.6524293834723702e-01
        3.6199410936561982e-02 4.2734917336842848e-01
        1.6028721102514881e-02 4.9783080072740495e-02
        7.3995779255682070e-01 1.3404348434331304e-01
        1.5764424337359401e-01 4.3769823641665428e-02
        1.8075742397200520e-01 2.2640130120669660e-03
        1.1001936849180091e-01 2.2179160689152586e-01
        4.2299077813659117e-02 1.8159197218009882e-01
        1.6178460085156920e-01 9.6516693619786653e-02
        1.7144802031131162e-01 1.3619126439000437e-01
        4.6184814593626750e-01 1.5308576290316145e-01
        1.4626312575574230e-01 1.3537383601382982e-01
        1.8227661970695391e-01 1.7955712806699403e-01
        1.1658414645490606e-01 5.6471660370969734e-01
        7.9007418073608310e-02 4.1808240791470108e-02
        5.8231173716968487e-01 9.9120688418613170e-02
        1.6666428115749393e-01 1.7995202834914248e-01
        9.9288597656021216e-02 2.2786701557134581e-01
        2.0333396678069127e-01 5.8736438815404267e-02
        6.3167439242931089e-01 9.5308330298679911e-01
        8.9583051410245862e-02 1.6994510917683597e-01
        8.8483847282816719e-02 1.9175016177784548e-01
        5.9515354154780031e-01 1.4917102174626731e-01
        8.6504218209548456e-02 4.6357351936303476e-01
        1.4304907486543808e-01 6.0558802928871502e-02
        1.2877635679734956e-01 1.9987337590750106e-02
        1.5165298627378648e-01 7.1415839846235474e-01
        3.7598310118052390e-02 1.4532487692192309e-01
        1.5033346097655245e-01 1.7200258904041443e-01
        3.8991505923759572e-02 8.6182477819876061e-04
        4.7602753093603081e-02 1.0162904410164764e-02
        5.2930454881564160e-01 6.3560214760344527e-02
        2.5881388312071658e-02 1.3530340975865904e-01
        1.3201054340637558e-01 8.7178917256899885e-02
        1.0354997041482297e-01 5.4450242883276774e-02
        1.4206839317547854e-01 6.4932344846386839e-02
        1.4732719600789443e-01 9.5090154526064993e-02
        1.1625212340470378e-01 4.5734658773572967e-02
        3.1368981892859127e-01 2.3890231998485967e-01
        1.6612284922436985e-01 5.7764131292891296e-01
        1.6385106601365093e-01 2.0765803522214538e-01
        2.4822568107832227e-01 -1. -1. -1. -1. -1. -1. -1. -1. -1. -1.
        -1. -1. -1. -1. -1. -1.</alpha>
      <index>
        117 5 6 7 10 154 15 18 19 205 24 155 204 28 124 32 202 37 39 201
        41 44 48 220 57 58 60 62 166 139 67 69 71 141 142 79 194 81 143
        88 192 93 146 147 104 168 109 111 208 211 212 216 217 219 224
        225 232 244 246 248 249 252 255 259 262 267 274 288 289 292 298
        301 309 310 314 318 321 326 327 331 332 340 349 179 40 36 189
        325 33 21 306 311 123 92 185 84 210 350 64</index></_>
    <_>
      <sv_count>137</sv_count>
      <rho>-9.1671921437843662e-01</rho>
      <alpha>
        8.7000397133224494e-03 7.3400002704140654e-02
        5.7878617359141737e-02 6.5509801901391129e-01
        8.2318483246291374e-02 3.4943995851826143e-01
        4.7766125117363833e-02 8.2421196532549867e-02
        1.9738247250827179e-02 1.4121325277757849e-01
        6.5796593918079516e-02 1.8346848726999510e-01
        6.0331337460181288e-02 2.5791890940384482e-01
        8.3624358667843279e-01 6.2086608727912988e-02
        8.0227107083410354e-02 2.5636038693806740e-01
        8.8577895390849892e-01 1.1522364636182020e-01
        7.2095899559299226e-01 7.6188959951350277e-02
        2.0170791336506322e-01 4.9997798913296108e-02
        4.1682486538970215e-01 6.6324945549535566e-02
        1.4265448886007781e-02 8.3268511178946014e-02
        3.5746798888406239e-01 8.1176857331238272e-01
        4.9328917911661052e-02 1.1577427394901180e-01
        2.4371264416684818e-01 8.3225139275046767e-02
        6.0726425706860376e-02 2.2733596499406000e-01
        4.9983500981392100e-02 4.8499693093620011e-02
        4.7219114337841150e-02 8.5247439203307074e-02
        5.0413836936424046e-02 8.2241296565309016e-04
        6.9485341076851281e-02 6.9081327160445682e-02
        8.3275294414886625e-02 9.5395073485796567e-02
        5.0215096120393730e-02 6.5440093531824228e-02
        7.8154586140604820e-01 3.0191485769281862e-01
        2.5734740185723215e-01 8.3256560518315259e-02
        2.6553734366600557e-03 2.6685284860639935e-01
        5.9444552282011598e-01 2.6465960701018609e-01
        6.6332364905051111e-01 6.9307926533689066e-03
        3.6236678016419616e-01 2.8453234578113301e-01
        4.3359381587893703e-01 1.6536305127248732e-01
        2.2472293992076486e-01 7.8133369415299025e-02
        6.4064137089343581e-02 8.5472686909101492e-01
        1.0288466828172205e-01 1.5631771033695485e-01
        5.7812767383857366e-01 5.0141451741241405e-01
        8.8235000477716830e-01 2.7031044966378803e-01
        7.8780840321712398e-02 1.9748890246150147e-01
        3.0425054631930437e-01 8.2982711543586052e-02
        3.6151020935284262e-01 4.8022840773263298e-02
        1.1695498929601977e-02 8.9994293071497412e-03
        5.0101783530582977e-02 9.7637832012845260e-02
        9.8844565777866644e-01 7.0831697935528515e-02
        9.2745909927053165e-03 8.1749199663934013e-02
        4.8379512016808512e-02 2.7194493443743656e-01
        7.7821100914242172e-02 1.8387202842619255e-01
        5.6368343054292214e-01 5.1444617645937565e-02
        1.4532698292334716e-02 2.5170730783468653e-03
        7.4541885464396385e-02 9.5779091855729998e-02
        2.6231772184217994e-01 1.6371779754054523e-02
        9.7339471812214262e-01 3.7576716619486361e-02
        1.5859350101045000e-01 7.3388665104657858e-02
        6.4926160452699708e-02 6.5769782246821284e-02
        2.4007626954250738e-02 9.0144232096642934e-02
        5.1359841409163220e-02 7.6876414075275623e-02
        3.7284999631536048e-01 7.7680447418591259e-02
        1.8265759764503956e-02 6.2982564921800474e-02 1. -1. -1. -1. -1.
        -1. -1. -1. -1. -1. -1. -1. -1. -1. -1. -1. -1. -1. -1. -1. -1.
        -1. -1. -1. -1.</alpha>
      <index>
        213 214 215 16 25 27 175 221 29 31 223 0 226 42 228 43 45 50 51
        52 61 239 63 65 66 243 73 75 76 77 78 250 251 82 85 91 94 95 97
        254 102 256 103 105 260 261 115 116 263 264 269 270 122 125 128
        129 132 275 276 138 140 278 281 149 150 284 287 152 153 158 159
        161 162 294 165 167 169 170 299 171 134 308 178 182 183 312 313
        184 186 187 316 317 188 323 196 198 199 200 203 206 207 336 337
        4 341 9 12 345 346 347 348 13 351 148 55 339 180 96 89 218 342
        86 230 258 290 26 302 242 330 23 231 333 80 245 112 20 338</index></_>
    <_>
      <sv_count>129</sv_count>
      <rho>-9.2614633509916977e-01</rho>
      <alpha>
        4.9897878587201169e-02 3.4452263449147313e-02
        2.4428701832076763e-01 7.3000604541321068e-02
        3.0696305126965234e-02 4.2359268899642533e-02
        7.3301293032681569e-02 1.7503429659728509e-02
        2.2625905542599384e-01 3.0607845558688085e-01
        4.8738847243375849e-02 3.2942303438717069e-02
        5.0831700640349170e-02 3.0101138381759041e-01
        1.5581480682616941e-01 6.6873795262954783e-02
        6.3431607088677677e-01 1.8404601342024041e-02
        1.8728067487334413e-02 1.3536334883304361e-03
        6.6505585029914049e-02 6.7715773853560216e-02
        1.2787420792299185e-02 3.8161725756607423e-02
        1.0266839760321003e-01 5.8268929983559203e-02
        6.0098562001496991e-02 7.3842489680104373e-02
        1.3437206506446547e-01 2.5321477866401232e-01
        4.3744206151727083e-02 6.9202999203052284e-02
        3.2570800469194411e-01 7.3833052594375503e-02
        5.3851926239235237e-02 1. 7.3681146778297110e-02
        7.7161105175160777e-03 3.6475919587171439e-02
        4.3010891060103196e-02 5.4525314243909460e-02
        4.6137439809918196e-01 1.6388106149578435e-01
        1.1765456156157675e-01 7.3849266646517919e-02
        2.5230215754286474e-02 1.2402461035169345e-01
        5.8032297189629822e-02 1.6348022475642199e-01
        8.2612209948290871e-01 7.3831976865453453e-02
        1.0783833802989584e-02 2.1873938078754351e-01
        6.1485272005743818e-01 1.5668105675551403e-01
        8.0420907374982517e-02 8.0709439745633138e-01
        1.4480090555234882e-02 2.8908809015191963e-02
        7.3194909408117848e-02 6.3304913171506480e-02
        4.4752878832921550e-01 4.1971583141672750e-03
        7.1122329026286124e-02 4.2074110702490980e-01
        3.2656999772008977e-02 4.7151882809884560e-01
        3.6150801059540327e-02 4.4720718623506683e-02
        1.0085205178035739e-02 5.8790576079061518e-02
        2.1510285355247269e-01 2.2717317374577550e-02
        7.3505573226519072e-02 4.3623619568171512e-02
        4.2586653112084483e-02 1.0372135908094882e-02
        3.9287207663906636e-02 1.8190785811812864e-02
        4.4431744799563577e-02 3.1657820665935747e-02
        3.0758860355418111e-01 3.4811772850175732e-01
        6.4574668751665398e-02 1.3176459062457935e-01
        7.2721462035280071e-02 4.2901911561279427e-02
        1.3889372444414072e-02 1.4426207772007082e-01
        5.4798515852464889e-02 3.0605475312149127e-01
        1.1598542551303415e-01 5.7608988906949810e-01
        8.6815397364285452e-03 3.8012339709063436e-01
        2.0989430027722950e-01 4.7165736981071259e-02
        4.8359959464302660e-02 6.9042750181382218e-01
        2.3896252406247320e-02 5.2095084832922300e-02
        2.0871406434267430e-02 1.1212688207664351e-01
        6.6712698036194229e-02 1.4653744375214718e-02
        5.9564188327296042e-02 2.4666721952896042e-02
        6.9609779858774257e-02 9.6998088639515423e-02
        5.1539988021864214e-02 2.3249292181412828e-01
        2.1650849240110132e-01 2.3696280372196159e-02 -1. -1. -1. -1.
        -1. -1. -1. -1. -1. -1. -1. -1. -1. -1. -1. -1.</alpha>
      <index>
        213 214 215 25 27 175 221 29 31 35 223 0 226 42 229 45 47 52 56
        238 239 63 65 66 241 243 73 75 76 77 78 250 251 82 85 90 91 94
        253 95 254 102 103 105 260 261 115 116 118 119 270 120 122 125
        272 129 132 133 276 140 278 281 282 149 284 151 287 156 291 159
        162 293 163 167 169 170 299 171 173 134 308 178 181 182 183 312
        313 184 316 317 190 320 191 193 323 196 198 199 203 206 207 334
        335 336 2 4 341 9 12 345 347 13 351 179 40 36 189 325 33 21 306
        311 123 92 185 84 210 350 64</index></_>
    <_>
      <sv_count>40</sv_count>
      <rho>-3.5775235327192323e-01</rho>
      <alpha>
        1. 3.2595042158887366e-01 4.8074832732256079e-01
        8.4372427964676022e-01 1. 1. 6.4230417860869282e-01
        6.2575011555346927e-01 4.5431829022113346e-01
        8.0718082350437914e-01 6.3941747371329938e-01
        6.6382603369514603e-01 6.2536296666605495e-01
        6.2234963840375279e-01 1. 8.7698751310462608e-01
        6.2792875610186760e-01 6.5772754214629325e-01
        4.5475048601241097e-01 5.3392797807913617e-01
        2.5490186108242696e-01 4.5456118736748397e-01
        6.4340541701710652e-01 6.1284003250143371e-01
        -9.2272769099526042e-01 -1. -1. -1. -1. -1. -1. -1. -1. -1.
        -9.2523563134164744e-01 -1. -1. -1. -1. -1.</alpha>
      <index>
        148 55 339 180 96 89 218 342 86 230 258 290 26 302 242 330 23
        231 333 80 245 112 20 338 179 40 36 189 325 33 21 306 311 123 92
        185 84 210 350 64</index></_></decision_functions></opencv_ml_svm>
</opencv_storage>
