<?xml version="1.0"?>
<opencv_storage>
<opencv_ml_svm>
  <format>3</format>
  <svmType>C_SVC</svmType>
  <kernel>
    <type>RBF</type>
    <gamma>1.</gamma></kernel>
  <C>1.</C>
  <term_criteria><epsilon>9.9999999999999995e-07</epsilon>
    <iterations>1000</iterations></term_criteria>
  <var_count>7</var_count>
  <class_count>4</class_count>
  <class_labels type_id="opencv-matrix">
    <rows>4</rows>
    <cols>1</cols>
    <dt>i</dt>
    <data>
      1 2 3 4</data></class_labels>
  <sv_total>1147</sv_total>
  <support_vectors>
    <_>
      7.96899974e-01 4.55600786e+00 5.64964294e+00 8.13342285e+00
      -1.50251408e+01 -1.04235039e+01 -1.65609188e+01</_>
    <_>
      7.94741988e-01 3.49859810e+00 6.48577595e+00 9.29680824e+00
      1.74599419e+01 1.13545895e+01 -1.72612419e+01</_>
    <_>
      7.88040996e-01 3.44576597e+00 4.01564789e+00 5.52212811e+00
      1.02957077e+01 7.27206802e+00 -1.11260567e+01</_>
    <_>
      7.97186971e-01 4.72941113e+00 6.01638699e+00 9.21121502e+00
      1.72207241e+01 1.22708035e+01 1.68633041e+01</_>
    <_>
      7.72329986e-01 2.52378511e+00 4.59209824e+00 6.07078505e+00
      1.15731888e+01 7.52868605e+00 -1.15340567e+01</_>
    <_>
      7.84919024e-01 2.86483788e+00 4.34041691e+00 6.23771477e+00
      -1.29407892e+01 -9.07581711e+00 -1.15271044e+01</_>
    <_>
      7.84044981e-01 2.80081892e+00 5.04608917e+00 6.73689508e+00
      1.27294817e+01 8.23850822e+00 1.28429880e+01</_>
    <_>
      6.10598028e-01 1.50944996e+00 5.43188906e+00 5.91707611e+00
      1.16675253e+01 7.58435392e+00 1.18565006e+01</_>
    <_>
      7.96791017e-01 4.36327791e+00 4.99260521e+00 1.01031809e+01
      1.77200928e+01 -1.23052740e+01 -1.79335632e+01</_>
    <_>
      7.90512025e-01 3.13391399e+00 5.23041105e+00 7.65191984e+00
      -1.40930862e+01 -9.21887684e+00 -2.08498211e+01</_>
    <_>
      7.96051025e-01 3.98606300e+00 5.33729315e+00 8.60878372e+00
      -1.56979923e+01 -1.18426266e+01 1.57731543e+01</_>
    <_>
      6.45322025e-01 1.66141498e+00 3.31740499e+00 4.01479387e+00
      7.68101501e+00 4.84664297e+00 9.30727673e+00</_>
    <_>
      7.94798017e-01 3.72561693e+00 4.81913090e+00 7.25679302e+00
      -1.32948246e+01 -9.12658787e+00 1.50409060e+01</_>
    <_>
      7.96193004e-01 3.93170810e+00 7.74550390e+00 9.12214756e+00
      1.76184387e+01 -1.12541580e+01 1.78570137e+01</_>
    <_>
      7.91773021e-01 3.56817603e+00 3.97664189e+00 6.21908808e+00
      1.25400238e+01 -8.43245792e+00 -1.13177319e+01</_>
    <_>
      7.94948995e-01 3.95143795e+00 5.13145399e+00 7.00704193e+00
      1.32836342e+01 -9.84675503e+00 1.31818047e+01</_>
    <_>
      7.97609985e-01 5.36992216e+00 7.55134392e+00 9.53867531e+00
      -1.81651211e+01 1.29710398e+01 -1.83360977e+01</_>
    <_>
      7.94166982e-01 3.46366596e+00 5.91766024e+00 7.85351276e+00
      -1.48461599e+01 -9.62314796e+00 1.49440002e+01</_>
    <_>
      7.81264007e-01 2.73714709e+00 4.69812202e+00 6.42309904e+00
      1.21546431e+01 7.97456503e+00 -1.21155624e+01</_>
    <_>
      7.95261979e-01 3.58451295e+00 6.13303614e+00 8.80370808e+00
      -1.64525261e+01 -1.16274052e+01 -1.63962936e+01</_>
    <_>
      7.97300994e-01 5.86078119e+00 5.59546900e+00 9.09639263e+00
      -1.64520531e+01 -1.24415588e+01 -1.71215096e+01</_>
    <_>
      7.95051992e-01 3.56090212e+00 6.13239193e+00 9.00148582e+00
      -1.69362850e+01 1.14045467e+01 -1.66125183e+01</_>
    <_>
      5.88177979e-01 1.43261600e+00 5.93265295e+00 6.61163521e+00
      -1.29089394e+01 -7.33227587e+00 1.33642607e+01</_>
    <_>
      7.80389011e-01 2.72551608e+00 4.69141006e+00 6.20150805e+00
      1.16482182e+01 7.56687403e+00 -1.31168661e+01</_>
    <_>
      7.94134974e-01 3.41804790e+00 5.41252422e+00 7.80643988e+00
      -1.48264332e+01 -1.08024626e+01 -1.44514694e+01</_>
    <_>
      7.89285004e-01 3.01216006e+00 6.14398193e+00 7.98605299e+00
      -1.50909443e+01 -9.53222942e+00 -1.54387360e+01</_>
    <_>
      7.95125008e-01 3.73900199e+00 5.67510700e+00 8.50083065e+00
      -1.55976210e+01 1.04522285e+01 1.62888374e+01</_>
    <_>
      7.93586016e-01 3.35195708e+00 5.40737820e+00 7.57745981e+00
      1.40698786e+01 9.26089478e+00 -1.73589611e+01</_>
    <_>
      7.91836977e-01 3.28014398e+00 5.39978504e+00 7.97188377e+00
      -1.48986082e+01 -1.03309813e+01 1.47446079e+01</_>
    <_>
      7.97061980e-01 4.52792788e+00 5.48688698e+00 8.58739185e+00
      1.56248751e+01 1.08600712e+01 -1.70248051e+01</_>
    <_>
      6.77721024e-01 1.78639996e+00 3.50809503e+00 4.28566217e+00
      8.18843079e+00 5.18822289e+00 -8.96877956e+00</_>
    <_>
      7.96518981e-01 4.24653101e+00 6.99314594e+00 8.80647373e+00
      -1.70606823e+01 1.09773960e+01 -1.67535286e+01</_>
    <_>
      5.26336014e-01 1.27153504e+00 4.98200178e+00 5.69657087e+00
      1.14519014e+01 8.04733562e+00 1.10704336e+01</_>
    <_>
      7.88381994e-01 2.98121810e+00 5.05160904e+00 7.05398798e+00
      -1.31092634e+01 -8.56265640e+00 -1.40794744e+01</_>
    <_>
      7.93317974e-01 3.32834291e+00 6.05667114e+00 7.86851501e+00
      1.48322182e+01 9.53691292e+00 1.59771776e+01</_>
    <_>
      7.95104027e-01 3.56603909e+00 5.16075993e+00 7.94993877e+00
      -1.65545979e+01 1.04129028e+01 1.45053062e+01</_>
    <_>
      4.58083987e-01 1.10991800e+00 4.51873779e+00 5.13666582e+00
      1.03590631e+01 6.41097593e+00 1.00028524e+01</_>
    <_>
      7.92137980e-01 3.48915410e+00 4.89000177e+00 6.86872721e+00
      1.29495955e+01 9.73254395e+00 1.28573437e+01</_>
    <_>
      7.90934980e-01 3.49989796e+00 4.06770086e+00 6.07552719e+00
      -1.11519175e+01 -7.82647419e+00 -1.19783487e+01</_>
    <_>
      7.96383023e-01 4.53133917e+00 5.69713116e+00 9.02199364e+00
      -1.64019794e+01 1.29814425e+01 1.69049950e+01</_>
    <_>
      7.94008017e-01 3.45505595e+00 4.74638224e+00 7.31663895e+00
      -1.33483143e+01 -9.04683590e+00 -1.49088793e+01</_>
    <_>
      7.94879019e-01 3.59226298e+00 5.76701593e+00 8.01252556e+00
      1.67575092e+01 -1.03975592e+01 -1.49023399e+01</_>
    <_>
      5.69186985e-01 1.39260900e+00 4.24278593e+00 5.19621086e+00
      -9.91799164e+00 -5.89558887e+00 -1.09060163e+01</_>
    <_>
      7.96245992e-01 3.91607308e+00 4.98272324e+00 7.67558193e+00
      1.40047569e+01 9.63924885e+00 -1.60035629e+01</_>
    <_>
      7.91804016e-01 3.20565009e+00 6.86036777e+00 9.29282761e+00
      1.73707981e+01 1.13285370e+01 1.84696369e+01</_>
    <_>
      7.97065020e-01 5.65275192e+00 8.44457722e+00 8.98512268e+00
      1.81747284e+01 -1.19974422e+01 -1.77258472e+01</_>
    <_>
      7.92753994e-01 3.35503006e+00 4.36403418e+00 6.62351608e+00
      1.23031120e+01 8.58552170e+00 -1.22374458e+01</_>
    <_>
      7.97279000e-01 5.09512615e+00 5.25586891e+00 9.43737698e+00
      1.68564682e+01 1.24296894e+01 1.70575294e+01</_>
    <_>
      5.89766026e-01 1.43910897e+00 4.64569187e+00 5.61088896e+00
      -1.07394218e+01 -6.33208895e+00 -1.22150631e+01</_>
    <_>
      5.82109988e-01 1.46144402e+00 3.47209406e+00 4.30752277e+00
      -8.25269127e+00 -5.06132603e+00 8.52120686e+00</_>
    <_>
      7.96361029e-01 4.04670477e+00 6.53701591e+00 8.07996655e+00
      1.53884783e+01 1.01154690e+01 1.74171982e+01</_>
    <_>
      5.61668992e-01 1.34717798e+00 3.94900990e+00 4.80648518e+00
      -9.19022179e+00 -5.48250103e+00 -9.96693420e+00</_>
    <_>
      5.19472003e-01 1.26664197e+00 3.16996098e+00 3.62825489e+00
      7.10438585e+00 4.41962719e+00 7.28980494e+00</_>
    <_>
      7.97082007e-01 4.60171223e+00 6.06939697e+00 8.82361698e+00
      -1.62702694e+01 -1.15567951e+01 1.78557301e+01</_>
    <_>
      7.96348989e-01 4.77923107e+00 4.41256285e+00 7.56041002e+00
      -1.35915394e+01 -9.97566795e+00 1.39123392e+01</_>
    <_>
      7.89987028e-01 3.06350899e+00 6.81343603e+00 8.88777828e+00
      -1.68694153e+01 -1.06145887e+01 1.69103069e+01</_>
    <_>
      4.70353007e-01 1.12814200e+00 3.54877090e+00 4.25347900e+00
      8.97554493e+00 -5.55827999e+00 8.15961456e+00</_>
    <_>
      7.92264998e-01 3.26380110e+00 5.41078186e+00 7.99533319e+00
      -1.69555435e+01 -1.00175037e+01 1.46983967e+01</_>
    <_>
      7.67449975e-01 2.45392704e+00 4.17540216e+00 5.47959709e+00
      1.03071833e+01 6.70796108e+00 1.20059986e+01</_>
    <_>
      7.96975017e-01 4.19062996e+00 6.22650385e+00 1.04568682e+01
      -1.90528526e+01 1.25565519e+01 1.88791389e+01</_>
    <_>
      7.95472026e-01 3.62358403e+00 6.34321594e+00 9.70718479e+00
      1.77454987e+01 1.15463028e+01 -1.83484306e+01</_>
    <_>
      7.97142982e-01 4.59862804e+00 6.93437815e+00 9.22967052e+00
      -1.74673519e+01 -1.17268105e+01 1.74571877e+01</_>
    <_>
      7.96094000e-01 4.48018122e+00 4.77285910e+00 8.14170933e+00
      -1.46898270e+01 1.05970383e+01 -1.48320808e+01</_>
    <_>
      6.80974007e-01 1.79773200e+00 3.88690710e+00 4.75774288e+00
      9.08228874e+00 5.65923977e+00 -1.00763025e+01</_>
    <_>
      5.88506997e-01 1.50265205e+00 4.39703321e+00 5.05100107e+00
      -1.18609171e+01 -9.07705212e+00 -9.77503204e+00</_>
    <_>
      7.93891013e-01 3.55310106e+00 4.65585995e+00 7.36862087e+00
      1.48181581e+01 9.46111488e+00 -1.33811522e+01</_>
    <_>
      7.97083020e-01 4.53616524e+00 5.74572420e+00 8.45234489e+00
      -1.60327568e+01 -1.25948696e+01 1.55764303e+01</_>
    <_>
      4.85866994e-01 1.18607605e+00 6.13877010e+00 6.21998978e+00
      1.26086817e+01 6.89025116e+00 1.25036650e+01</_>
    <_>
      7.82377005e-01 2.82979989e+00 4.15130806e+00 5.90736198e+00
      1.15478334e+01 -8.81744385e+00 1.09501200e+01</_>
    <_>
      7.96150982e-01 3.97717190e+00 5.62316179e+00 8.73873997e+00
      -1.60747643e+01 1.27919226e+01 1.60657406e+01</_>
    <_>
      5.36275983e-01 1.26895404e+00 5.13783216e+00 6.01258612e+00
      1.20814714e+01 -8.05644798e+00 1.16113882e+01</_>
    <_>
      7.91877985e-01 3.23573089e+00 4.76792717e+00 6.98868704e+00
      1.28674355e+01 8.62228584e+00 -1.42128220e+01</_>
    <_>
      7.93259025e-01 3.31331897e+00 7.14041996e+00 9.26768303e+00
      -1.79353790e+01 1.10663843e+01 1.74990559e+01</_>
    <_>
      7.96674013e-01 5.44598389e+00 4.73388290e+00 8.88882542e+00
      1.60470257e+01 1.19897346e+01 -1.57492981e+01</_>
    <_>
      7.92952001e-01 3.35521889e+00 5.18669891e+00 7.63965893e+00
      -1.44510136e+01 1.07512255e+01 -1.40906534e+01</_>
    <_>
      7.93049991e-01 3.43859792e+00 4.64717722e+00 6.79396915e+00
      1.33743000e+01 8.78173065e+00 -1.25187254e+01</_>
    <_>
      7.90561020e-01 3.10338902e+00 6.15130615e+00 8.02449131e+00
      1.51170387e+01 9.60527611e+00 -1.59493961e+01</_>
    <_>
      7.87980020e-01 3.00750399e+00 5.81118584e+00 7.82566404e+00
      -1.46440907e+01 -9.37103271e+00 -1.71879082e+01</_>
    <_>
      4.75558996e-01 1.12108600e+00 4.04130411e+00 4.97603321e+00
      -9.50758266e+00 -5.57306004e+00 -9.98467731e+00</_>
    <_>
      7.97151029e-01 4.55881500e+00 6.15330505e+00 1.01833696e+01
      -1.86472092e+01 -1.31647825e+01 -1.84160519e+01</_>
    <_>
      7.93210030e-01 3.68392611e+00 4.35782623e+00 7.20533800e+00
      1.41488543e+01 -9.18249893e+00 -1.29879532e+01</_>
    <_>
      4.64807987e-01 1.06452501e+00 3.29392600e+00 3.90125895e+00
      7.53716803e+00 4.50061893e+00 -7.89440918e+00</_>
    <_>
      7.96209991e-01 4.49068594e+00 4.75640297e+00 7.44941902e+00
      1.35524426e+01 9.70065689e+00 -1.51950998e+01</_>
    <_>
      7.97082007e-01 4.27213192e+00 6.58093882e+00 9.60648727e+00
      1.77816505e+01 -1.17567720e+01 -1.79525852e+01</_>
    <_>
      7.96974003e-01 4.49303293e+00 5.19071722e+00 9.26612759e+00
      -1.71886024e+01 1.15128336e+01 1.65036221e+01</_>
    <_>
      5.80591023e-01 1.39923894e+00 3.95128894e+00 4.88764620e+00
      -9.32597733e+00 -5.60798502e+00 9.84704018e+00</_>
    <_>
      7.95027971e-01 4.09656191e+00 4.36582088e+00 7.10840082e+00
      1.28644390e+01 9.18658829e+00 -1.33847370e+01</_>
    <_>
      5.24816990e-01 1.29398596e+00 2.17837000e+00 2.56888294e+00
      4.95573521e+00 3.26139688e+00 -5.55676603e+00</_>
    <_>
      7.94725001e-01 3.49437594e+00 6.60203791e+00 9.58325577e+00
      1.79156036e+01 1.22944632e+01 1.77633801e+01</_>
    <_>
      7.95090020e-01 4.14449787e+00 4.43548822e+00 7.53514194e+00
      1.36945591e+01 1.09148808e+01 1.36496983e+01</_>
    <_>
      7.95157015e-01 3.55522299e+00 5.11130381e+00 7.82529402e+00
      -1.42935934e+01 -9.60290623e+00 2.16893291e+01</_>
    <_>
      7.94336021e-01 3.61044502e+00 5.53586817e+00 7.32377720e+00
      -1.50398073e+01 9.75786686e+00 -1.37541819e+01</_>
    <_>
      7.96086013e-01 3.98351598e+00 7.27051878e+00 8.52238560e+00
      -1.66438789e+01 1.10156603e+01 -1.65139751e+01</_>
    <_>
      7.97500014e-01 4.80928183e+00 6.14020014e+00 1.07289581e+01
      -1.95531864e+01 1.34805202e+01 -1.92030125e+01</_>
    <_>
      7.96375990e-01 4.12488079e+00 4.96462297e+00 7.93675613e+00
      1.43875713e+01 1.00162354e+01 -1.60061359e+01</_>
    <_>
      7.95988023e-01 3.96755409e+00 5.51577616e+00 7.88664293e+00
      -1.52423048e+01 -1.11752014e+01 1.45987864e+01</_>
    <_>
      7.97318995e-01 4.67100906e+00 5.06707716e+00 9.26936531e+00
      -1.64643154e+01 -1.16064463e+01 1.69056950e+01</_>
    <_>
      7.96658993e-01 4.38102007e+00 5.41762781e+00 9.75818539e+00
      1.82165852e+01 -1.21130257e+01 1.73500710e+01</_>
    <_>
      4.99707997e-01 1.22272301e+00 4.66414785e+00 6.66665792e+00
      1.26105003e+01 7.39380789e+00 -1.24026155e+01</_>
    <_>
      6.26653016e-01 1.55551100e+00 4.27551079e+00 5.10734892e+00
      1.06438074e+01 7.57246685e+00 -9.80325794e+00</_>
    <_>
      7.85825014e-01 2.88972902e+00 4.75968122e+00 6.56973791e+00
      -1.34506569e+01 -8.61668682e+00 1.22352514e+01</_>
    <_>
      7.93386996e-01 3.57097197e+00 4.51502419e+00 6.95768499e+00
      -1.27533379e+01 -8.76693439e+00 -1.30048676e+01</_>
    <_>
      7.97149003e-01 5.56527710e+00 5.34069681e+00 8.54805088e+00
      1.60126743e+01 -1.18614473e+01 -1.55131664e+01</_>
    <_>
      7.96595991e-01 4.32229900e+00 5.12873411e+00 1.06369209e+01
      -1.85277367e+01 -1.28842001e+01 -1.92409210e+01</_>
    <_>
      7.96205997e-01 3.76900697e+00 6.91969490e+00 9.18266201e+00
      -1.74046917e+01 -1.11113253e+01 1.73657608e+01</_>
    <_>
      7.16593027e-01 1.99681699e+00 3.55126595e+00 4.55532312e+00
      8.60919857e+00 5.55436897e+00 9.89527702e+00</_>
    <_>
      7.91411996e-01 3.15371394e+00 5.53814316e+00 7.76306677e+00
      -1.44285297e+01 -9.34213448e+00 1.50034647e+01</_>
    <_>
      6.54269993e-01 1.66276097e+00 3.88657689e+00 4.83252811e+00
      1.00551453e+01 7.40683508e+00 -9.19619846e+00</_>
    <_>
      7.97461987e-01 5.05084276e+00 5.63564110e+00 9.50104427e+00
      -1.70699215e+01 -1.21592464e+01 -1.83736897e+01</_>
    <_>
      7.93022990e-01 3.34890294e+00 5.22344017e+00 7.57041216e+00
      -1.49603138e+01 1.04816132e+01 1.39695930e+01</_>
    <_>
      5.63719988e-01 1.40924203e+00 3.30333591e+00 3.95470810e+00
      7.72612810e+00 4.89514494e+00 -7.74267721e+00</_>
    <_>
      7.92133987e-01 3.45472693e+00 4.43161917e+00 6.38777494e+00
      1.27820387e+01 -9.16989422e+00 1.17998171e+01</_>
    <_>
      4.44101989e-01 1.07076800e+00 4.25500917e+00 4.75625706e+00
      9.36547184e+00 5.72453213e+00 9.47235966e+00</_>
    <_>
      7.95228004e-01 3.58370495e+00 5.38436699e+00 7.89454079e+00
      1.50116940e+01 -1.12579079e+01 1.45594988e+01</_>
    <_>
      7.96622992e-01 3.97429204e+00 5.73760223e+00 8.26935768e+00
      1.63024902e+01 1.13147593e+01 1.52747402e+01</_>
    <_>
      7.96869993e-01 4.29769707e+00 5.10881710e+00 8.28358173e+00
      1.55521650e+01 -1.06694412e+01 -1.49959269e+01</_>
    <_>
      7.76565015e-01 2.90173197e+00 3.61093903e+00 5.11521196e+00
      -1.00390682e+01 -6.98689985e+00 -9.49535370e+00</_>
    <_>
      7.82051027e-01 3.15290499e+00 3.59628391e+00 5.29877806e+00
      -1.01802835e+01 -7.24424314e+00 -9.77793598e+00</_>
    <_>
      4.67835009e-01 1.18649900e+00 2.88943195e+00 3.66983891e+00
      -7.65089798e+00 -4.50225782e+00 -6.95823622e+00</_>
    <_>
      7.95332015e-01 3.72076392e+00 4.66692591e+00 7.48329878e+00
      1.52673311e+01 -9.80904961e+00 1.35584946e+01</_>
    <_>
      7.97007024e-01 4.26793623e+00 5.39290810e+00 8.90981102e+00
      -1.60614929e+01 -1.10482626e+01 -1.74758968e+01</_>
    <_>
      6.24041975e-01 1.57980502e+00 4.03968811e+00 4.92070389e+00
      -9.41462517e+00 -5.71080303e+00 1.00073490e+01</_>
    <_>
      5.03913999e-01 1.24381304e+00 3.99776506e+00 4.81434107e+00
      -9.25368786e+00 -5.44307280e+00 -9.64402294e+00</_>
    <_>
      7.97281981e-01 5.42307997e+00 5.18514919e+00 1.00624342e+01
      1.87579365e+01 1.31054840e+01 -1.76877918e+01</_>
    <_>
      7.95409024e-01 3.76949692e+00 4.68025398e+00 7.37573481e+00
      -1.34089556e+01 -9.26566505e+00 -1.42155962e+01</_>
    <_>
      6.33282006e-01 1.89469302e+00 2.43706799e+00 3.78711510e+00
      7.02296305e+00 4.75056314e+00 7.08024597e+00</_>
    <_>
      7.94233978e-01 4.00274277e+00 4.55347919e+00 7.47279787e+00
      -1.42549782e+01 1.00549202e+01 -1.34923201e+01</_>
    <_>
      7.96630979e-01 4.21466208e+00 5.10319519e+00 9.05640221e+00
      1.65026550e+01 1.11658573e+01 -1.61806126e+01</_>
    <_>
      7.58975983e-01 2.33592010e+00 3.97121191e+00 5.38626719e+00
      1.09775448e+01 -8.48656940e+00 -1.00682793e+01</_>
    <_>
      7.95185983e-01 4.09870195e+00 4.58289909e+00 6.80383921e+00
      1.46952877e+01 9.80484390e+00 -1.24972172e+01</_>
    <_>
      7.96673000e-01 5.25551081e+00 5.88818884e+00 8.88372231e+00
      1.63809948e+01 1.17044506e+01 1.64680595e+01</_>
    <_>
      7.95105994e-01 3.67954302e+00 5.27940416e+00 9.20781898e+00
      -1.65423584e+01 1.21345110e+01 1.66843376e+01</_>
    <_>
      7.94975996e-01 5.20394993e+00 4.28379011e+00 7.49074316e+00
      1.33962326e+01 1.02391443e+01 -1.39251270e+01</_>
    <_>
      7.93958008e-01 3.38412189e+00 5.35999680e+00 7.82072401e+00
      1.60790806e+01 -1.13887024e+01 1.44111853e+01</_>
    <_>
      7.97006011e-01 4.75827503e+00 5.25146294e+00 7.99326801e+00
      -1.51895256e+01 -1.04215374e+01 1.46316624e+01</_>
    <_>
      5.32957017e-01 1.31189406e+00 3.37460494e+00 4.20989704e+00
      -8.09536457e+00 -4.89252996e+00 8.23072529e+00</_>
    <_>
      7.95186996e-01 3.92183495e+00 4.44228792e+00 7.04967785e+00
      -1.35650501e+01 -9.25428867e+00 -1.28020334e+01</_>
    <_>
      7.92263985e-01 3.22065496e+00 5.38280487e+00 7.90080404e+00
      -1.45447178e+01 -9.51895237e+00 1.55499496e+01</_>
    <_>
      7.92581975e-01 3.24852395e+00 7.12181711e+00 8.84567928e+00
      -1.68786640e+01 1.04701157e+01 -1.71758137e+01</_>
    <_>
      7.95614004e-01 3.60388708e+00 6.21759081e+00 8.67741489e+00
      -1.72670403e+01 -1.14941597e+01 -1.61260509e+01</_>
    <_>
      7.96958983e-01 5.65997791e+00 6.69617319e+00 8.65999413e+00
      -1.64338646e+01 -1.20995464e+01 1.65619354e+01</_>
    <_>
      7.96280026e-01 4.26799393e+00 6.67033577e+00 7.81362104e+00
      1.50712881e+01 9.95939636e+00 -1.56339750e+01</_>
    <_>
      7.97052979e-01 4.72482681e+00 5.93911219e+00 8.23268986e+00
      -1.53355780e+01 -1.06064482e+01 1.58803444e+01</_>
    <_>
      7.96274006e-01 4.15960503e+00 5.25722122e+00 7.36392784e+00
      -1.39109821e+01 -9.63850880e+00 -1.37635965e+01</_>
    <_>
      7.96902001e-01 4.31408501e+00 7.58095312e+00 9.36898804e+00
      -1.91132259e+01 -1.16978407e+01 1.78445873e+01</_>
    <_>
      7.94062018e-01 3.50673389e+00 4.81990290e+00 7.33618402e+00
      1.50014629e+01 -1.03958902e+01 -1.34143724e+01</_>
    <_>
      7.95916975e-01 4.02543592e+00 5.82901096e+00 8.67823029e+00
      -1.74675674e+01 1.07898417e+01 1.59320354e+01</_>
    <_>
      7.97231972e-01 5.00788212e+00 4.92264700e+00 8.60036373e+00
      -1.55860834e+01 -1.13279905e+01 1.54574604e+01</_>
    <_>
      7.75160015e-01 2.57446790e+00 5.14327812e+00 6.96815395e+00
      -1.30626583e+01 -8.34192562e+00 -1.34170027e+01</_>
    <_>
      7.97200978e-01 5.08216810e+00 5.70540714e+00 8.88215828e+00
      1.61759396e+01 -1.14232416e+01 2.39107704e+01</_>
    <_>
      7.13545978e-01 2.13397193e+00 2.75787401e+00 3.46483588e+00
      6.58414793e+00 4.54294014e+00 -7.29816914e+00</_>
    <_>
      6.41188025e-01 1.60252702e+00 4.00887203e+00 4.94312191e+00
      9.88495255e+00 6.44594097e+00 9.44614792e+00</_>
    <_>
      7.96495974e-01 5.26455021e+00 4.70067787e+00 8.45917225e+00
      -1.50390968e+01 1.10914459e+01 2.12926884e+01</_>
    <_>
      7.96760976e-01 4.81316519e+00 6.94853401e+00 9.72940159e+00
      -1.80730038e+01 1.33119831e+01 -1.89061203e+01</_>
    <_>
      7.95252025e-01 3.72067809e+00 5.04596281e+00 7.45995378e+00
      -1.52575674e+01 -9.86284161e+00 1.37130890e+01</_>
    <_>
      6.49571002e-01 1.63997602e+00 4.53979921e+00 5.51497507e+00
      1.05433893e+01 6.33496284e+00 1.17053595e+01</_>
    <_>
      7.85749972e-01 2.85064197e+00 6.43451786e+00 8.23132133e+00
      1.61881752e+01 -1.02208099e+01 -1.55768719e+01</_>
    <_>
      7.96899974e-01 4.83615923e+00 5.10473204e+00 9.97966957e+00
      1.75259895e+01 1.26336088e+01 1.83848972e+01</_>
    <_>
      7.97115028e-01 5.73196888e+00 6.58320713e+00 8.52450943e+00
      -1.69996262e+01 1.14165411e+01 -1.60815105e+01</_>
    <_>
      7.97078013e-01 5.52705908e+00 4.95662212e+00 8.82487202e+00
      1.59957619e+01 -1.18215342e+01 -1.57855234e+01</_>
    <_>
      7.94514000e-01 3.52536702e+00 6.17476892e+00 7.93653584e+00
      -1.49969215e+01 -9.72122669e+00 -1.58253374e+01</_>
    <_>
      5.35687029e-01 1.29749000e+00 2.73516297e+00 3.69941306e+00
      -6.99901581e+00 -4.40350819e+00 7.16719818e+00</_>
    <_>
      7.97208011e-01 5.33763790e+00 5.40055180e+00 9.63413239e+00
      -1.74908543e+01 -1.23034477e+01 -1.72025299e+01</_>
    <_>
      7.96486974e-01 4.15051794e+00 5.42310810e+00 8.72684288e+00
      1.58064547e+01 -1.08463793e+01 -1.66394176e+01</_>
    <_>
      7.80889988e-01 2.78500795e+00 4.07765198e+00 6.01060915e+00
      -1.10863857e+01 -7.41833687e+00 1.14885883e+01</_>
    <_>
      7.94834971e-01 3.71772289e+00 5.08554888e+00 7.25794601e+00
      -1.48853340e+01 -9.33927631e+00 -1.34299603e+01</_>
    <_>
      7.93262005e-01 3.30477190e+00 6.54957914e+00 8.81198406e+00
      1.65600681e+01 -1.23319712e+01 -1.67799034e+01</_>
    <_>
      7.91283011e-01 3.14041996e+00 7.52733803e+00 9.71326256e+00
      -1.84894447e+01 -1.12846432e+01 1.84788437e+01</_>
    <_>
      7.93197989e-01 3.47157001e+00 4.36153698e+00 6.64836597e+00
      1.28063326e+01 9.34051704e+00 1.21643248e+01</_>
    <_>
      7.97031999e-01 4.44052076e+00 5.60454702e+00 9.08414936e+00
      -1.74330444e+01 -1.13137188e+01 -1.64306335e+01</_>
    <_>
      7.96431005e-01 4.46323204e+00 5.02004719e+00 8.77908611e+00
      1.62462444e+01 -1.10353632e+01 1.56951714e+01</_>
    <_>
      5.38842022e-01 1.31220698e+00 3.39520001e+00 4.33237410e+00
      -8.48923111e+00 -5.28897905e+00 -8.26134872e+00</_>
    <_>
      7.92101026e-01 3.30645394e+00 4.87623501e+00 6.83805990e+00
      1.26952076e+01 8.49933910e+00 1.59493675e+01</_>
    <_>
      5.54669976e-01 1.37000203e+00 3.33148503e+00 3.92068195e+00
      7.58716106e+00 4.66169119e+00 -7.93185902e+00</_>
    <_>
      7.83461988e-01 2.78384995e+00 7.11275387e+00 8.40984631e+00
      -1.61769485e+01 -9.93124104e+00 1.69606686e+01</_>
    <_>
      7.97143996e-01 5.78034592e+00 5.01342678e+00 9.25175190e+00
      1.71958942e+01 1.30534286e+01 1.63895741e+01</_>
    <_>
      6.19677007e-01 1.53397596e+00 3.97918797e+00 4.87968922e+00
      -9.92960644e+00 -6.13968420e+00 9.32196808e+00</_>
    <_>
      7.96316981e-01 4.03390312e+00 5.67356777e+00 8.41677380e+00
      -1.70544853e+01 -1.04338303e+01 -1.54620857e+01</_>
    <_>
      7.84478009e-01 2.81549692e+00 5.45672321e+00 7.46533823e+00
      1.49241409e+01 -9.71002483e+00 1.39285736e+01</_>
    <_>
      7.97178984e-01 5.54078197e+00 6.11135483e+00 8.90836906e+00
      -1.74752522e+01 -1.16796408e+01 1.64199066e+01</_>
    <_>
      7.96777010e-01 5.68930578e+00 4.80687380e+00 8.81666279e+00
      1.59572678e+01 1.18468618e+01 1.56823711e+01</_>
    <_>
      7.96487987e-01 4.52885199e+00 5.28614902e+00 8.41431713e+00
      1.53200321e+01 -1.08807850e+01 -1.55880022e+01</_>
    <_>
      7.96283007e-01 4.21861601e+00 5.30466223e+00 9.16782761e+00
      1.69888973e+01 -1.13774042e+01 -1.64192867e+01</_>
    <_>
      6.57082021e-01 1.71669304e+00 2.93388796e+00 3.68380904e+00
      6.99281597e+00 4.54239702e+00 -8.55997944e+00</_>
    <_>
      5.56572020e-01 1.41732097e+00 4.18611813e+00 5.09291601e+00
      -1.07342911e+01 6.87544203e+00 9.73459721e+00</_>
    <_>
      4.85442013e-01 1.17173696e+00 5.09610701e+00 6.04872799e+00
      1.18870764e+01 6.89790487e+00 1.16966991e+01</_>
    <_>
      7.96133995e-01 3.83286691e+00 5.65009785e+00 8.44379425e+00
      1.65078411e+01 -1.05557642e+01 1.54927568e+01</_>
    <_>
      7.97069013e-01 4.45391512e+00 6.41888094e+00 9.12402058e+00
      -1.70037384e+01 1.13965340e+01 1.70984898e+01</_>
    <_>
      6.88467979e-01 2.57923007e+00 2.37764192e+00 4.13893509e+00
      7.74596405e+00 -6.04050779e+00 7.44586515e+00</_>
    <_>
      7.94485986e-01 3.46539211e+00 7.21550322e+00 9.97074890e+00
      -1.86720734e+01 -1.18588467e+01 -1.87669964e+01</_>
    <_>
      6.55795991e-01 2.22710490e+00 2.33455110e+00 4.02684879e+00
      7.48112822e+00 5.28566980e+00 7.27999878e+00</_>
    <_>
      7.97348022e-01 4.54214716e+00 5.22678709e+00 8.33290005e+00
      1.51127434e+01 1.06039734e+01 2.18414974e+01</_>
    <_>
      7.94327021e-01 3.46945691e+00 6.37967491e+00 8.59699917e+00
      1.83138962e+01 -1.06653891e+01 -1.60853443e+01</_>
    <_>
      7.97138989e-01 5.49203682e+00 5.91926193e+00 8.80208874e+00
      1.82276154e+01 -1.15639172e+01 1.61627808e+01</_>
    <_>
      7.95490026e-01 3.89779091e+00 5.16060305e+00 9.82573318e+00
      -1.74228783e+01 -1.20775251e+01 -1.75287266e+01</_>
    <_>
      7.83734977e-01 2.79244804e+00 5.11675215e+00 6.60911894e+00
      1.24801521e+01 8.02273083e+00 1.31903067e+01</_>
    <_>
      7.96662986e-01 4.02299976e+00 8.02271366e+00 9.76002216e+00
      -1.89851971e+01 -1.18200703e+01 -1.87039471e+01</_>
    <_>
      5.60679018e-01 1.38347602e+00 2.25544810e+00 2.65384793e+00
      5.11059809e+00 3.34740305e+00 -6.11655521e+00</_>
    <_>
      7.16037989e-01 2.03321910e+00 3.02236009e+00 3.94480610e+00
      7.43050385e+00 4.96335793e+00 8.43515015e+00</_>
    <_>
      7.96077013e-01 4.02308893e+00 6.54040813e+00 8.35146332e+00
      -1.57975359e+01 -1.03875160e+01 1.73976498e+01</_>
    <_>
      7.97358990e-01 5.21151686e+00 6.65420103e+00 8.44228077e+00
      1.66114826e+01 -1.10501480e+01 1.60033321e+01</_>
    <_>
      7.95152009e-01 3.65344810e+00 4.94944382e+00 7.86843300e+00
      1.46730938e+01 -1.15681257e+01 -1.43156557e+01</_>
    <_>
      7.95760989e-01 4.41530418e+00 5.27322388e+00 7.60914803e+00
      1.45822592e+01 1.02537222e+01 1.40699387e+01</_>
    <_>
      4.53810006e-01 1.07167900e+00 2.89223599e+00 3.27162910e+00
      6.36389589e+00 3.83248901e+00 7.01992321e+00</_>
    <_>
      7.95593023e-01 3.94486499e+00 4.61891890e+00 8.17815685e+00
      -1.52141056e+01 -1.04292898e+01 -1.45885448e+01</_>
    <_>
      7.94867992e-01 3.76777697e+00 6.23374796e+00 8.16962719e+00
      1.54776583e+01 -1.05383253e+01 -1.55773430e+01</_>
    <_>
      4.75681007e-01 1.15297604e+00 3.83357406e+00 4.66173315e+00
      -9.28083038e+00 -5.36917305e+00 -8.95268154e+00</_>
    <_>
      7.97254980e-01 5.24795198e+00 5.20458794e+00 9.17564487e+00
      1.63663330e+01 1.18052521e+01 -1.76561909e+01</_>
    <_>
      7.83967972e-01 3.00761390e+00 3.96684289e+00 5.63820314e+00
      -1.04489927e+01 -7.15150690e+00 -1.11545305e+01</_>
    <_>
      7.96979010e-01 4.63965178e+00 5.54668617e+00 8.47805882e+00
      -1.54941673e+01 -1.08046989e+01 1.63744602e+01</_>
    <_>
      7.89588988e-01 3.10658598e+00 5.21965218e+00 6.98732710e+00
      1.39196844e+01 -8.97436523e+00 -1.30956450e+01</_>
    <_>
      7.96469986e-01 4.48248577e+00 5.38029814e+00 8.07967472e+00
      -1.48096609e+01 -1.03209181e+01 -2.24861031e+01</_>
    <_>
      7.96563029e-01 4.06816196e+00 5.17000294e+00 1.01763992e+01
      1.80002728e+01 1.25253325e+01 1.79999580e+01</_>
    <_>
      7.97165990e-01 5.25073385e+00 5.73797703e+00 1.11398659e+01
      2.08584404e+01 1.45811033e+01 -1.95793877e+01</_>
    <_>
      7.97034979e-01 4.22425890e+00 6.31534815e+00 9.22074890e+00
      1.93149872e+01 -1.13921785e+01 1.69888039e+01</_>
    <_>
      7.95781016e-01 3.96903706e+00 4.84837484e+00 7.41266823e+00
      -1.48456011e+01 1.06193266e+01 -1.35437288e+01</_>
    <_>
      7.96873987e-01 5.06350899e+00 5.57369995e+00 8.52063847e+00
      1.55678072e+01 1.10523920e+01 2.25619583e+01</_>
    <_>
      7.92883992e-01 3.30293107e+00 5.86151314e+00 8.43669415e+00
      1.55859509e+01 1.00934229e+01 1.71619625e+01</_>
    <_>
      7.83792973e-01 2.78414202e+00 5.63982821e+00 7.33085299e+00
      1.38316383e+01 8.72672272e+00 1.43978472e+01</_>
    <_>
      7.95736015e-01 4.04722881e+00 5.08832788e+00 7.66705084e+00
      -1.43976383e+01 -1.13879890e+01 -1.40923510e+01</_>
    <_>
      7.93335021e-01 3.36216903e+00 6.68276310e+00 8.11216640e+00
      1.58843851e+01 1.01418133e+01 1.55522032e+01</_>
    <_>
      7.96510994e-01 3.99926209e+00 6.54334211e+00 8.61327744e+00
      1.61966515e+01 1.12599888e+01 -1.70102367e+01</_>
    <_>
      7.80206978e-01 2.72855592e+00 4.38592291e+00 6.08640289e+00
      1.13225708e+01 7.45235920e+00 -1.36292410e+01</_>
    <_>
      7.97295988e-01 4.97562790e+00 5.07675314e+00 9.38951874e+00
      -1.66429749e+01 1.28036156e+01 1.71471462e+01</_>
    <_>
      5.79387009e-01 1.41360497e+00 3.86063910e+00 4.70130777e+00
      9.93669033e+00 -7.79676723e+00 -8.98497581e+00</_>
    <_>
      7.89534986e-01 3.05467010e+00 5.63464117e+00 7.40132380e+00
      1.47101316e+01 -9.47340679e+00 1.39250727e+01</_>
    <_>
      7.95463026e-01 3.82669711e+00 4.92272282e+00 7.49565887e+00
      1.37049332e+01 9.41150188e+00 1.54128113e+01</_>
    <_>
      4.69330013e-01 1.15179205e+00 2.30435801e+00 2.64866590e+00
      5.12596416e+00 3.22661495e+00 -6.34632301e+00</_>
    <_>
      7.95755029e-01 3.72041392e+00 5.21763992e+00 7.95461082e+00
      1.45408192e+01 9.82540131e+00 -1.62526722e+01</_>
    <_>
      7.97605991e-01 5.28720379e+00 5.82432413e+00 9.00810432e+00
      -1.64249096e+01 -1.16519623e+01 -1.77076225e+01</_>
    <_>
      7.96913981e-01 5.93154001e+00 4.98881912e+00 9.39953995e+00
      1.67074718e+01 1.23817511e+01 1.67885189e+01</_>
    <_>
      7.97142982e-01 4.86903000e+00 5.89029884e+00 8.25472546e+00
      -1.53431616e+01 1.13805332e+01 -1.59025002e+01</_>
    <_>
      5.99968016e-01 1.49210203e+00 4.64431286e+00 5.70020199e+00
      -1.12085171e+01 -7.22201300e+00 -1.09244051e+01</_>
    <_>
      7.97465026e-01 4.95698404e+00 6.61729002e+00 9.14372635e+00
      1.70574512e+01 1.30262690e+01 -1.74483223e+01</_>
    <_>
      7.96088994e-01 4.61930990e+00 4.66637611e+00 7.77793980e+00
      -1.43329124e+01 1.04148045e+01 1.40529280e+01</_>
    <_>
      5.42218029e-01 1.31516504e+00 3.27246189e+00 3.85430002e+00
      7.54341221e+00 4.73692322e+00 -7.59617901e+00</_>
    <_>
      7.93624997e-01 4.42563295e+00 4.31234312e+00 6.82431889e+00
      -1.26123266e+01 -9.34578800e+00 1.24907913e+01</_>
    <_>
      7.13105977e-01 1.99299598e+00 3.79205298e+00 4.77050591e+00
      9.33677673e+00 -7.13680983e+00 -9.11987495e+00</_>
    <_>
      6.80544972e-01 1.76210797e+00 5.63193989e+00 6.79409790e+00
      1.39359026e+01 8.75100231e+00 1.30101519e+01</_>
    <_>
      7.97299027e-01 6.23716116e+00 5.05284119e+00 9.13078976e+00
      1.62460976e+01 -1.22558317e+01 1.67171726e+01</_>
    <_>
      4.48155999e-01 1.09054196e+00 3.13267708e+00 3.83034396e+00
      7.83100224e+00 5.49726486e+00 7.33270693e+00</_>
    <_>
      7.95118988e-01 3.75456905e+00 5.83852196e+00 9.01593399e+00
      1.64541912e+01 1.08989344e+01 1.70957489e+01</_>
    <_>
      7.97375023e-01 5.77054119e+00 5.49831295e+00 8.80128002e+00
      -1.62908421e+01 -1.17064180e+01 -1.60020313e+01</_>
    <_>
      7.84702003e-01 2.85428500e+00 4.64915609e+00 6.60171080e+00
      -1.25284767e+01 -8.29398155e+00 1.22895126e+01</_>
    <_>
      7.94125021e-01 3.43682599e+00 6.45660496e+00 9.11140728e+00
      -1.68977070e+01 -1.08501825e+01 -1.78846550e+01</_>
    <_>
      7.96382010e-01 4.01165819e+00 5.56460381e+00 8.07837391e+00
      -1.63416939e+01 1.24657707e+01 -1.49001455e+01</_>
    <_>
      4.60105985e-01 1.13719904e+00 2.45689607e+00 2.82144094e+00
      5.46083689e+00 3.39253211e+00 -6.95013618e+00</_>
    <_>
      7.74227023e-01 2.80794811e+00 3.63181901e+00 5.14130402e+00
      -9.52983570e+00 -6.54618502e+00 -1.05498962e+01</_>
    <_>
      7.90391028e-01 3.12587094e+00 6.25671816e+00 7.83436918e+00
      1.52795143e+01 -9.71806812e+00 1.49174576e+01</_>
    <_>
      7.96652019e-01 4.29672623e+00 4.93871117e+00 8.29220963e+00
      -1.63157883e+01 -1.05852308e+01 -1.49080029e+01</_>
    <_>
      7.89750993e-01 3.10194802e+00 4.88415098e+00 6.84252310e+00
      1.32197809e+01 9.04429722e+00 1.27272463e+01</_>
    <_>
      7.97021985e-01 5.26894617e+00 5.60661316e+00 9.96778870e+00
      1.77619457e+01 -1.26643400e+01 1.85056591e+01</_>
    <_>
      7.89587975e-01 3.04669094e+00 4.93705511e+00 7.07286692e+00
      1.35949821e+01 9.61778355e+00 1.30988817e+01</_>
    <_>
      7.94125021e-01 3.38798904e+00 6.53183079e+00 8.98881340e+00
      1.88330364e+01 1.19139786e+01 -1.67491512e+01</_>
    <_>
      7.96900988e-01 4.60317898e+00 6.06551695e+00 8.05335999e+00
      1.51147871e+01 1.07394209e+01 1.61329021e+01</_>
    <_>
      7.97113001e-01 4.51342916e+00 6.45258522e+00 1.01267481e+01
      1.89201775e+01 -1.24919205e+01 -1.84388790e+01</_>
    <_>
      5.67434013e-01 1.37402499e+00 5.01898193e+00 6.54604006e+00
      1.25217304e+01 7.25371790e+00 1.24434233e+01</_>
    <_>
      7.97270000e-01 7.42586613e+00 5.21315908e+00 9.18899727e+00
      -1.67940693e+01 -1.29492502e+01 1.64267998e+01</_>
    <_>
      7.89771974e-01 3.09233403e+00 4.91689920e+00 7.13012981e+00
      -1.38973770e+01 9.60819626e+00 -1.31608295e+01</_>
    <_>
      7.75614023e-01 2.58023596e+00 6.02926111e+00 7.41970301e+00
      1.42655087e+01 8.77998924e+00 1.43284340e+01</_>
    <_>
      4.96176004e-01 1.20511603e+00 2.79995489e+00 3.22347999e+00
      6.23520613e+00 3.82613707e+00 -8.44499207e+00</_>
    <_>
      4.18430001e-01 1.00112295e+00 3.92799211e+00 3.88948393e+00
      7.79829311e+00 4.42925596e+00 9.54168606e+00</_>
    <_>
      7.96738029e-01 4.17395210e+00 5.29828501e+00 9.08310032e+00
      -1.70317440e+01 -1.29701509e+01 -1.62805157e+01</_>
    <_>
      7.96793997e-01 4.41786098e+00 5.86056709e+00 9.62888622e+00
      1.73740025e+01 1.27437057e+01 1.87467690e+01</_>
    <_>
      7.00371027e-01 1.87159300e+00 3.89234710e+00 4.78162098e+00
      9.18156624e+00 5.79591417e+00 -9.41816330e+00</_>
    <_>
      4.93259996e-01 1.18819499e+00 3.68870807e+00 4.32003689e+00
      9.04152870e+00 -6.63951206e+00 -8.33255005e+00</_>
    <_>
      7.95759022e-01 4.12895823e+00 4.40801191e+00 7.58804607e+00
      1.36239414e+01 9.65270710e+00 -1.39839869e+01</_>
    <_>
      4.40551013e-01 1.02703595e+00 2.49027491e+00 3.23987007e+00
      6.52459192e+00 -5.09860897e+00 -6.13890314e+00</_>
    <_>
      7.91007996e-01 3.14900494e+00 9.11918736e+00 8.90983963e+00
      -1.79781246e+01 1.04878769e+01 -1.82537861e+01</_>
    <_>
      7.96577990e-01 4.03705692e+00 5.31401396e+00 9.39386940e+00
      1.67479458e+01 1.14251947e+01 -1.83499012e+01</_>
    <_>
      7.94049025e-01 3.38471794e+00 2.62290497e+01 2.61769829e+01
      5.23802109e+01 2.78759384e+01 -5.38875542e+01</_>
    <_>
      7.95283973e-01 4.08808899e+00 4.57937384e+00 7.34511185e+00
      1.33107386e+01 9.46581364e+00 1.42126865e+01</_>
    <_>
      5.71074009e-01 1.38970006e+00 3.32839394e+00 3.90910792e+00
      7.52786016e+00 4.60468006e+00 -1.08596230e+01</_>
    <_>
      7.90419996e-01 3.08512306e+00 4.91696405e+00 7.00103092e+00
      -1.39786940e+01 -9.21615791e+00 1.29620314e+01</_>
    <_>
      7.96061993e-01 4.14469099e+00 5.71263313e+00 8.02466297e+00
      1.49586430e+01 -1.10230494e+01 -1.51859722e+01</_>
    <_>
      7.96640992e-01 6.77921200e+00 5.00515318e+00 8.27395916e+00
      -1.51403313e+01 1.16889467e+01 -1.50076809e+01</_>
    <_>
      7.95642018e-01 3.80529690e+00 5.52477312e+00 8.99406433e+00
      1.64018459e+01 1.09386549e+01 1.64061699e+01</_>
    <_>
      7.92774022e-01 3.31227207e+00 6.62047911e+00 8.85051060e+00
      -1.73613377e+01 -1.05485744e+01 -1.65922031e+01</_>
    <_>
      7.97057986e-01 6.39459991e+00 5.13438416e+00 8.01456261e+00
      -1.45890360e+01 -1.12118626e+01 -2.39675503e+01</_>
    <_>
      7.87784994e-01 2.96979499e+00 4.97476721e+00 7.13877821e+00
      1.36160812e+01 8.90580082e+00 1.32293634e+01</_>
    <_>
      7.96514988e-01 4.02578688e+00 6.63456011e+00 9.21064472e+00
      1.71351147e+01 -1.17743034e+01 -1.81668701e+01</_>
    <_>
      7.95994997e-01 3.83323002e+00 6.03297281e+00 8.28368187e+00
      1.67076836e+01 -1.07089930e+01 1.54426479e+01</_>
    <_>
      6.00847006e-01 1.45561898e+00 3.51023293e+00 4.35453176e+00
      9.13345242e+00 -6.14455891e+00 8.29136181e+00</_>
    <_>
      6.65382028e-01 1.70510697e+00 4.48867178e+00 5.41853905e+00
      1.14915342e+01 -7.17087221e+00 -1.03734007e+01</_>
    <_>
      7.96820998e-01 4.63031721e+00 5.64856291e+00 1.02275295e+01
      -1.84404755e+01 1.25858631e+01 -1.82375050e+01</_>
    <_>
      7.96523988e-01 3.96880293e+00 6.59575510e+00 8.72438431e+00
      1.64783325e+01 1.07407207e+01 -1.66117954e+01</_>
    <_>
      7.96500981e-01 4.25234890e+00 6.75761795e+00 9.29016399e+00
      1.74708729e+01 1.14262877e+01 1.74584446e+01</_>
    <_>
      7.94933021e-01 3.99190593e+00 5.00636578e+00 7.38112116e+00
      -1.36115999e+01 9.45804119e+00 -1.39787998e+01</_>
    <_>
      7.57699013e-01 2.45427489e+00 3.34388089e+00 4.78674984e+00
      -8.91634941e+00 -6.06529188e+00 9.14774418e+00</_>
    <_>
      7.95530021e-01 3.62548399e+00 5.99465418e+00 9.33648777e+00
      -1.71114655e+01 -1.20896778e+01 1.72033272e+01</_>
    <_>
      7.95331001e-01 3.65941906e+00 5.77912998e+00 9.64489746e+00
      -1.80238724e+01 1.20923214e+01 -1.73672161e+01</_>
    <_>
      7.95635998e-01 3.75617599e+00 5.48172283e+00 8.76985264e+00
      -1.72877274e+01 -1.06696062e+01 -1.58959990e+01</_>
    <_>
      7.97406018e-01 4.94579506e+00 6.07189417e+00 9.71992874e+00
      1.76326389e+01 1.22033539e+01 -1.81799278e+01</_>
    <_>
      7.64822006e-01 2.59147692e+00 3.33562398e+00 4.89482021e+00
      -9.01957703e+00 -6.19655895e+00 9.69351387e+00</_>
    <_>
      6.51336014e-01 1.73470700e+00 2.83998394e+00 3.43500304e+00
      6.57253122e+00 4.30362988e+00 8.47419453e+00</_>
    <_>
      6.66010976e-01 1.71867895e+00 3.89743209e+00 5.00703478e+00
      -9.71899319e+00 -6.09127092e+00 9.53745842e+00</_>
    <_>
      7.94407010e-01 3.50018191e+00 5.20724821e+00 7.21287918e+00
      -1.44199009e+01 -1.03603363e+01 -1.34251556e+01</_>
    <_>
      5.34138024e-01 1.32300103e+00 3.70239902e+00 4.35604000e+00
      1.00738630e+01 -6.09844112e+00 8.38535118e+00</_>
    <_>
      5.53813994e-01 1.35301697e+00 4.90027809e+00 5.56406021e+00
      -1.12534943e+01 -6.38665295e+00 1.08244200e+01</_>
    <_>
      7.96986997e-01 4.27083302e+00 6.71676111e+00 1.07532244e+01
      -1.96881294e+01 -1.38799286e+01 1.95985146e+01</_>
    <_>
      7.97559977e-01 5.31751490e+00 5.89057112e+00 9.88076305e+00
      -1.78767509e+01 1.25562735e+01 -1.79663086e+01</_>
    <_>
      7.95675993e-01 3.68787289e+00 5.66041183e+00 9.93415546e+00
      -1.80989037e+01 -1.17799244e+01 1.77756214e+01</_>
    <_>
      6.19328022e-01 1.54520595e+00 4.14357519e+00 4.87463379e+00
      9.38377953e+00 5.64854479e+00 1.12385263e+01</_>
    <_>
      7.97483027e-01 5.86342001e+00 6.24409485e+00 8.61962986e+00
      -1.61577206e+01 1.15514088e+01 1.62577057e+01</_>
    <_>
      7.96958983e-01 5.17759085e+00 5.30540085e+00 9.54487801e+00
      1.74372272e+01 -1.24782848e+01 -1.69968643e+01</_>
    <_>
      7.95623004e-01 3.66112208e+00 5.90149879e+00 9.10400295e+00
      -1.67718086e+01 1.26894884e+01 -1.67436447e+01</_>
    <_>
      6.22364998e-01 1.53601205e+00 4.79971600e+00 5.85544682e+00
      -1.24085932e+01 -8.27506828e+00 1.11837988e+01</_>
    <_>
      7.93193996e-01 3.33414292e+00 6.87247181e+00 8.30938244e+00
      1.66520500e+01 -1.09746599e+01 -1.59072304e+01</_>
    <_>
      7.97379971e-01 6.72707891e+00 5.25654316e+00 9.05402946e+00
      -1.62799454e+01 1.24226112e+01 -1.64875526e+01</_>
    <_>
      7.97097027e-01 4.42520714e+00 5.21460104e+00 1.00685444e+01
      1.77233505e+01 1.24634981e+01 -1.83242397e+01</_>
    <_>
      7.96308994e-01 4.05063295e+00 5.24640703e+00 8.59238720e+00
      -1.68561096e+01 1.20479393e+01 -1.55122290e+01</_>
    <_>
      6.41305029e-01 1.62952399e+00 4.34861898e+00 5.17921209e+00
      1.03673334e+01 6.47313786e+00 9.97632504e+00</_>
    <_>
      7.93211997e-01 3.33014607e+00 6.46557522e+00 8.06665707e+00
      1.53451710e+01 1.10655670e+01 1.59606400e+01</_>
    <_>
      7.97321975e-01 4.64753199e+00 6.77859783e+00 1.18887978e+01
      2.13824692e+01 -1.43906231e+01 -2.13639450e+01</_>
    <_>
      7.94749975e-01 3.52881408e+00 5.97213507e+00 9.58977032e+00
      1.73710403e+01 1.13551178e+01 1.87885056e+01</_>
    <_>
      7.96808004e-01 4.77993822e+00 5.46197414e+00 7.80954123e+00
      1.45681725e+01 1.01995716e+01 -1.46274929e+01</_>
    <_>
      7.90745974e-01 3.11642504e+00 5.33417892e+00 7.46234083e+00
      -1.55695200e+01 -9.49711227e+00 -1.38606844e+01</_>
    <_>
      4.37833011e-01 1.02972603e+00 4.56610012e+00 5.12515211e+00
      1.06013851e+01 -5.93866396e+00 9.98301697e+00</_>
    <_>
      4.56272990e-01 1.11741996e+00 3.06065798e+00 3.34602404e+00
      6.55324507e+00 3.91659808e+00 -7.42525291e+00</_>
    <_>
      7.96639025e-01 3.99708295e+00 7.44503689e+00 9.45717430e+00
      -1.79102478e+01 -1.16085272e+01 1.89306488e+01</_>
    <_>
      6.76113009e-01 1.74531102e+00 3.72901797e+00 4.48901892e+00
      8.59981060e+00 5.36501598e+00 -9.64295578e+00</_>
    <_>
      7.95966029e-01 3.84597707e+00 5.97355700e+00 8.10891724e+00
      1.51982174e+01 1.13876381e+01 1.55012197e+01</_>
    <_>
      7.97519982e-01 5.02310896e+00 5.83335495e+00 8.63415432e+00
      1.61156635e+01 1.17398643e+01 1.59514999e+01</_>
    <_>
      7.96283007e-01 4.07393312e+00 5.82196999e+00 9.08399487e+00
      -1.65369778e+01 1.13120327e+01 1.98428078e+01</_>
    <_>
      7.96370983e-01 4.21132994e+00 6.06121111e+00 8.14171886e+00
      -1.56155224e+01 1.12215919e+01 1.52862825e+01</_>
    <_>
      7.94762015e-01 4.03810215e+00 4.66793013e+00 7.05031681e+00
      -1.29204025e+01 -9.16720009e+00 1.35633297e+01</_>
    <_>
      7.93467999e-01 3.52965808e+00 4.32630301e+00 6.64645004e+00
      1.21329165e+01 8.41291332e+00 -1.38242483e+01</_>
    <_>
      7.97455013e-01 5.16094208e+00 5.33472490e+00 1.02207880e+01
      1.79985695e+01 -1.28155136e+01 -1.99570808e+01</_>
    <_>
      7.94620991e-01 4.30003023e+00 4.73553801e+00 6.82782602e+00
      -1.28634186e+01 1.02747660e+01 1.26902666e+01</_>
    <_>
      7.97335982e-01 5.19457722e+00 6.86356306e+00 8.35801411e+00
      -1.59688034e+01 -1.09553032e+01 2.35324879e+01</_>
    <_>
      7.95652986e-01 3.74934912e+00 7.04723692e+00 9.06079674e+00
      1.73391037e+01 -1.11167593e+01 -1.72103634e+01</_>
    <_>
      7.96060026e-01 3.83204198e+00 6.06936598e+00 1.00814304e+01
      -1.99098873e+01 1.40122519e+01 1.81568966e+01</_>
    <_>
      7.97087014e-01 4.87770510e+00 5.51000023e+00 8.31799126e+00
      -1.52319870e+01 1.07568436e+01 2.26549835e+01</_>
    <_>
      7.96433985e-01 3.95680094e+00 6.27139091e+00 8.96541977e+00
      1.65852509e+01 1.14676151e+01 1.76758461e+01</_>
    <_>
      5.79595029e-01 1.43226004e+00 5.57272482e+00 6.53453493e+00
      -1.27278671e+01 -7.25076294e+00 1.27500591e+01</_>
    <_>
      5.86507022e-01 1.43190205e+00 4.37695885e+00 5.27176285e+00
      -1.01027994e+01 -5.98813915e+00 1.08556318e+01</_>
    <_>
      7.97110021e-01 5.28578997e+00 6.46338511e+00 8.92729282e+00
      -1.66394653e+01 1.22664270e+01 1.71862888e+01</_>
    <_>
      7.97568977e-01 5.92459011e+00 6.06944180e+00 9.08226776e+00
      1.67599297e+01 -1.21981916e+01 1.68715286e+01</_>
    <_>
      7.84882009e-01 2.82531500e+00 5.73011494e+00 7.72446299e+00
      -1.44774723e+01 -9.13991547e+00 -1.49277239e+01</_>
    <_>
      7.94174016e-01 3.40171409e+00 2.38499222e+01 2.41370716e+01
      -5.09748421e+01 -2.72862034e+01 -4.81305695e+01</_>
    <_>
      7.97478974e-01 4.76635313e+00 7.09150791e+00 1.11595240e+01
      -2.04511433e+01 -1.37611198e+01 -2.04210091e+01</_>
    <_>
      7.97172010e-01 5.27229118e+00 7.57432795e+00 9.65509129e+00
      -1.85735817e+01 -1.22965174e+01 -1.83313618e+01</_>
    <_>
      7.96875000e-01 4.99743319e+00 6.12982798e+00 8.36400890e+00
      -1.56482868e+01 1.08627262e+01 -1.60115185e+01</_>
    <_>
      7.22567976e-01 2.10461497e+00 3.07056189e+00 4.36056519e+00
      -8.13341999e+00 -5.44475079e+00 -8.39347458e+00</_>
    <_>
      7.96799004e-01 5.35986519e+00 4.77349901e+00 8.09723759e+00
      -1.45331669e+01 1.12666979e+01 1.58270397e+01</_>
    <_>
      5.64382970e-01 1.36260796e+00 3.93438196e+00 4.67234421e+00
      9.61973000e+00 6.68304205e+00 8.98719215e+00</_>
    <_>
      7.94539988e-01 3.68372202e+00 4.88357878e+00 7.22749901e+00
      1.40176220e+01 -9.28062344e+00 1.32905388e+01</_>
    <_>
      7.95693994e-01 4.07579184e+00 4.80850410e+00 7.96183681e+00
      1.51242971e+01 -1.00635099e+01 1.43531494e+01</_>
    <_>
      7.95715988e-01 3.70177603e+00 5.98274994e+00 8.38609028e+00
      1.68697205e+01 -1.09977932e+01 -1.55710573e+01</_>
    <_>
      7.91265011e-01 3.15590596e+00 5.33035421e+00 7.56257296e+00
      -1.40110226e+01 -9.15345573e+00 1.50294294e+01</_>
    <_>
      7.90816009e-01 3.18179703e+00 4.58211184e+00 6.75747585e+00
      -1.43201809e+01 9.60091496e+00 -1.24273062e+01</_>
    <_>
      5.89794993e-01 1.41245401e+00 3.90909195e+00 4.76264477e+00
      1.02091894e+01 -6.14437294e+00 9.09982300e+00</_>
    <_>
      7.96940982e-01 4.40801287e+00 4.95726109e+00 8.11457634e+00
      -1.55444756e+01 1.17194004e+01 -1.46540623e+01</_>
    <_>
      7.96231985e-01 4.26660824e+00 5.69893217e+00 7.53136492e+00
      1.43287802e+01 9.67428398e+00 -1.42693338e+01</_>
    <_>
      7.90319026e-01 3.09250903e+00 5.71718788e+00 8.10370255e+00
      1.50174208e+01 9.65559387e+00 1.59267635e+01</_>
    <_>
      5.06519973e-01 1.18006206e+00 5.45346785e+00 5.74568176e+00
      1.14206715e+01 6.47992516e+00 1.16115255e+01</_>
    <_>
      6.97558999e-01 1.89721596e+00 3.45035291e+00 4.42509890e+00
      8.39727497e+00 5.42336416e+00 8.77960777e+00</_>
    <_>
      7.97065973e-01 4.62681818e+00 6.22628593e+00 8.73681259e+00
      -1.63050079e+01 -1.10502529e+01 -1.64597511e+01</_>
    <_>
      4.98185009e-01 1.66909301e+00 1.85298395e+00 3.01152492e+00
      -5.74361992e+00 -3.98683596e+00 5.50664806e+00</_>
    <_>
      7.96886027e-01 4.96534300e+00 5.03423977e+00 9.54088879e+00
      -1.70751743e+01 1.20773001e+01 -1.69125309e+01</_>
    <_>
      7.97102988e-01 4.19776487e+00 6.80840111e+00 1.02920151e+01
      -1.89842186e+01 -1.24513826e+01 1.90016041e+01</_>
    <_>
      7.74224997e-01 2.56618094e+00 4.23689890e+00 5.70672798e+00
      1.07358999e+01 7.05866909e+00 -1.09956675e+01</_>
    <_>
      7.27635980e-01 2.03740692e+00 3.89617991e+00 5.27912521e+00
      -1.01407499e+01 -6.46834517e+00 9.93906975e+00</_>
    <_>
      7.97173023e-01 5.43357420e+00 5.03930902e+00 8.53045082e+00
      -1.54119987e+01 1.13756552e+01 -1.55376091e+01</_>
    <_>
      7.93712020e-01 3.36543012e+00 5.73212910e+00 8.21976471e+00
      -1.51957169e+01 -9.90262508e+00 -1.75194321e+01</_>
    <_>
      7.97444999e-01 5.21156502e+00 5.87700415e+00 8.80991936e+00
      1.62668056e+01 -1.23027258e+01 -1.63486519e+01</_>
    <_>
      5.44359028e-01 1.32175398e+00 4.52159691e+00 5.92557812e+00
      1.12978420e+01 6.69510794e+00 1.13015337e+01</_>
    <_>
      7.96778977e-01 5.75803900e+00 4.87322998e+00 8.01973724e+00
      -1.51086884e+01 -1.11402893e+01 -1.44777899e+01</_>
    <_>
      6.29794002e-01 1.56828403e+00 5.77173805e+00 6.03831720e+00
      1.20065699e+01 6.82492113e+00 -1.22421217e+01</_>
    <_>
      7.95029998e-01 3.58165503e+00 6.73117399e+00 8.43219185e+00
      1.72954826e+01 -1.04972305e+01 -1.60144691e+01</_>
    <_>
      7.93440998e-01 3.36049795e+00 5.48296404e+00 7.68925190e+00
      1.64986935e+01 -9.82968044e+00 -1.42753677e+01</_>
    <_>
      7.97559023e-01 5.39614820e+00 6.18469810e+00 8.68899822e+00
      1.68072205e+01 1.14217281e+01 -1.61354752e+01</_>
    <_>
      7.96467006e-01 4.15033484e+00 5.53027296e+00 1.02529554e+01
      -1.81645470e+01 1.24239254e+01 1.86725826e+01</_>
    <_>
      7.96634972e-01 5.01971722e+00 5.51922703e+00 7.91495419e+00
      -1.46328917e+01 -1.04468460e+01 1.58367329e+01</_>
    <_>
      7.94382989e-01 3.63854599e+00 5.58036280e+00 9.53698254e+00
      -1.71012669e+01 1.19020824e+01 1.78923531e+01</_>
    <_>
      7.96648979e-01 4.17187786e+00 5.91437006e+00 9.25766659e+00
      -1.68470192e+01 1.17598219e+01 1.77522335e+01</_>
    <_>
      7.97105014e-01 4.38968420e+00 5.86404896e+00 9.29669666e+00
      1.85475082e+01 1.17040062e+01 1.68771706e+01</_>
    <_>
      7.85157979e-01 2.84769011e+00 5.47042513e+00 7.26069498e+00
      1.42995548e+01 -1.00706682e+01 -1.36362572e+01</_>
    <_>
      7.96531022e-01 4.58500004e+00 5.79483795e+00 8.21321201e+00
      1.54249754e+01 -1.09607353e+01 1.53225060e+01</_>
    <_>
      7.95675993e-01 3.67404509e+00 8.01459217e+00 9.27576733e+00
      1.79215145e+01 1.13790150e+01 1.92126179e+01</_>
    <_>
      7.97091007e-01 4.41507006e+00 6.68445110e+00 9.09745502e+00
      1.69965954e+01 1.20354452e+01 -1.77042885e+01</_>
    <_>
      7.92003989e-01 4.08207321e+00 4.73631287e+00 6.87988377e+00
      -1.28634987e+01 9.07645798e+00 1.28160791e+01</_>
    <_>
      7.93835998e-01 3.39562893e+00 5.14552498e+00 7.50269079e+00
      -1.38268108e+01 -9.20699024e+00 -1.59719801e+01</_>
    <_>
      7.88457990e-01 2.99359298e+00 4.90187883e+00 6.89220524e+00
      1.27903452e+01 8.39013767e+00 1.39378719e+01</_>
    <_>
      7.95047998e-01 3.62089109e+00 5.11017990e+00 7.76713181e+00
      1.42058067e+01 9.61940670e+00 1.62316093e+01</_>
    <_>
      7.87904978e-01 2.93456197e+00 7.15565777e+00 9.09500504e+00
      1.72439747e+01 1.05724478e+01 -1.77136173e+01</_>
    <_>
      7.95161009e-01 3.58385897e+00 5.32696915e+00 8.15455437e+00
      1.60761414e+01 -1.18878212e+01 1.48962612e+01</_>
    <_>
      4.29737985e-01 9.64299023e-01 3.26082301e+00 4.22570181e+00
      -8.06835270e+00 -4.79918623e+00 8.18647289e+00</_>
    <_>
      7.96069026e-01 4.49081612e+00 5.00098610e+00 9.06633759e+00
      -1.61670170e+01 1.14447508e+01 1.63879337e+01</_>
    <_>
      4.82232988e-01 1.19193304e+00 4.29911804e+00 5.11054802e+00
      -1.01722460e+01 -5.95257998e+00 -9.86203003e+00</_>
    <_>
      7.95687973e-01 3.67677212e+00 6.22275019e+00 9.44347477e+00
      1.75843487e+01 -1.19088268e+01 1.73368587e+01</_>
    <_>
      7.97270000e-01 5.83815479e+00 5.37467003e+00 8.82842541e+00
      1.59337511e+01 1.17477217e+01 -1.68115864e+01</_>
    <_>
      7.91404009e-01 3.23570108e+00 5.86123610e+00 7.33054876e+00
      -1.55666885e+01 -1.03429470e+01 -1.39265556e+01</_>
    <_>
      7.76382029e-01 2.60846210e+00 4.43800020e+00 5.88908291e+00
      1.10530872e+01 7.19426680e+00 -1.23887520e+01</_>
    <_>
      5.72790980e-01 1.41721594e+00 3.85789299e+00 4.75020885e+00
      -9.05427074e+00 -5.47328806e+00 -1.11998940e+01</_>
    <_>
      5.10020971e-01 1.22330797e+00 4.31245995e+00 5.21516895e+00
      9.97973824e+00 5.82686615e+00 -1.12092476e+01</_>
    <_>
      7.95861006e-01 4.45169592e+00 4.55812311e+00 7.81613016e+00
      -1.40041037e+01 1.02050276e+01 1.52079868e+01</_>
    <_>
      6.96677983e-01 1.85184205e+00 5.24752522e+00 6.45385313e+00
      1.23116961e+01 7.38699007e+00 1.30492105e+01</_>
    <_>
      7.92723000e-01 3.26166010e+00 6.23736095e+00 8.20790195e+00
      1.60225754e+01 -1.02047167e+01 1.54452324e+01</_>
    <_>
      5.40183008e-01 1.32674897e+00 3.50796890e+00 4.28585196e+00
      8.97583675e+00 -6.06853485e+00 -8.18846798e+00</_>
    <_>
      7.95575976e-01 4.04079485e+00 4.59314013e+00 8.50743771e+00
      1.56527424e+01 1.06480513e+01 1.50722198e+01</_>
    <_>
      7.97029018e-01 4.74420309e+00 5.73023796e+00 1.00558929e+01
      -1.82508430e+01 -1.26994438e+01 1.80111446e+01</_>
    <_>
      7.92967975e-01 3.69511199e+00 4.13319683e+00 6.61889076e+00
      -1.24966583e+01 -8.54230213e+00 -1.20176239e+01</_>
    <_>
      7.94790030e-01 4.41271210e+00 4.34100008e+00 6.81741714e+00
      1.24133015e+01 9.13423634e+00 1.29622507e+01</_>
    <_>
      7.97596991e-01 5.21862984e+00 6.16897917e+00 9.36355114e+00
      1.71552353e+01 1.26607265e+01 1.76081829e+01</_>
    <_>
      7.96621025e-01 4.00065088e+00 6.59145212e+00 8.76107216e+00
      1.72119045e+01 1.16255322e+01 -1.64435539e+01</_>
    <_>
      7.94205010e-01 3.41491795e+00 5.91880798e+00 8.09921646e+00
      1.51085854e+01 9.82321739e+00 -1.65004883e+01</_>
    <_>
      7.97393024e-01 4.39548302e+00 6.35059881e+00 9.26121521e+00
      -1.74537449e+01 -1.14590960e+01 -1.71072063e+01</_>
    <_>
      7.96766996e-01 4.15607119e+00 5.99628115e+00 8.93459415e+00
      -1.64000816e+01 -1.11854277e+01 -1.82134094e+01</_>
    <_>
      7.97281027e-01 4.63499212e+00 5.75865793e+00 9.52060032e+00
      1.74498158e+01 -1.46752939e+01 1.72266521e+01</_>
    <_>
      7.97059000e-01 6.60974884e+00 4.85135508e+00 9.20368099e+00
      -1.62326794e+01 1.33357620e+01 1.73151302e+01</_>
    <_>
      7.13791013e-01 1.94122899e+00 4.37904501e+00 5.42403984e+00
      1.03614779e+01 6.43484306e+00 1.07341423e+01</_>
    <_>
      7.38170028e-01 2.13385701e+00 3.97163105e+00 5.24865294e+00
      -1.02139339e+01 -6.62659407e+00 -9.90585899e+00</_>
    <_>
      7.95238018e-01 4.36830521e+00 4.33839703e+00 7.23736715e+00
      -1.32617397e+01 -9.50822926e+00 -1.31143379e+01</_>
    <_>
      7.97131002e-01 4.55422783e+00 5.73787689e+00 8.93964291e+00
      -1.73287315e+01 -1.26672840e+01 1.62801323e+01</_>
    <_>
      7.95291007e-01 4.28782082e+00 4.93352509e+00 7.06547308e+00
      1.36179667e+01 1.00449629e+01 -1.30826874e+01</_>
    <_>
      7.96981990e-01 4.95917702e+00 5.51550293e+00 1.09293308e+01
      -1.95056973e+01 1.34449940e+01 1.91991024e+01</_>
    <_>
      7.89667010e-01 3.06501293e+00 5.17921782e+00 7.32179117e+00
      1.46734428e+01 9.40089321e+00 1.35736618e+01</_>
    <_>
      5.75048029e-01 1.40160799e+00 5.12558985e+00 5.38491106e+00
      1.06419516e+01 6.10106421e+00 -1.16829958e+01</_>
    <_>
      7.89250016e-01 3.07100511e+00 4.77921391e+00 7.26407290e+00
      1.34689150e+01 9.01270676e+00 -1.34078302e+01</_>
    <_>
      7.89914012e-01 3.05672908e+00 5.88521910e+00 7.84781790e+00
      1.56315203e+01 -1.01071081e+01 -1.47175388e+01</_>
    <_>
      7.90274978e-01 3.07879210e+00 5.83390903e+00 7.95501614e+00
      1.51992950e+01 9.76315117e+00 -1.48978510e+01</_>
    <_>
      7.89310992e-01 3.32215405e+00 3.95929193e+00 5.86770296e+00
      1.08171701e+01 7.62067890e+00 -1.11893435e+01</_>
    <_>
      6.50560021e-01 1.63431501e+00 5.65562010e+00 6.35950804e+00
      1.30157909e+01 9.33051586e+00 -1.23783064e+01</_>
    <_>
      7.95862019e-01 3.72026896e+00 5.64993095e+00 8.77111912e+00
      1.63162022e+01 1.14716501e+01 -1.60339966e+01</_>
    <_>
      7.92793989e-01 3.29906607e+00 5.24612522e+00 7.89166403e+00
      1.45027065e+01 9.58799362e+00 -1.48372793e+01</_>
    <_>
      7.96342015e-01 3.94477105e+00 5.34047890e+00 8.63344955e+00
      1.61169147e+01 -1.18592396e+01 -1.56436863e+01</_>
    <_>
      7.93685019e-01 3.56691599e+00 4.37481499e+00 6.85041285e+00
      1.26783552e+01 9.62310600e+00 1.25636930e+01</_>
    <_>
      7.97149003e-01 5.05930901e+00 5.03288603e+00 9.70038223e+00
      1.72538223e+01 1.27547579e+01 -1.71864452e+01</_>
    <_>
      7.95051992e-01 3.61961293e+00 5.03140020e+00 7.82740021e+00
      1.55781832e+01 1.01723480e+01 -1.42572947e+01</_>
    <_>
      5.39308012e-01 1.31751704e+00 4.57654476e+00 5.00340509e+00
      9.93745327e+00 5.85696793e+00 9.95053387e+00</_>
    <_>
      7.96447992e-01 4.31875277e+00 5.90962601e+00 8.20185471e+00
      1.52596931e+01 1.16235800e+01 -1.62661724e+01</_>
    <_>
      7.83540010e-01 2.84869099e+00 6.19651508e+00 6.97574520e+00
      1.45719891e+01 8.42019463e+00 1.35639582e+01</_>
    <_>
      7.97421992e-01 5.51573706e+00 6.10603523e+00 9.16998196e+00
      -1.70102348e+01 1.19322529e+01 -1.69167595e+01</_>
    <_>
      7.96916008e-01 4.51620007e+00 5.11591816e+00 8.09393215e+00
      1.52776136e+01 -1.19374542e+01 -1.47145166e+01</_>
    <_>
      7.96878994e-01 4.48457909e+00 5.94896412e+00 8.02325726e+00
      1.51542759e+01 1.02994394e+01 1.51656380e+01</_>
    <_>
      7.93496013e-01 3.34561992e+00 5.66084003e+00 7.82080603e+00
      1.60541534e+01 9.93222523e+00 1.45618544e+01</_>
    <_>
      4.24255997e-01 1.01603198e+00 2.93312407e+00 3.30927396e+00
      6.47221518e+00 3.93699288e+00 -6.80910206e+00</_>
    <_>
      7.97275007e-01 4.54210997e+00 5.88216591e+00 9.01886940e+00
      1.74766064e+01 1.12992086e+01 -1.64714966e+01</_>
    <_>
      7.97574997e-01 5.66239500e+00 5.93416882e+00 9.95470810e+00
      -1.83959656e+01 -1.28011093e+01 -1.79223824e+01</_>
    <_>
      7.96263993e-01 4.09254694e+00 5.30178595e+00 9.99977398e+00
      1.82445698e+01 1.21537962e+01 -1.76651154e+01</_>
    <_>
      7.97245026e-01 5.11669302e+00 5.69574404e+00 8.41405678e+00
      -1.60132179e+01 -1.12615051e+01 -1.54874306e+01</_>
    <_>
      7.97554016e-01 5.10492516e+00 2.45678692e+01 2.49845104e+01
      4.99010277e+01 2.75394306e+01 4.99219017e+01</_>
    <_>
      5.04311025e-01 1.24717295e+00 5.34996986e+00 6.28298187e+00
      1.25507088e+01 7.07113981e+00 -1.21284971e+01</_>
    <_>
      7.96064019e-01 3.85336089e+00 6.04933786e+00 1.07118416e+01
      1.92145615e+01 1.26965256e+01 -1.92756119e+01</_>
    <_>
      5.23539007e-01 1.31338203e+00 4.22890902e+00 4.12087679e+00
      8.29852390e+00 4.87693882e+00 -9.24558640e+00</_>
    <_>
      7.94879019e-01 3.64464808e+00 5.40016079e+00 8.70302963e+00
      -1.57558928e+01 -1.05255814e+01 1.68721848e+01</_>
    <_>
      5.67451000e-01 1.36758804e+00 3.85188198e+00 4.68113279e+00
      -9.84794903e+00 -5.98197222e+00 -8.95110416e+00</_>
    <_>
      6.49909973e-01 1.64898598e+00 4.30493116e+00 5.14473820e+00
      1.06476192e+01 -7.56248093e+00 -9.87569237e+00</_>
    <_>
      7.84475029e-01 2.87537789e+00 4.97898388e+00 6.71032476e+00
      1.36273451e+01 8.96037102e+00 -1.25565424e+01</_>
    <_>
      7.94520020e-01 3.58207107e+00 5.39062119e+00 9.27796555e+00
      -1.73027401e+01 -1.10952520e+01 1.66214867e+01</_>
    <_>
      7.90804029e-01 3.17010593e+00 4.42643595e+00 6.55002308e+00
      -1.31110945e+01 -9.04870987e+00 1.20398111e+01</_>
    <_>
      7.96441972e-01 3.89439392e+00 7.23785400e+00 1.07480087e+01
      1.98357372e+01 1.26959801e+01 -1.99666004e+01</_>
    <_>
      7.95011997e-01 3.64455891e+00 5.00034809e+00 8.28139877e+00
      1.52072449e+01 1.03045416e+01 -1.49903698e+01</_>
    <_>
      4.65561986e-01 1.09209001e+00 3.32026291e+00 3.52083993e+00
      6.94155312e+00 4.06766605e+00 8.50495052e+00</_>
    <_>
      3.93893003e-01 9.16190982e-01 2.66106510e+00 2.99542999e+00
      5.85075092e+00 3.55532193e+00 -6.28917503e+00</_>
    <_>
      7.89287984e-01 3.23171091e+00 4.18731689e+00 6.08832216e+00
      1.18444929e+01 7.95102882e+00 -1.12391119e+01</_>
    <_>
      7.96756029e-01 2.52383575e+01 2.20129395e+01 2.29154549e+01
      4.59395103e+01 -3.55461655e+01 -4.53967934e+01</_>
    <_>
      7.91104972e-01 3.15082693e+00 4.71683979e+00 6.98473120e+00
      1.34451694e+01 9.13952255e+00 1.28490343e+01</_>
    <_>
      7.91674018e-01 3.16378403e+00 6.64851189e+00 8.29579258e+00
      -1.57827730e+01 -9.87775517e+00 -1.63581619e+01</_>
    <_>
      7.96221972e-01 4.70937300e+00 5.16385317e+00 7.71575594e+00
      -1.41984539e+01 1.12973671e+01 1.45288382e+01</_>
    <_>
      7.94829011e-01 3.59435892e+00 5.47034693e+00 8.48420143e+00
      -1.54632292e+01 -1.03372993e+01 1.65086117e+01</_>
    <_>
      7.96654999e-01 4.02583122e+00 6.79955196e+00 9.44254875e+00
      1.75636292e+01 -1.16008902e+01 -1.94838295e+01</_>
    <_>
      7.31976986e-01 2.06725097e+00 4.74066401e+00 5.96770191e+00
      -1.13486977e+01 -7.02447081e+00 -1.17893600e+01</_>
    <_>
      6.94528997e-01 1.84232605e+00 5.08548880e+00 6.19520521e+00
      -1.23742094e+01 -7.37593889e+00 1.18545322e+01</_>
    <_>
      7.96347022e-01 4.17164612e+00 5.36890984e+00 9.72744370e+00
      1.73416271e+01 -1.18746986e+01 -1.75663719e+01</_>
    <_>
      7.73640990e-01 2.56636405e+00 4.23646021e+00 5.84780884e+00
      -1.20738478e+01 -8.09631062e+00 -1.08908768e+01</_>
    <_>
      7.92558014e-01 3.27049494e+00 5.82583809e+00 8.28732109e+00
      -1.53484411e+01 -9.95641708e+00 1.61859741e+01</_>
    <_>
      7.92953014e-01 3.27812600e+00 6.02306795e+00 8.26129055e+00
      1.54038391e+01 9.90538120e+00 1.67888718e+01</_>
    <_>
      7.96957016e-01 4.59981489e+00 6.40323782e+00 8.65201569e+00
      1.61831589e+01 -1.09542284e+01 -1.70768337e+01</_>
    <_>
      6.30729020e-01 1.59022903e+00 3.91948199e+00 4.79534292e+00
      9.69394493e+00 8.32785320e+00 9.17150593e+00</_>
    <_>
      4.75203007e-01 1.16304505e+00 4.93355513e+00 5.77967215e+00
      -1.13958874e+01 -6.37489700e+00 1.12145290e+01</_>
    <_>
      7.94825971e-01 3.56330705e+00 6.52506399e+00 8.84139061e+00
      1.70320282e+01 -1.07085819e+01 -1.65466900e+01</_>
    <_>
      5.72363973e-01 1.40954304e+00 4.61361694e+00 5.51646090e+00
      1.13142443e+01 7.60235882e+00 -1.05890636e+01</_>
    <_>
      7.97012985e-01 4.93215609e+00 5.12044811e+00 8.17381096e+00
      1.49568081e+01 -1.07013578e+01 1.49871616e+01</_>
    <_>
      5.39128006e-01 1.33048499e+00 3.83478808e+00 4.41421509e+00
      8.86071110e+00 6.42305899e+00 -8.59462643e+00</_>
    <_>
      5.77467978e-01 1.41339898e+00 3.13337302e+00 3.68148208e+00
      7.08891821e+00 4.38855600e+00 9.31191540e+00</_>
    <_>
      7.92726994e-01 3.45238090e+00 4.86616802e+00 7.83945084e+00
      1.42277365e+01 -1.00856705e+01 -1.46031666e+01</_>
    <_>
      7.96719015e-01 5.02178907e+00 5.35969782e+00 8.29398346e+00
      -1.52600927e+01 1.08504419e+01 1.52831993e+01</_>
    <_>
      7.96711028e-01 4.19059992e+00 7.30894899e+00 8.84243298e+00
      1.69533043e+01 -1.09399853e+01 -1.73307037e+01</_>
    <_>
      7.91835010e-01 3.18573594e+00 5.95315695e+00 8.69963169e+00
      -1.60290432e+01 -1.03000526e+01 -1.69561768e+01</_>
    <_>
      7.94592023e-01 4.01156712e+00 4.53350592e+00 6.56735992e+00
      1.21186676e+01 8.61941433e+00 1.33154869e+01</_>
    <_>
      7.96504974e-01 4.09449720e+00 6.53767490e+00 9.53159332e+00
      -1.75663261e+01 -1.16420212e+01 1.92358112e+01</_>
    <_>
      7.94224024e-01 3.98661804e+00 4.32034683e+00 6.65600920e+00
      -1.21441984e+01 -8.65378094e+00 -1.42976942e+01</_>
    <_>
      7.96842992e-01 4.96939087e+00 6.81916904e+00 8.19231987e+00
      1.58339939e+01 -1.06851921e+01 1.58642149e+01</_>
    <_>
      7.92975008e-01 3.40670800e+00 5.07047176e+00 8.40685844e+00
      1.63870239e+01 1.02634754e+01 1.51462383e+01</_>
    <_>
      5.91750979e-01 1.47274804e+00 4.53540802e+00 5.06568003e+00
      9.86639881e+00 5.80243301e+00 -1.14131050e+01</_>
    <_>
      7.90947974e-01 3.54592395e+00 4.18002701e+00 6.31159115e+00
      -1.15635653e+01 -8.25330257e+00 1.23338766e+01</_>
    <_>
      7.96766996e-01 4.50833702e+00 5.70368910e+00 1.04501066e+01
      1.85511894e+01 1.28098288e+01 -1.90155964e+01</_>
    <_>
      7.67609000e-01 2.46187901e+00 4.18620205e+00 5.42644978e+00
      1.02448540e+01 6.67320490e+00 -1.08661613e+01</_>
    <_>
      7.90564001e-01 3.10918999e+00 4.85948992e+00 6.95691919e+00
      1.28651304e+01 8.51333618e+00 -1.51227055e+01</_>
    <_>
      7.79202998e-01 2.72405100e+00 4.20625687e+00 6.26354980e+00
      -1.20524302e+01 -8.04347515e+00 1.15160856e+01</_>
    <_>
      7.93307006e-01 3.35624099e+00 5.41762590e+00 8.21046734e+00
      -1.50514660e+01 -9.93079472e+00 -1.54909239e+01</_>
    <_>
      7.94580996e-01 3.51203895e+00 6.53656006e+00 8.25759602e+00
      -1.59066153e+01 -1.01917372e+01 1.57363253e+01</_>
    <_>
      6.14560008e-01 1.56661904e+00 3.47180009e+00 4.35016108e+00
      -8.39545155e+00 -5.25009584e+00 -8.42916775e+00</_>
    <_>
      7.97433019e-01 5.11848021e+00 5.65247107e+00 9.03380299e+00
      1.73403435e+01 1.21970682e+01 1.63795261e+01</_>
    <_>
      7.90117979e-01 3.11784291e+00 5.10104084e+00 6.83571291e+00
      1.28263178e+01 8.56379986e+00 -1.33100290e+01</_>
    <_>
      7.96437025e-01 4.21273088e+00 6.27393818e+00 8.46179295e+00
      -1.65086422e+01 1.09782228e+01 1.58393974e+01</_>
    <_>
      7.92223990e-01 3.24731302e+00 5.37286377e+00 7.69798183e+00
      -1.74708099e+01 -1.00264282e+01 -1.42334051e+01</_>
    <_>
      7.90516973e-01 3.55896807e+00 3.86853504e+00 5.97243214e+00
      1.13328810e+01 8.48904991e+00 1.09236183e+01</_>
    <_>
      7.95737982e-01 4.32969999e+00 4.43002605e+00 8.35312176e+00
      1.47958755e+01 1.09883957e+01 1.50836124e+01</_>
    <_>
      7.97016978e-01 4.34962511e+00 5.97868299e+00 9.36797047e+00
      1.70563564e+01 -1.15443010e+01 -1.76282597e+01</_>
    <_>
      7.93910027e-01 3.44396305e+00 5.44075203e+00 7.74438000e+00
      -1.53077850e+01 9.81564140e+00 1.43394442e+01</_>
    <_>
      5.33761978e-01 1.31262004e+00 2.27262306e+00 2.65289092e+00
      5.11565495e+00 3.31074691e+00 7.34660816e+00</_>
    <_>
      7.93900013e-01 3.67945600e+00 4.35325384e+00 6.59249401e+00
      1.33512802e+01 -9.29022694e+00 -1.20659513e+01</_>
    <_>
      7.80748010e-01 2.70823693e+00 4.58782816e+00 6.21480608e+00
      1.16419792e+01 7.59526110e+00 1.20910196e+01</_>
    <_>
      5.03796995e-01 1.22248602e+00 4.60748100e+00 5.50937510e+00
      -1.06001244e+01 -6.23701191e+00 -1.09973936e+01</_>
    <_>
      7.97200024e-01 4.85459423e+00 5.91495895e+00 9.17158413e+00
      1.74545784e+01 1.16177864e+01 -1.67221756e+01</_>
    <_>
      5.37876010e-01 1.26214099e+00 5.11046696e+00 5.99123621e+00
      -1.21125593e+01 -6.92516708e+00 -1.15583811e+01</_>
    <_>
      7.94075012e-01 3.44127393e+00 5.92234182e+00 9.10773754e+00
      1.71783886e+01 1.10722637e+01 -1.66402721e+01</_>
    <_>
      7.87182987e-01 2.91749096e+00 5.40981579e+00 7.47205114e+00
      1.45184412e+01 1.17632627e+01 1.39267740e+01</_>
    <_>
      7.97123015e-01 4.83575296e+00 5.08368587e+00 8.73987198e+00
      1.66475334e+01 -1.16497679e+01 1.56538763e+01</_>
    <_>
      6.36152983e-01 1.60046697e+00 3.91831207e+00 4.72313499e+00
      9.81706810e+00 7.00029707e+00 9.05011845e+00</_>
    <_>
      7.80745029e-01 2.83775401e+00 4.01877689e+00 5.56694078e+00
      -1.10642595e+01 -7.60537195e+00 1.03684378e+01</_>
    <_>
      7.95633972e-01 3.86547899e+00 5.15882683e+00 7.49338579e+00
      1.56116238e+01 -1.03090611e+01 1.38195486e+01</_>
    <_>
      5.95620990e-01 1.90743196e+00 2.20311093e+00 3.53782201e+00
      -6.46334696e+00 -4.49225903e+00 6.73320007e+00</_>
    <_>
      7.92793989e-01 3.62272906e+00 4.16553116e+00 7.17289782e+00
      -1.36993227e+01 9.24630928e+00 1.28463440e+01</_>
    <_>
      7.96863019e-01 5.73921919e+00 5.19512987e+00 8.24139595e+00
      -1.65909443e+01 1.11632462e+01 -1.49597778e+01</_>
    <_>
      7.96962976e-01 5.26984501e+00 4.67819881e+00 9.52017879e+00
      1.66370506e+01 -1.26092510e+01 1.71727715e+01</_>
    <_>
      7.96115994e-01 3.83399892e+00 7.94269085e+00 9.36505032e+00
      -1.80244770e+01 1.17113581e+01 -1.88176346e+01</_>
    <_>
      7.96795011e-01 4.47723389e+00 6.39829493e+00 8.42177391e+00
      -1.61944275e+01 -1.06648283e+01 -1.58771000e+01</_>
    <_>
      7.97250986e-01 4.94589996e+00 5.75776100e+00 8.33740139e+00
      1.58211050e+01 1.10799370e+01 1.54162731e+01</_>
    <_>
      7.96172023e-01 4.17374420e+00 4.73088408e+00 7.76451015e+00
      -1.40122061e+01 -9.93055058e+00 -1.79523544e+01</_>
    <_>
      7.86283016e-01 2.87721705e+00 5.43219280e+00 7.38884783e+00
      -1.38365450e+01 -8.83478260e+00 1.42009354e+01</_>
    <_>
      7.87688971e-01 2.97723699e+00 5.27028418e+00 7.26064682e+00
      -1.49063215e+01 -9.64006710e+00 1.35264902e+01</_>
    <_>
      7.95717001e-01 3.81835508e+00 5.65682077e+00 7.83700800e+00
      -1.66352024e+01 1.03787279e+01 -1.45839396e+01</_>
    <_>
      5.22669971e-01 1.27520394e+00 4.43410301e+00 5.36956978e+00
      -1.04140310e+01 -6.02397108e+00 1.04301100e+01</_>
    <_>
      4.93660986e-01 1.15505898e+00 3.04873610e+00 3.44862199e+00
      6.69854403e+00 4.03009796e+00 -7.81896400e+00</_>
    <_>
      7.83438027e-01 3.02544999e+00 3.94580293e+00 5.54268694e+00
      1.07414751e+01 7.58878708e+00 1.03155031e+01</_>
    <_>
      7.96370029e-01 4.29892921e+00 4.84161615e+00 7.95598078e+00
      1.43553352e+01 1.01097078e+01 -1.56510048e+01</_>
    <_>
      7.77611971e-01 2.63447595e+00 5.10714197e+00 6.81380320e+00
      -1.27827492e+01 -8.14986610e+00 1.34828491e+01</_>
    <_>
      6.19472027e-01 1.54123998e+00 4.46771479e+00 5.39082003e+00
      1.11121731e+01 6.70483112e+00 -1.03258200e+01</_>
    <_>
      5.53964972e-01 2.67458510e+00 1.90867603e+00 3.35845304e+00
      6.50994778e+00 4.70916080e+00 -6.01299191e+00</_>
    <_>
      4.52062011e-01 1.06141698e+00 3.38829088e+00 4.10108805e+00
      7.87292624e+00 4.66544104e+00 8.31072140e+00</_>
    <_>
      7.96609998e-01 4.36863899e+00 4.91815186e+00 7.97551107e+00
      -1.53290567e+01 1.14340286e+01 1.44257059e+01</_>
    <_>
      5.01986980e-01 1.23724699e+00 3.20457792e+00 4.11407280e+00
      -8.05881119e+00 -4.86314392e+00 -7.84133387e+00</_>
    <_>
      6.48467004e-01 1.62853098e+00 4.23779583e+00 5.15447807e+00
      -1.15972500e+01 -6.79672384e+00 -9.85068512e+00</_>
    <_>
      7.96980977e-01 4.23139000e+00 5.66917896e+00 9.68626595e+00
      1.84379349e+01 1.46875772e+01 -1.73655396e+01</_>
    <_>
      6.02594972e-01 1.47601497e+00 5.28897619e+00 6.19733906e+00
      -1.19760094e+01 -6.94515324e+00 1.23511953e+01</_>
    <_>
      7.97137976e-01 5.39268923e+00 5.48323679e+00 8.43772316e+00
      1.58428259e+01 1.12529440e+01 -1.54282064e+01</_>
    <_>
      7.96989977e-01 6.46351099e+00 5.40551376e+00 8.69311142e+00
      -1.63951969e+01 1.19662361e+01 -1.57534437e+01</_>
    <_>
      5.29546976e-01 1.26672602e+00 3.52600908e+00 4.39984512e+00
      -8.38182545e+00 -5.05225086e+00 -8.90063286e+00</_>
    <_>
      7.97080994e-01 4.91529417e+00 6.40543509e+00 8.94225121e+00
      -1.66660538e+01 1.13999624e+01 -1.69596653e+01</_>
    <_>
      4.07918006e-01 9.49971974e-01 3.82551193e+00 4.59095907e+00
      9.45337105e+00 6.12218189e+00 -8.81014061e+00</_>
    <_>
      7.92284012e-01 5.05459499e+00 3.98972988e+00 6.35154676e+00
      1.15800858e+01 -8.88297558e+00 -1.18375330e+01</_>
    <_>
      7.86149979e-01 2.92765999e+00 4.43324995e+00 6.38996983e+00
      1.31059437e+01 -8.63387966e+00 1.18021154e+01</_>
    <_>
      7.93837011e-01 3.65661812e+00 6.56349611e+00 7.45603704e+00
      1.46122131e+01 1.01912956e+01 -1.46205025e+01</_>
    <_>
      3.94100994e-01 9.71458972e-01 2.03322411e+00 2.95903397e+00
      -5.66364193e+00 -3.56180310e+00 -5.55997276e+00</_>
    <_>
      7.88969994e-01 3.51817894e+00 3.90378594e+00 5.86263800e+00
      -1.08422823e+01 -7.83033895e+00 -1.09685497e+01</_>
    <_>
      6.23166025e-01 1.56796300e+00 4.20077085e+00 5.02690887e+00
      -1.07376184e+01 -6.93828106e+00 9.64214325e+00</_>
    <_>
      7.90692985e-01 3.13095307e+00 4.78798008e+00 6.82987881e+00
      -1.26394224e+01 -8.39578247e+00 1.39137325e+01</_>
    <_>
      4.04882997e-01 9.49366987e-01 3.24650598e+00 3.75028491e+00
      7.35406399e+00 4.47695112e+00 -7.45623684e+00</_>
    <_>
      5.36585987e-01 1.32624102e+00 3.66774988e+00 4.33765507e+00
      9.10753441e+00 6.20827293e+00 -8.34679699e+00</_>
    <_>
      7.95858026e-01 3.70317698e+00 6.59984779e+00 9.16039371e+00
      1.70437317e+01 1.10124521e+01 -1.79568691e+01</_>
    <_>
      7.97595024e-01 6.14934921e+00 5.97238493e+00 1.01661930e+01
      -1.82451649e+01 1.32466974e+01 -1.89156933e+01</_>
    <_>
      7.94798970e-01 3.78077602e+00 4.41603899e+00 7.38270617e+00
      -1.50254307e+01 -1.03389463e+01 -1.32821493e+01</_>
    <_>
      7.88434982e-01 2.97410107e+00 6.10070419e+00 7.98754692e+00
      1.54537239e+01 9.90160275e+00 1.50652294e+01</_>
    <_>
      7.96904027e-01 6.84757280e+00 5.08211613e+00 8.81943989e+00
      -1.58913994e+01 1.24265432e+01 -1.59546595e+01</_>
    <_>
      4.46521997e-01 1.18311298e+00 2.05085802e+00 3.08727193e+00
      6.42437410e+00 -4.03175783e+00 -5.66274977e+00</_>
    <_>
      7.93102980e-01 3.30465007e+00 6.12890100e+00 8.12000370e+00
      1.55974350e+01 -1.11914110e+01 1.52920456e+01</_>
    <_>
      7.84429014e-01 2.83782506e+00 4.97194481e+00 6.81451893e+00
      -1.27077513e+01 -8.23343086e+00 1.94069538e+01</_>
    <_>
      7.96913981e-01 4.54484510e+00 5.30181503e+00 8.55545712e+00
      1.70902443e+01 -1.26917982e+01 1.54842272e+01</_>
    <_>
      7.64818013e-01 2.48418093e+00 3.91647696e+00 5.32479477e+00
      -9.98645878e+00 -6.62996101e+00 1.03274622e+01</_>
    <_>
      5.01303017e-01 1.16268003e+00 4.58003521e+00 5.55132723e+00
      1.09320803e+01 6.93496084e+00 1.06749907e+01</_>
    <_>
      7.97168016e-01 5.02362585e+00 5.08195496e+00 8.89979267e+00
      1.67702560e+01 -1.14551983e+01 -1.58944817e+01</_>
    <_>
      4.80437011e-01 1.15537095e+00 4.82602692e+00 5.87523508e+00
      1.12793360e+01 7.31291485e+00 -1.15563707e+01</_>
    <_>
      7.95049012e-01 5.12485409e+00 4.36794901e+00 6.80463505e+00
      1.25073919e+01 -9.64127827e+00 1.25818434e+01</_>
    <_>
      7.94292986e-01 3.59428406e+00 5.88623524e+00 7.96412897e+00
      -1.49374008e+01 9.79784203e+00 1.52402630e+01</_>
    <_>
      4.44310993e-01 1.28920698e+00 1.90627897e+00 2.73463988e+00
      5.23968220e+00 -5.63716698e+00 -5.17617321e+00</_>
    <_>
      5.29623985e-01 1.54954302e+00 2.16593194e+00 3.33685303e+00
      -6.09056807e+00 -4.12564802e+00 -7.07487297e+00</_>
    <_>
      7.96985984e-01 4.30088711e+00 6.54527807e+00 1.00498056e+01
      -1.85896931e+01 -1.26458454e+01 1.84335251e+01</_>
    <_>
      5.61460972e-01 1.49772704e+00 2.49124408e+00 3.45332289e+00
      6.53246593e+00 4.37286806e+00 -6.63081789e+00</_>
    <_>
      7.95641005e-01 4.22076321e+00 4.94305277e+00 8.20332623e+00
      1.55877657e+01 1.03323393e+01 -1.47817583e+01</_>
    <_>
      7.96971977e-01 4.50035381e+00 4.98925877e+00 8.37732124e+00
      -1.53077059e+01 -1.22434654e+01 -1.51445122e+01</_>
    <_>
      5.77953994e-01 1.44292498e+00 3.20565104e+00 4.09686708e+00
      8.13726711e+00 5.31753492e+00 -7.78770399e+00</_>
    <_>
      7.78994024e-01 2.68261790e+00 5.12339497e+00 6.53105688e+00
      1.32169952e+01 9.15566921e+00 -1.23624859e+01</_>
    <_>
      4.47834998e-01 1.07718599e+00 3.52431202e+00 3.99709201e+00
      7.77896690e+00 4.56720781e+00 -8.27379131e+00</_>
    <_>
      7.80964017e-01 2.70743299e+00 5.24909496e+00 7.14050102e+00
      -1.34457893e+01 -8.59764481e+00 -1.35349216e+01</_>
    <_>
      7.74698973e-01 2.57627106e+00 4.74960518e+00 6.49757481e+00
      -1.23052998e+01 -7.96781015e+00 -1.22425728e+01</_>
    <_>
      4.24769998e-01 9.73383009e-01 2.66850209e+00 3.03359509e+00
      5.90502024e+00 3.69049406e+00 6.40856123e+00</_>
    <_>
      7.97037005e-01 4.53574181e+00 5.56963301e+00 9.23110008e+00
      1.66346073e+01 -1.24530354e+01 1.75528755e+01</_>
    <_>
      6.45057023e-01 1.62170804e+00 3.95562100e+00 4.95118809e+00
      -9.43575573e+00 -5.77477217e+00 -9.84154129e+00</_>
    <_>
      7.95367002e-01 3.63624597e+00 5.16080713e+00 7.66794300e+00
      -1.58818922e+01 -9.95201111e+00 1.40823727e+01</_>
    <_>
      5.95767021e-01 1.47264600e+00 4.59118223e+00 5.62880707e+00
      1.07394438e+01 6.36815786e+00 -1.20038042e+01</_>
    <_>
      7.97463000e-01 5.88670921e+00 6.11851883e+00 8.73444176e+00
      1.62470913e+01 1.21341639e+01 -1.64032860e+01</_>
    <_>
      7.95850992e-01 4.57720995e+00 4.91627312e+00 7.28455400e+00
      1.36780519e+01 -1.07021065e+01 1.34501524e+01</_>
    <_>
      5.08166015e-01 1.23873198e+00 5.25296402e+00 5.59141493e+00
      1.10199060e+01 6.21174479e+00 -1.17853851e+01</_>
    <_>
      7.94207990e-01 3.57658291e+00 4.48378706e+00 6.75950003e+00
      1.24074783e+01 8.58899403e+00 -1.28522987e+01</_>
    <_>
      7.95170009e-01 3.67173505e+00 4.97606897e+00 7.58791208e+00
      1.49520979e+01 -1.12843113e+01 -1.38713951e+01</_>
    <_>
      7.76190996e-01 2.59895110e+00 5.70238209e+00 7.16605282e+00
      1.37372847e+01 9.01887321e+00 -1.37651815e+01</_>
    <_>
      7.97025979e-01 4.58897781e+00 5.10387993e+00 9.86201477e+00
      -1.74367332e+01 -1.21565475e+01 -1.75762558e+01</_>
    <_>
      7.97013998e-01 4.85164022e+00 5.42527914e+00 8.36397076e+00
      1.55841084e+01 -1.09765167e+01 1.53134823e+01</_>
    <_>
      7.91943014e-01 3.31231499e+00 4.55458403e+00 6.68228912e+00
      1.23010378e+01 8.37037373e+00 1.37216043e+01</_>
    <_>
      5.52627027e-01 1.35666800e+00 4.85965014e+00 5.37205315e+00
      1.08948374e+01 6.44662380e+00 -1.05240927e+01</_>
    <_>
      7.92441010e-01 3.26843190e+00 4.96146488e+00 7.12696123e+00
      1.49687862e+01 -9.67477322e+00 1.31712303e+01</_>
    <_>
      7.96783984e-01 5.61635494e+00 4.81303501e+00 7.91359806e+00
      -1.56981850e+01 1.14406586e+01 1.42772274e+01</_>
    <_>
      7.93222010e-01 3.73025703e+00 4.18910503e+00 6.40147018e+00
      1.24997826e+01 8.52617073e+00 1.17022038e+01</_>
    <_>
      7.97170997e-01 4.97964382e+00 5.89210796e+00 8.74600315e+00
      1.60652294e+01 -1.13345881e+01 1.76183681e+01</_>
    <_>
      7.96711981e-01 4.32355499e+00 5.25254107e+00 8.07262802e+00
      1.47353888e+01 1.02629099e+01 -1.62812653e+01</_>
    <_>
      7.81786978e-01 3.00648403e+00 3.91224694e+00 5.22303581e+00
      9.80334473e+00 6.73262119e+00 -1.04140100e+01</_>
    <_>
      7.51160979e-01 2.39164305e+00 3.23429894e+00 4.63402891e+00
      -8.68728542e+00 -5.92856312e+00 -8.75546074e+00</_>
    <_>
      7.95670986e-01 3.93720889e+00 4.54836416e+00 7.32794189e+00
      -1.38602753e+01 1.00226669e+01 1.32806444e+01</_>
    <_>
      7.96909988e-01 4.60758114e+00 6.42419386e+00 8.63358116e+00
      -1.66884785e+01 -1.10679169e+01 1.61826401e+01</_>
    <_>
      6.36641979e-01 1.60990095e+00 4.10533905e+00 5.08864880e+00
      -1.05936909e+01 -7.00871992e+00 -9.68898392e+00</_>
    <_>
      7.96823978e-01 4.35997391e+00 5.18144894e+00 8.36316872e+00
      1.59865923e+01 1.18968439e+01 -1.51398315e+01</_>
    <_>
      7.89261997e-01 3.02391696e+00 5.75230122e+00 8.27559090e+00
      1.53461781e+01 9.87509537e+00 1.56090546e+01</_>
    <_>
      5.26027977e-01 1.25329196e+00 2.55504990e+00 3.56788898e+00
      -6.75196409e+00 -4.26539707e+00 6.81190681e+00</_>
    <_>
      4.65663999e-01 1.08124804e+00 2.93967605e+00 3.84026098e+00
      -7.46956015e+00 -4.58500719e+00 7.31789017e+00</_>
    <_>
      4.97792006e-01 1.18914402e+00 3.54023790e+00 4.19293594e+00
      8.39682293e+00 5.40349913e+00 8.11113358e+00</_>
    <_>
      7.96636999e-01 4.18760395e+00 6.57030296e+00 8.77922058e+00
      -1.66575394e+01 -1.25079937e+01 1.65619030e+01</_>
    <_>
      7.95000970e-01 3.57765102e+00 6.54297400e+00 9.57858467e+00
      -1.77252045e+01 -1.13955154e+01 -1.78824043e+01</_>
    <_>
      7.96248019e-01 3.94069791e+00 4.92920113e+00 8.17822075e+00
      -1.47322378e+01 -1.02251740e+01 -1.61576977e+01</_>
    <_>
      7.89438009e-01 3.02574110e+00 5.28211212e+00 7.33234882e+00
      1.43126707e+01 9.46904755e+00 -1.36495934e+01</_>
    <_>
      7.96871006e-01 4.18384695e+00 6.19902515e+00 9.14227772e+00
      -1.77732983e+01 -1.27361727e+01 -1.68155518e+01</_>
    <_>
      7.92976022e-01 3.30760098e+00 5.28104210e+00 7.91688395e+00
      -1.59929743e+01 1.07506008e+01 1.45160875e+01</_>
    <_>
      7.96815991e-01 4.34193420e+00 6.31976080e+00 8.51209831e+00
      1.71026363e+01 -1.17205763e+01 1.59290018e+01</_>
    <_>
      7.96688974e-01 4.99453878e+00 4.84103298e+00 8.95869732e+00
      1.63279305e+01 -1.14617224e+01 -1.58851271e+01</_>
    <_>
      7.96302021e-01 3.99777389e+00 5.45607281e+00 9.27272987e+00
      1.66382732e+01 -1.13053303e+01 1.77773628e+01</_>
    <_>
      7.95507014e-01 3.62470198e+00 5.76531887e+00 9.54242706e+00
      1.73183994e+01 1.14583197e+01 -1.73795147e+01</_>
    <_>
      7.94507980e-01 3.51702189e+00 5.76962996e+00 8.26002884e+00
      -1.53053656e+01 -1.11088467e+01 -1.57161083e+01</_>
    <_>
      7.96586990e-01 4.18218994e+00 5.09869909e+00 9.33278561e+00
      1.66477489e+01 -1.15759144e+01 1.67663326e+01</_>
    <_>
      7.95349002e-01 3.61073899e+00 5.81650591e+00 8.10445213e+00
      1.50649319e+01 9.91128635e+00 -1.78546619e+01</_>
    <_>
      7.96884000e-01 4.59601307e+00 4.92166996e+00 9.65029144e+00
      -1.70478287e+01 -1.19805079e+01 1.71342945e+01</_>
    <_>
      7.13338017e-01 1.94184196e+00 4.32979298e+00 5.47576714e+00
      -1.05184908e+01 -6.54822588e+00 1.05401716e+01</_>
    <_>
      7.94480979e-01 3.51430893e+00 5.90512419e+00 9.30524063e+00
      1.81594658e+01 1.17543173e+01 1.69111156e+01</_>
    <_>
      7.97200024e-01 5.44654417e+00 5.59832811e+00 8.58357716e+00
      1.58442326e+01 1.13878031e+01 1.58074150e+01</_>
    <_>
      7.03028023e-01 1.89664602e+00 3.86582088e+00 4.83029890e+00
      9.21666145e+00 5.85030794e+00 9.57399178e+00</_>
    <_>
      7.96414971e-01 3.95009208e+00 7.13831377e+00 9.18260765e+00
      1.74555378e+01 1.12441931e+01 1.75397434e+01</_>
    <_>
      4.55186009e-01 1.06382895e+00 3.13808393e+00 3.40412807e+00
      6.67524385e+00 3.93639898e+00 -8.84755421e+00</_>
    <_>
      7.93740988e-01 3.39091897e+00 4.92869616e+00 7.62284517e+00
      1.39033766e+01 9.33458328e+00 -1.47305088e+01</_>
    <_>
      7.96747983e-01 4.23621416e+00 6.08773994e+00 1.03856621e+01
      1.87736969e+01 1.25125980e+01 1.87720623e+01</_>
    <_>
      7.95814991e-01 3.78685093e+00 5.15123892e+00 7.94259119e+00
      1.57314939e+01 1.13468246e+01 -1.44902201e+01</_>
    <_>
      7.80089974e-01 2.71899509e+00 4.49286604e+00 6.15588808e+00
      1.23981895e+01 -9.32619858e+00 1.14834566e+01</_>
    <_>
      7.97053993e-01 4.72562122e+00 5.65090322e+00 1.02146111e+01
      1.82085114e+01 -1.28771858e+01 1.84524231e+01</_>
    <_>
      7.96684027e-01 4.14047194e+00 4.87768078e+00 7.88527012e+00
      1.42667446e+01 9.95550632e+00 2.15640850e+01</_>
    <_>
      7.95427024e-01 3.80635190e+00 4.89494705e+00 7.53169489e+00
      1.39284191e+01 -1.02195644e+01 -1.38669748e+01</_>
    <_>
      7.67364979e-01 2.44608307e+00 4.59173918e+00 5.86158800e+00
      1.10883188e+01 7.08589411e+00 1.28403072e+01</_>
    <_>
      7.97500014e-01 5.39403582e+00 5.31067610e+00 1.06171703e+01
      -1.85812721e+01 1.35378637e+01 -2.01230106e+01</_>
    <_>
      7.97066987e-01 4.34215212e+00 6.69318819e+00 1.03289042e+01
      -1.92370148e+01 1.25002661e+01 -1.88779774e+01</_>
    <_>
      7.95904994e-01 4.28429222e+00 4.62204885e+00 7.50538683e+00
      1.35706129e+01 9.65905857e+00 1.46490431e+01</_>
    <_>
      7.95243979e-01 4.12839508e+00 4.18986988e+00 7.25822401e+00
      1.30220804e+01 9.36458778e+00 -1.33702593e+01</_>
    <_>
      4.40539002e-01 1.06166697e+00 2.64695001e+00 2.97961092e+00
      5.79565096e+00 3.52396393e+00 6.74223614e+00</_>
    <_>
      7.96877027e-01 5.11154509e+00 4.65023613e+00 8.62929726e+00
      -1.53801012e+01 -1.11965942e+01 -1.54678659e+01</_>
    <_>
      7.93973982e-01 3.60905695e+00 4.79696512e+00 7.11529398e+00
      1.35590353e+01 -1.01824799e+01 -1.30957241e+01</_>
    <_>
      5.29884994e-01 1.28354502e+00 3.96422601e+00 4.64597988e+00
      9.98931503e+00 -6.12087297e+00 -8.95291233e+00</_>
    <_>
      7.89075971e-01 3.09277201e+00 4.32994986e+00 6.24988890e+00
      1.19705477e+01 8.35126019e+00 1.15719461e+01</_>
    <_>
      7.91500986e-01 3.18176603e+00 5.95429182e+00 8.01904392e+00
      -1.53364811e+01 1.04435663e+01 -1.50591097e+01</_>
    <_>
      4.44812000e-01 1.05760002e+00 2.65518093e+00 2.90467405e+00
      5.68461609e+00 3.43347406e+00 -7.77833700e+00</_>
    <_>
      7.95913994e-01 3.90246201e+00 6.06377792e+00 7.97274923e+00
      -1.50525141e+01 -9.93104362e+00 -1.52949686e+01</_>
    <_>
      7.96788990e-01 4.04045010e+00 6.32314396e+00 9.43987846e+00
      -1.73219395e+01 1.14635334e+01 -1.86197796e+01</_>
    <_>
      7.93245971e-01 3.44975305e+00 6.03583479e+00 7.40989780e+00
      1.46429853e+01 -9.58849812e+00 1.41545382e+01</_>
    <_>
      6.40691996e-01 1.65280104e+00 3.31753492e+00 4.27699518e+00
      -8.98074436e+00 -5.45014477e+00 8.07762623e+00</_>
    <_>
      6.06532991e-01 1.71704495e+00 2.68599796e+00 3.72762108e+00
      -7.50642395e+00 -4.63006496e+00 -6.95060587e+00</_>
    <_>
      7.95855999e-01 3.96650100e+00 5.91314888e+00 8.75942802e+00
      1.76755219e+01 -1.07506676e+01 -1.60958672e+01</_>
    <_>
      7.95651972e-01 3.84493399e+00 4.68442011e+00 7.83847094e+00
      -1.50437517e+01 -1.16774950e+01 -1.41027470e+01</_>
    <_>
      7.96925008e-01 5.15767384e+00 4.94576216e+00 9.09022713e+00
      -1.61085434e+01 1.21612654e+01 -1.75230942e+01</_>
    <_>
      7.85229027e-01 2.85072207e+00 6.22515202e+00 8.15016174e+00
      -1.59202251e+01 -9.63683224e+00 1.53532104e+01</_>
    <_>
      7.96558976e-01 3.97039509e+00 6.74322796e+00 9.53913784e+00
      -1.84486008e+01 -1.23893557e+01 -1.76867275e+01</_>
    <_>
      7.91543007e-01 3.17515206e+00 5.23763990e+00 7.37516689e+00
      1.36815710e+01 8.96275330e+00 1.64723568e+01</_>
    <_>
      7.96617985e-01 4.14058495e+00 5.45302200e+00 1.02995682e+01
      -1.81794643e+01 -1.32731876e+01 -1.90678253e+01</_>
    <_>
      7.93286026e-01 3.39585805e+00 4.62129211e+00 7.12209082e+00
      1.29937840e+01 8.82203484e+00 1.55105686e+01</_>
    <_>
      7.94803023e-01 3.76098204e+00 4.84158611e+00 9.14047241e+00
      -1.62184620e+01 -1.10267334e+01 -1.63722458e+01</_>
    <_>
      7.19195008e-01 1.97675204e+00 4.05882692e+00 5.05860376e+00
      9.62383556e+00 6.05301285e+00 -1.03819141e+01</_>
    <_>
      7.90848970e-01 3.14665103e+00 5.16073179e+00 7.62484217e+00
      1.56704111e+01 -1.13352222e+01 -1.40177364e+01</_>
    <_>
      7.96855986e-01 4.68851900e+00 4.95195389e+00 9.05295277e+00
      1.65931320e+01 -1.14279099e+01 -1.60744705e+01</_>
    <_>
      5.42720020e-01 1.30696702e+00 3.77699900e+00 4.08480787e+00
      8.01571274e+00 4.73843288e+00 -1.05444241e+01</_>
    <_>
      7.97177970e-01 4.35198879e+00 5.63045597e+00 1.02119389e+01
      1.81374397e+01 -1.25485973e+01 -1.89867573e+01</_>
    <_>
      7.93695986e-01 4.04720116e+00 4.29703808e+00 7.52087212e+00
      -1.40976000e+01 -9.70353508e+00 -1.34400940e+01</_>
    <_>
      7.97690988e-01 5.70327377e+00 6.19818211e+00 9.21698093e+00
      1.69254799e+01 1.20690393e+01 -1.81120739e+01</_>
    <_>
      4.36237991e-01 1.02305496e+00 2.51415205e+00 2.84732008e+00
      5.53519583e+00 3.38468003e+00 6.27313709e+00</_>
    <_>
      6.72120988e-01 1.73361897e+00 4.24562407e+00 5.12514305e+00
      9.89191055e+00 6.09880686e+00 1.00630569e+01</_>
    <_>
      7.97051013e-01 5.30964088e+00 6.04515505e+00 9.67506790e+00
      -1.76957798e+01 1.24889517e+01 -1.76760578e+01</_>
    <_>
      5.66954970e-01 1.34424198e+00 4.71346378e+00 5.60396004e+00
      -1.17344952e+01 -6.82160902e+00 1.07651587e+01</_>
    <_>
      7.95791984e-01 3.68988395e+00 6.36192989e+00 9.45350075e+00
      1.82118397e+01 1.13078737e+01 1.73655815e+01</_>
    <_>
      7.96095014e-01 4.10437584e+00 6.26190376e+00 9.63390160e+00
      -1.80418034e+01 -1.26103697e+01 1.76096191e+01</_>
    <_>
      4.68499988e-01 1.11995399e+00 3.39699411e+00 3.77170992e+00
      7.37914705e+00 4.40453815e+00 -7.85420895e+00</_>
    <_>
      7.94974983e-01 4.37437820e+00 5.18320704e+00 7.31813288e+00
      -1.36204424e+01 -9.65170288e+00 1.39060001e+01</_>
    <_>
      5.31350017e-01 1.27319503e+00 3.73455405e+00 4.66776991e+00
      9.68870068e+00 -5.59743881e+00 -8.87397003e+00</_>
    <_>
      4.43917006e-01 1.06692505e+00 2.77458000e+00 3.13338208e+00
      6.08737183e+00 3.66685700e+00 8.29651070e+00</_>
    <_>
      7.94920981e-01 4.13784409e+00 4.46381187e+00 6.88068008e+00
      -1.29154062e+01 -1.03747768e+01 -1.25982513e+01</_>
    <_>
      7.97163010e-01 5.09021616e+00 5.41939592e+00 9.19624996e+00
      1.68792210e+01 -1.17443514e+01 -1.65465603e+01</_>
    <_>
      7.97102988e-01 4.30201912e+00 5.34865189e+00 8.80900097e+00
      1.69911499e+01 -1.11712875e+01 -1.58891802e+01</_>
    <_>
      7.95307994e-01 3.65987611e+00 4.87444592e+00 7.58204889e+00
      -1.46108847e+01 1.24334993e+01 -1.38158054e+01</_>
    <_>
      7.97304988e-01 5.51431417e+00 5.64501476e+00 8.29745102e+00
      -1.52715149e+01 1.11154318e+01 1.62124767e+01</_>
    <_>
      6.42378986e-01 1.66248906e+00 2.92169499e+00 3.49992204e+00
      6.71074581e+00 4.33204508e+00 -8.77727699e+00</_>
    <_>
      7.89108992e-01 3.01298308e+00 5.71165991e+00 7.64045382e+00
      -1.50475807e+01 -9.43285561e+00 1.43241358e+01</_>
    <_>
      6.67299986e-01 1.71669602e+00 3.97154188e+00 4.84673691e+00
      9.25592232e+00 5.70536089e+00 -1.10928831e+01</_>
    <_>
      7.92209983e-01 3.36380196e+00 5.56579685e+00 7.26327991e+00
      1.37002296e+01 9.44581795e+00 1.41820631e+01</_>
    <_>
      7.96078980e-01 4.44829893e+00 4.67263079e+00 9.05874252e+00
      1.59256058e+01 1.13482208e+01 1.70583477e+01</_>
    <_>
      7.95994997e-01 4.05752611e+00 5.79692602e+00 8.66691017e+00
      1.58988914e+01 1.07823896e+01 1.76666145e+01</_>
    <_>
      7.93869972e-01 3.44806099e+00 5.16497612e+00 7.73960018e+00
      -1.41922207e+01 -9.46487617e+00 1.55996990e+01</_>
    <_>
      7.94995010e-01 3.69326591e+00 5.88810778e+00 8.48398018e+00
      -1.60058861e+01 1.15645189e+01 -1.57220221e+01</_>
    <_>
      7.97558010e-01 4.73023510e+00 6.33896303e+00 9.85674191e+00
      -1.79545956e+01 1.22218599e+01 -2.48876457e+01</_>
    <_>
      7.95280993e-01 4.23650122e+00 4.85518312e+00 7.79240513e+00
      1.41559582e+01 -1.07929096e+01 -1.45044374e+01</_>
    <_>
      7.96536982e-01 3.94154501e+00 6.38804913e+00 9.97899532e+00
      1.86193695e+01 1.20143919e+01 -1.81907654e+01</_>
    <_>
      7.97460020e-01 6.64448118e+00 6.11580801e+00 8.73746204e+00
      -1.61657295e+01 1.20651407e+01 1.72268486e+01</_>
    <_>
      7.97056973e-01 4.62382317e+00 7.47026777e+00 9.66177464e+00
      1.82473946e+01 1.20162716e+01 -1.87597923e+01</_>
    <_>
      7.81098008e-01 2.73745704e+00 4.30272818e+00 5.99953890e+00
      1.12045994e+01 7.44299793e+00 1.14795551e+01</_>
    <_>
      7.97338009e-01 6.64420414e+00 5.86086988e+00 9.28486633e+00
      1.69273930e+01 1.26110239e+01 1.71385212e+01</_>
    <_>
      6.90738022e-01 1.83982396e+00 3.53959703e+00 4.45234585e+00
      8.76400280e+00 5.86789417e+00 8.50611401e+00</_>
    <_>
      7.96554029e-01 4.27302885e+00 5.19343615e+00 8.97143459e+00
      1.61502266e+01 1.19497852e+01 -1.62767067e+01</_>
    <_>
      7.84464002e-01 2.86251593e+00 5.39199018e+00 7.95090485e+00
      -1.48778181e+01 1.14672966e+01 1.47024136e+01</_>
    <_>
      7.95289993e-01 3.76950598e+00 5.41336918e+00 8.40367317e+00
      -1.53121986e+01 -1.03348761e+01 -1.76320553e+01</_>
    <_>
      7.87674010e-01 2.99009395e+00 5.03888988e+00 7.74562311e+00
      -1.49127531e+01 1.03129473e+01 -1.41440916e+01</_>
    <_>
      7.96844006e-01 6.18090105e+00 5.63919306e+00 8.45998096e+00
      -1.57063646e+01 1.16734972e+01 -1.56219540e+01</_>
    <_>
      6.14345014e-01 1.57861602e+00 2.51138902e+00 3.09085393e+00
      5.89202213e+00 3.88030696e+00 -7.72482586e+00</_>
    <_>
      7.97080994e-01 4.43408203e+00 5.32914019e+00 9.58837891e+00
      1.81271305e+01 1.23973007e+01 -1.70486469e+01</_>
    <_>
      7.96754003e-01 4.71280098e+00 5.19447279e+00 9.03914070e+00
      -1.63540955e+01 1.14227448e+01 -1.62674236e+01</_>
    <_>
      7.94529021e-01 4.04306984e+00 4.25736284e+00 7.53376102e+00
      1.43581266e+01 1.02237148e+01 1.34323587e+01</_>
    <_>
      7.19174981e-01 1.97876096e+00 4.49723101e+00 5.54092312e+00
      1.06593847e+01 6.64467812e+00 -1.07775183e+01</_>
    <_>
      7.95063972e-01 3.71554708e+00 4.80338621e+00 7.15000677e+00
      1.31275692e+01 9.02837753e+00 1.43268833e+01</_>
    <_>
      7.96886981e-01 4.61367178e+00 5.23182917e+00 1.00624943e+01
      -1.80479984e+01 -1.28806486e+01 -1.77609863e+01</_>
    <_>
      4.50666994e-01 1.06597197e+00 2.49648190e+00 3.39893508e+00
      -6.40121222e+00 -3.95992088e+00 -6.67326403e+00</_>
    <_>
      7.97339976e-01 5.16887999e+00 5.44786692e+00 1.00025826e+01
      -1.77327633e+01 -1.26701002e+01 1.85511227e+01</_>
    <_>
      7.91262984e-01 3.17450094e+00 5.30799580e+00 7.37192202e+00
      -1.39811773e+01 -9.81930828e+00 1.37860498e+01</_>
    <_>
      7.96992004e-01 4.48114300e+00 5.25594378e+00 8.33780384e+00
      1.51376181e+01 1.14123039e+01 1.60703812e+01</_>
    <_>
      4.86974001e-01 1.19309199e+00 2.54227495e+00 2.92102599e+00
      5.65267801e+00 3.51758409e+00 8.21535015e+00</_>
    <_>
      7.93520987e-01 3.37425303e+00 5.49609613e+00 7.71565485e+00
      1.52451954e+01 1.19415960e+01 1.43246393e+01</_>
    <_>
      4.70982999e-01 1.16699100e+00 3.05338502e+00 3.47297812e+00
      6.75991583e+00 4.12375402e+00 7.22841406e+00</_>
    <_>
      6.40200019e-01 1.62624300e+00 4.60684299e+00 5.22479677e+00
      1.01412268e+01 6.03910398e+00 1.14165039e+01</_>
    <_>
      7.96378016e-01 3.96991897e+00 5.42631388e+00 8.48594475e+00
      1.90400124e+01 -1.11829386e+01 1.54420738e+01</_>
    <_>
      4.27902997e-01 9.85113978e-01 4.00170994e+00 4.40615082e+00
      8.65046120e+00 5.00816488e+00 8.99525738e+00</_>
    <_>
      7.94646025e-01 3.49389911e+00 6.80224419e+00 9.21640587e+00
      -1.80391846e+01 1.09671850e+01 -1.72309189e+01</_>
    <_>
      4.82071996e-01 1.17772198e+00 3.73406100e+00 4.06576014e+00
      7.99447393e+00 4.72050381e+00 8.41856861e+00</_>
    <_>
      7.95894980e-01 4.79958105e+00 4.57705498e+00 8.04367065e+00
      -1.45205269e+01 -1.06051054e+01 1.44896650e+01</_>
    <_>
      7.96329021e-01 4.29224586e+00 5.37038898e+00 8.31013584e+00
      1.53201008e+01 1.19008617e+01 1.52832842e+01</_>
    <_>
      7.96123028e-01 3.98371291e+00 5.79330397e+00 7.87343121e+00
      -1.51690340e+01 1.00411110e+01 -1.47343092e+01</_>
    <_>
      5.14705002e-01 1.24088001e+00 4.83073521e+00 5.87102509e+00
      -1.12653389e+01 -6.63475704e+00 1.15927229e+01</_>
    <_>
      4.26593006e-01 1.01502895e+00 4.92520905e+00 4.59861422e+00
      9.36644745e+00 5.10615110e+00 -1.01456738e+01</_>
    <_>
      7.95857012e-01 3.79229212e+00 7.40112209e+00 9.50123596e+00
      1.81418114e+01 -1.16049013e+01 1.80699654e+01</_>
    <_>
      4.94841993e-01 1.19903803e+00 4.99975395e+00 5.89083290e+00
      1.14259281e+01 6.53324986e+00 -1.15712194e+01</_>
    <_>
      7.96814978e-01 4.36216497e+00 5.62896204e+00 8.22117424e+00
      -1.64737663e+01 1.04208260e+01 -1.51467228e+01</_>
    <_>
      7.95669019e-01 3.72914195e+00 6.20410490e+00 9.09513569e+00
      -1.84032707e+01 1.23828773e+01 1.67448616e+01</_>
    <_>
      7.97097027e-01 4.48065376e+00 5.30477190e+00 1.03020620e+01
      -1.81742973e+01 1.30677519e+01 1.83885059e+01</_>
    <_>
      7.03598976e-01 1.95474398e+00 3.01393199e+00 4.17933893e+00
      -8.14381409e+00 -5.39398813e+00 -7.82007408e+00</_>
    <_>
      7.86507010e-01 3.58955002e+00 3.89733410e+00 5.71659803e+00
      -1.12522058e+01 7.70019102e+00 -1.05312748e+01</_>
    <_>
      7.95864999e-01 3.68816805e+00 6.59762478e+00 8.63223553e+00
      1.71755733e+01 -1.20444994e+01 -1.62502079e+01</_>
    <_>
      7.96225011e-01 4.18876982e+00 5.26756620e+00 7.26003599e+00
      -1.40809364e+01 -9.66641235e+00 1.35412073e+01</_>
    <_>
      7.93826997e-01 3.59026599e+00 4.79748487e+00 7.21522808e+00
      1.32712240e+01 1.05008965e+01 1.35663967e+01</_>
    <_>
      7.95983016e-01 4.15452814e+00 5.61857224e+00 8.34375477e+00
      -1.53333254e+01 1.04212275e+01 -1.60351582e+01</_>
    <_>
      7.95666993e-01 3.70570207e+00 6.29987288e+00 8.83993053e+00
      1.80945168e+01 -1.06993923e+01 1.64099255e+01</_>
    <_>
      4.65407997e-01 1.10513496e+00 3.65559912e+00 4.56882000e+00
      -8.78551865e+00 -5.20381308e+00 8.89002514e+00</_>
    <_>
      7.95889020e-01 3.87249088e+00 5.27156496e+00 8.44054985e+00
      -1.68309402e+01 1.08221903e+01 -1.52967930e+01</_>
    <_>
      7.95880973e-01 4.14872885e+00 5.61140823e+00 8.46312809e+00
      -1.55003958e+01 -1.06495705e+01 -1.90789318e+01</_>
    <_>
      7.95656025e-01 3.73639488e+00 5.34874487e+00 8.02445126e+00
      -1.53424473e+01 1.12875500e+01 -1.47232418e+01</_>
    <_>
      7.96096027e-01 3.88247108e+00 7.23910999e+00 8.88890553e+00
      1.69622841e+01 -1.11291380e+01 1.76400509e+01</_>
    <_>
      5.62043011e-01 1.33625197e+00 5.55560207e+00 5.90390587e+00
      1.16337729e+01 6.57627583e+00 -1.32745132e+01</_>
    <_>
      7.96818972e-01 4.47604895e+00 5.32939816e+00 1.02071190e+01
      -1.81915646e+01 1.25713463e+01 1.80755386e+01</_>
    <_>
      7.94937015e-01 3.61895108e+00 5.92670822e+00 9.54232502e+00
      -1.72951679e+01 -1.13633003e+01 -1.78227787e+01</_>
    <_>
      7.43103981e-01 2.19325209e+00 4.09589815e+00 5.62939405e+00
      -1.05024633e+01 -6.79717588e+00 1.11566277e+01</_>
    <_>
      7.96778977e-01 5.37797117e+00 4.87556887e+00 8.38598156e+00
      1.50217276e+01 1.11237516e+01 -1.58394098e+01</_>
    <_>
      7.95943022e-01 3.90990400e+00 6.25516415e+00 8.12572384e+00
      -1.53685017e+01 -1.00833387e+01 1.56507940e+01</_>
    <_>
      5.48516989e-01 1.35080600e+00 5.07139397e+00 5.41082287e+00
      1.06731110e+01 6.36583519e+00 1.11678486e+01</_>
    <_>
      6.11478984e-01 1.52020800e+00 3.83064890e+00 4.72223282e+00
      1.01811066e+01 7.99948978e+00 8.99961376e+00</_>
    <_>
      5.86524010e-01 1.42752600e+00 4.84132290e+00 5.67809200e+00
      1.24704876e+01 7.92482281e+00 -1.09379864e+01</_>
    <_>
      7.95868993e-01 4.88031721e+00 5.27506495e+00 7.04578209e+00
      -1.39942827e+01 9.90920258e+00 -1.32120457e+01</_>
    <_>
      7.73459017e-01 2.55167389e+00 5.42827511e+00 7.28095913e+00
      1.37652159e+01 8.59413528e+00 -1.38091869e+01</_>
    <_>
      7.96694994e-01 4.14390516e+00 5.81762791e+00 8.13911438e+00
      1.51174850e+01 1.03391447e+01 1.86067181e+01</_>
    <_>
      5.33958972e-01 1.29622996e+00 4.31497908e+00 5.14285707e+00
      -9.87399864e+00 -5.80968189e+00 -1.08676891e+01</_>
    <_>
      5.22807002e-01 1.26846099e+00 3.88117790e+00 4.80562687e+00
      -9.16681767e+00 -5.47545481e+00 -9.70116806e+00</_>
    <_>
      7.21397996e-01 1.98685503e+00 4.56004906e+00 5.60843420e+00
      1.07184448e+01 6.62417507e+00 1.11682491e+01</_>
    <_>
      7.95912981e-01 3.93008995e+00 5.74414682e+00 8.61263084e+00
      -1.57910271e+01 -1.05996246e+01 1.80090542e+01</_>
    <_>
