<?xml version="1.0"?>
<opencv_storage>
<opencv_ml_svm>
  <format>3</format>
  <svmType>C_SVC</svmType>
  <kernel>
    <type>LINEAR</type></kernel>
  <C>1.</C>
  <term_criteria><epsilon>9.9999999999999995e-07</epsilon>
    <iterations>1000</iterations></term_criteria>
  <var_count>7</var_count>
  <class_count>4</class_count>
  <class_labels type_id="opencv-matrix">
    <rows>4</rows>
    <cols>1</cols>
    <dt>i</dt>
    <data>
      1 2 3 4</data></class_labels>
  <sv_total>6</sv_total>
  <support_vectors>
    <_>
      2.21551079e-02 4.17681277e-01 1.38612827e-02 1.77636486e-03
      -4.43477230e-03 -2.30161170e-03 -1.37876039e-02</_>
    <_>
      2.84893632e-01 9.67997074e-01 8.77978325e-01 1.12913120e+00
      -4.57376391e-02 2.10720599e-02 -5.26013710e-02</_>
    <_>
      2.44240880e-01 9.17967737e-01 6.19294524e-01 8.24874699e-01
      4.27324101e-02 -1.39584467e-01 -6.74987212e-02</_>
    <_>
      1.73342198e-01 -7.32155070e-02 8.58941019e-01 -7.40745440e-02
      5.90870231e-02 1.07748710e-01 4.98453714e-02</_>
    <_>
      1.41434953e-01 2.91180700e-01 1.18779778e+00 2.34989643e-01
      -4.65141535e-02 1.78712219e-01 1.90522615e-02</_>
    <_>
      -3.47620249e-02 1.98382407e-01 2.43649065e-01 1.97853521e-02
      3.12568690e-03 -2.60818284e-02 2.15808600e-02</_></support_vectors>
  <uncompressed_sv_total>103</uncompressed_sv_total>
  <uncompressed_support_vectors>
    <_>
      7.96899974e-01 4.55600786e+00 5.64964294e+00 8.13342285e+00
      -1.50251408e+01 -1.04235039e+01 -1.65609188e+01</_>
    <_>
      6.41421974e-01 1.62641096e+00 3.71870303e+00 4.40692902e+00
      8.50629997e+00 5.26230097e+00 8.87466621e+00</_>
    <_>
      5.88177979e-01 1.43261600e+00 5.93265295e+00 6.61163521e+00
      -1.29089394e+01 -7.33227587e+00 1.33642607e+01</_>
    <_>
      7.67449975e-01 2.45392704e+00 4.17540216e+00 5.47959709e+00
      1.03071833e+01 6.70796108e+00 1.20059986e+01</_>
    <_>
      5.88506997e-01 1.50265205e+00 4.39703321e+00 5.05100107e+00
      -1.18609171e+01 -9.07705212e+00 -9.77503204e+00</_>
    <_>
      7.93259025e-01 3.31331897e+00 7.14041996e+00 9.26768303e+00
      -1.79353790e+01 1.10663843e+01 1.74990559e+01</_>
    <_>
      4.64807987e-01 1.06452501e+00 3.29392600e+00 3.90125895e+00
      7.53716803e+00 4.50061893e+00 -7.89440918e+00</_>
    <_>
      5.24816990e-01 1.29398596e+00 2.17837000e+00 2.56888294e+00
      4.95573521e+00 3.26139688e+00 -5.55676603e+00</_>
    <_>
      7.95157015e-01 3.55522299e+00 5.11130381e+00 7.82529402e+00
      -1.42935934e+01 -9.60290623e+00 2.16893291e+01</_>
    <_>
      6.33282006e-01 1.89469302e+00 2.43706799e+00 3.78711510e+00
      7.02296305e+00 4.75056314e+00 7.08024597e+00</_>
    <_>
      7.58975983e-01 2.33592010e+00 3.97121191e+00 5.38626719e+00
      1.09775448e+01 -8.48656940e+00 -1.00682793e+01</_>
    <_>
      7.13545978e-01 2.13397193e+00 2.75787401e+00 3.46483588e+00
      6.58414793e+00 4.54294014e+00 -7.29816914e+00</_>
    <_>
      7.85749972e-01 2.85064197e+00 6.43451786e+00 8.23132133e+00
      1.61881752e+01 -1.02208099e+01 -1.55768719e+01</_>
    <_>
      5.35687029e-01 1.29749000e+00 2.73516297e+00 3.69941306e+00
      -6.99901581e+00 -4.40350819e+00 7.16719818e+00</_>
    <_>
      7.91283011e-01 3.14041996e+00 7.52733803e+00 9.71326256e+00
      -1.84894447e+01 -1.12846432e+01 1.84788437e+01</_>
    <_>
      7.83461988e-01 2.78384995e+00 7.11275387e+00 8.40984631e+00
      -1.61769485e+01 -9.93124104e+00 1.69606686e+01</_>
    <_>
      5.56572020e-01 1.41732097e+00 4.18611813e+00 5.09291601e+00
      -1.07342911e+01 6.87544203e+00 9.73459721e+00</_>
    <_>
      6.88467979e-01 2.57923007e+00 2.37764192e+00 4.13893509e+00
      7.74596405e+00 -6.04050779e+00 7.44586515e+00</_>
    <_>
      6.55795991e-01 2.22710490e+00 2.33455110e+00 4.02684879e+00
      7.48112822e+00 5.28566980e+00 7.27999878e+00</_>
    <_>
      5.79387009e-01 1.41360497e+00 3.86063910e+00 4.70130777e+00
      9.93669033e+00 -7.79676723e+00 -8.98497581e+00</_>
    <_>
      4.69330013e-01 1.15179205e+00 2.30435801e+00 2.64866590e+00
      5.12596416e+00 3.22661495e+00 -6.34632301e+00</_>
    <_>
      7.13105977e-01 1.99299598e+00 3.79205298e+00 4.77050591e+00
      9.33677673e+00 -7.13680983e+00 -9.11987495e+00</_>
    <_>
      6.80544972e-01 1.76210797e+00 5.63193989e+00 6.79409790e+00
      1.39359026e+01 8.75100231e+00 1.30101519e+01</_>
    <_>
      4.40551013e-01 1.02703595e+00 2.49027491e+00 3.23987007e+00
      6.52459192e+00 -5.09860897e+00 -6.13890314e+00</_>
    <_>
      7.91007996e-01 3.14900494e+00 9.11918736e+00 8.90983963e+00
      -1.79781246e+01 1.04878769e+01 -1.82537861e+01</_>
    <_>
      5.71074009e-01 1.38970006e+00 3.32839394e+00 3.90910792e+00
      7.52786016e+00 4.60468006e+00 -1.08596230e+01</_>
    <_>
      6.00847006e-01 1.45561898e+00 3.51023293e+00 4.35453176e+00
      9.13345242e+00 -6.14455891e+00 8.29136181e+00</_>
    <_>
      6.65382028e-01 1.70510697e+00 4.48867178e+00 5.41853905e+00
      1.14915342e+01 -7.17087221e+00 -1.03734007e+01</_>
    <_>
      7.96986997e-01 4.27083302e+00 6.71676111e+00 1.07532244e+01
      -1.96881294e+01 -1.38799286e+01 1.95985146e+01</_>
    <_>
      6.22364998e-01 1.53601205e+00 4.79971600e+00 5.85544682e+00
      -1.24085932e+01 -8.27506828e+00 1.11837988e+01</_>
    <_>
      7.97335982e-01 5.19457722e+00 6.86356306e+00 8.35801411e+00
      -1.59688034e+01 -1.09553032e+01 2.35324879e+01</_>
    <_>
      7.96060026e-01 3.83204198e+00 6.06936598e+00 1.00814304e+01
      -1.99098873e+01 1.40122519e+01 1.81568966e+01</_>
    <_>
      7.97087014e-01 4.87770510e+00 5.51000023e+00 8.31799126e+00
      -1.52319870e+01 1.07568436e+01 2.26549835e+01</_>
    <_>
      7.22567976e-01 2.10461497e+00 3.07056189e+00 4.36056519e+00
      -8.13341999e+00 -5.44475079e+00 -8.39347458e+00</_>
    <_>
      4.29737985e-01 9.64299023e-01 3.26082301e+00 4.22570181e+00
      -8.06835270e+00 -4.79918623e+00 8.18647289e+00</_>
    <_>
      5.72790980e-01 1.41721594e+00 3.85789299e+00 4.75020885e+00
      -9.05427074e+00 -5.47328806e+00 -1.11998940e+01</_>
    <_>
      5.40183008e-01 1.32674897e+00 3.50796890e+00 4.28585196e+00
      8.97583675e+00 -6.06853485e+00 -8.18846798e+00</_>
    <_>
      7.38170028e-01 2.13385701e+00 3.97163105e+00 5.24865294e+00
      -1.02139339e+01 -6.62659407e+00 -9.90585899e+00</_>
    <_>
      6.50560021e-01 1.63431501e+00 5.65562010e+00 6.35950804e+00
      1.30157909e+01 9.33051586e+00 -1.23783064e+01</_>
    <_>
      3.93893003e-01 9.16190982e-01 2.66106510e+00 2.99542999e+00
      5.85075092e+00 3.55532193e+00 -6.28917503e+00</_>
    <_>
      7.31976986e-01 2.06725097e+00 4.74066401e+00 5.96770191e+00
      -1.13486977e+01 -7.02447081e+00 -1.17893600e+01</_>
    <_>
      7.67609000e-01 2.46187901e+00 4.18620205e+00 5.42644978e+00
      1.02448540e+01 6.67320490e+00 -1.08661613e+01</_>
    <_>
      5.33761978e-01 1.31262004e+00 2.27262306e+00 2.65289092e+00
      5.11565495e+00 3.31074691e+00 7.34660816e+00</_>
    <_>
      5.95620990e-01 1.90743196e+00 2.20311093e+00 3.53782201e+00
      -6.46334696e+00 -4.49225903e+00 6.73320007e+00</_>
    <_>
      5.53964972e-01 2.67458510e+00 1.90867603e+00 3.35845304e+00
      6.50994778e+00 4.70916080e+00 -6.01299191e+00</_>
    <_>
      4.07918006e-01 9.49971974e-01 3.82551193e+00 4.59095907e+00
      9.45337105e+00 6.12218189e+00 -8.81014061e+00</_>
    <_>
      3.94100994e-01 9.71458972e-01 2.03322411e+00 2.95903397e+00
      -5.66364193e+00 -3.56180310e+00 -5.55997276e+00</_>
    <_>
      4.46521997e-01 1.18311298e+00 2.05085802e+00 3.08727193e+00
      6.42437410e+00 -4.03175783e+00 -5.66274977e+00</_>
    <_>
      7.84429014e-01 2.83782506e+00 4.97194481e+00 6.81451893e+00
      -1.27077513e+01 -8.23343086e+00 1.94069538e+01</_>
    <_>
      4.44310993e-01 1.28920698e+00 1.90627897e+00 2.73463988e+00
      5.23968220e+00 -5.63716698e+00 -5.17617321e+00</_>
    <_>
      5.61460972e-01 1.49772704e+00 2.49124408e+00 3.45332289e+00
      6.53246593e+00 4.37286806e+00 -6.63081789e+00</_>
    <_>
      4.24769998e-01 9.73383009e-01 2.66850209e+00 3.03359509e+00
      5.90502024e+00 3.69049406e+00 6.40856123e+00</_>
    <_>
      4.65663999e-01 1.08124804e+00 2.93967605e+00 3.84026098e+00
      -7.46956015e+00 -4.58500719e+00 7.31789017e+00</_>
    <_>
      7.96684027e-01 4.14047194e+00 4.87768078e+00 7.88527012e+00
      1.42667446e+01 9.95550632e+00 2.15640850e+01</_>
    <_>
      7.67364979e-01 2.44608307e+00 4.59173918e+00 5.86158800e+00
      1.10883188e+01 7.08589411e+00 1.28403072e+01</_>
    <_>
      4.44812000e-01 1.05760002e+00 2.65518093e+00 2.90467405e+00
      5.68461609e+00 3.43347406e+00 -7.77833700e+00</_>
    <_>
      6.40691996e-01 1.65280104e+00 3.31753492e+00 4.27699518e+00
      -8.98074436e+00 -5.45014477e+00 8.07762623e+00</_>
    <_>
      6.06532991e-01 1.71704495e+00 2.68599796e+00 3.72762108e+00
      -7.50642395e+00 -4.63006496e+00 -6.95060587e+00</_>
    <_>
      7.90848970e-01 3.14665103e+00 5.16073179e+00 7.62484217e+00
      1.56704111e+01 -1.13352222e+01 -1.40177364e+01</_>
    <_>
      7.84464002e-01 2.86251593e+00 5.39199018e+00 7.95090485e+00
      -1.48778181e+01 1.14672966e+01 1.47024136e+01</_>
    <_>
      6.14345014e-01 1.57861602e+00 2.51138902e+00 3.09085393e+00
      5.89202213e+00 3.88030696e+00 -7.72482586e+00</_>
    <_>
      7.19174981e-01 1.97876096e+00 4.49723101e+00 5.54092312e+00
      1.06593847e+01 6.64467812e+00 -1.07775183e+01</_>
    <_>
      4.50666994e-01 1.06597197e+00 2.49648190e+00 3.39893508e+00
      -6.40121222e+00 -3.95992088e+00 -6.67326403e+00</_>
    <_>
      4.86974001e-01 1.19309199e+00 2.54227495e+00 2.92102599e+00
      5.65267801e+00 3.51758409e+00 8.21535015e+00</_>
    <_>
      7.03598976e-01 1.95474398e+00 3.01393199e+00 4.17933893e+00
      -8.14381409e+00 -5.39398813e+00 -7.82007408e+00</_>
    <_>
      7.43103981e-01 2.19325209e+00 4.09589815e+00 5.62939405e+00
      -1.05024633e+01 -6.79717588e+00 1.11566277e+01</_>
    <_>
      6.51006997e-01 1.65769506e+00 4.43036699e+00 5.34143019e+00
      1.13113089e+01 -8.08996964e+00 1.02288094e+01</_>
    <_>
      4.39159989e-01 1.09196901e+00 2.27993107e+00 3.01959801e+00
      5.78736496e+00 4.32213306e+00 -5.85812902e+00</_>
    <_>
      7.93509007e-01 3.33828497e+00 2.36913319e+01 2.39455013e+01
      4.77708817e+01 2.57554455e+01 4.85143814e+01</_>
    <_>
      5.14409006e-01 1.24826801e+00 2.75091100e+00 3.06789398e+00
      5.97729588e+00 3.69221592e+00 -9.45666981e+00</_>
    <_>
      6.80146992e-01 1.76078498e+00 5.35173798e+00 6.56331778e+00
      1.25272198e+01 7.44393778e+00 -1.32902069e+01</_>
    <_>
      7.49356985e-01 2.23873091e+00 4.49409723e+00 5.75769186e+00
      1.13864059e+01 7.35507202e+00 1.09061546e+01</_>
    <_>
      6.80866003e-01 1.77264595e+00 3.93425202e+00 4.90788078e+00
      -1.10160894e+01 -6.55929899e+00 -9.32903862e+00</_>
    <_>
      4.34973001e-01 1.02779698e+00 2.43700790e+00 3.18044806e+00
      6.75465918e+00 -4.39348078e+00 -5.99566603e+00</_>
    <_>
      7.78409004e-01 2.66144896e+00 4.40597820e+00 6.13010597e+00
      1.25609207e+01 -8.93704987e+00 1.13991756e+01</_>
    <_>
      7.54522026e-01 2.27003598e+00 5.17533302e+00 6.63765478e+00
      -1.29210291e+01 -8.14591980e+00 1.25862617e+01</_>
    <_>
      6.29730999e-01 1.56628501e+00 3.37982106e+00 4.02062988e+00
      7.72085714e+00 4.80377293e+00 1.04096670e+01</_>
    <_>
      4.51925993e-01 1.08687401e+00 3.91578507e+00 4.81053400e+00
      -9.17400169e+00 -5.36450386e+00 1.05976801e+01</_>
    <_>
      5.08817971e-01 1.22234297e+00 3.83196592e+00 4.82755995e+00
      -9.15746593e+00 -5.47120190e+00 -1.07482557e+01</_>
    <_>
      5.14940977e-01 1.35053205e+00 2.17894697e+00 3.03506804e+00
      5.93987417e+00 4.61395121e+00 5.70563221e+00</_>
    <_>
      7.92936981e-01 3.36970401e+00 4.96876717e+00 7.50017500e+00
      1.70626316e+01 -1.03029337e+01 -1.37346458e+01</_>
    <_>
      4.27686006e-01 1.06390798e+00 2.17465711e+00 2.52626896e+00
      4.88168097e+00 3.07796097e+00 5.70032692e+00</_>
    <_>
      5.09850025e-01 1.36400497e+00 1.94047797e+00 2.69876409e+00
      5.14311790e+00 3.70899796e+00 5.19816113e+00</_>
    <_>
      7.39710987e-01 2.12251401e+00 5.05155611e+00 6.37999487e+00
      1.38589649e+01 9.35386372e+00 1.20958357e+01</_>
    <_>
      7.93164015e-01 3.33021593e+00 6.43710279e+00 9.84344292e+00
      -1.81066914e+01 1.15142279e+01 1.81657753e+01</_>
    <_>
      7.95611024e-01 3.67957902e+00 2.38458729e+01 2.38459911e+01
      4.76919212e+01 -2.56858101e+01 5.34853668e+01</_>
    <_>
      5.90349019e-01 1.47231197e+00 2.66086411e+00 3.66348600e+00
      -6.91532803e+00 -4.44029713e+00 -7.06101418e+00</_>
    <_>
      5.96890986e-01 1.78021705e+00 2.36084294e+00 3.64993596e+00
      -6.69129896e+00 -4.65663290e+00 -7.06344414e+00</_>
    <_>
      7.69264996e-01 2.51528811e+00 4.08120394e+00 5.54960203e+00
      -1.20998421e+01 8.09925175e+00 -1.03650780e+01</_>
    <_>
      5.42307973e-01 1.33746397e+00 4.50842905e+00 5.89300489e+00
      -1.15220003e+01 -7.74177313e+00 1.11262560e+01</_>
    <_>
      5.23200989e-01 1.26117396e+00 6.62519121e+00 5.42727804e+00
      -1.14542170e+01 6.05795479e+00 1.26982861e+01</_>
    <_>
      4.73228008e-01 1.12567401e+00 2.48672104e+00 3.45895600e+00
      -6.84873581e+00 -4.18236589e+00 -6.46621704e+00</_>
    <_>
      7.55897999e-01 2.46179295e+00 3.28449607e+00 4.72777414e+00
      -8.81421280e+00 -6.03834486e+00 8.98883438e+00</_>
    <_>
      7.55244970e-01 2.41565204e+00 3.32632804e+00 4.37614393e+00
      8.23869228e+00 5.61091709e+00 -8.87463570e+00</_>
    <_>
      5.16462982e-01 1.31990004e+00 2.19363189e+00 2.44447303e+00
      4.76409197e+00 3.10952806e+00 6.05545282e+00</_>
    <_>
      6.38197005e-01 1.61370397e+00 5.99573612e+00 7.47293806e+00
      -1.42770996e+01 -8.49813843e+00 -1.44876213e+01</_>
    <_>
      6.56181991e-01 1.65762997e+00 6.03558016e+00 6.89237404e+00
      1.35012760e+01 -8.32252598e+00 1.35126038e+01</_>
    <_>
      7.96948016e-01 5.14131689e+00 4.86848783e+00 9.40131664e+00
      -1.65362186e+01 -1.19719763e+01 2.29799976e+01</_>
    <_>
      6.80939019e-01 1.77410400e+00 5.59370279e+00 7.34858322e+00
      -1.38386412e+01 -8.29448318e+00 -1.43590937e+01</_>
    <_>
      4.66652006e-01 1.14621699e+00 2.79244995e+00 3.59915495e+00
      -8.02828693e+00 -4.63180494e+00 -6.79570103e+00</_>
    <_>
      5.30611992e-01 1.40884495e+00 2.07859993e+00 2.59082103e+00
      4.93723106e+00 3.33881402e+00 5.56563282e+00</_>
    <_>
      7.79426992e-01 2.68790793e+00 4.35339022e+00 6.08348608e+00
      1.23459969e+01 1.03479786e+01 -1.13037043e+01</_>
    <_>
      7.03921974e-01 1.91368198e+00 3.77199602e+00 4.80772495e+00
      1.16812763e+01 -6.60265303e+00 -9.09758759e+00</_></uncompressed_support_vectors>
  <decision_functions>
    <_>
      <sv_count>1</sv_count>
      <rho>9.8285084455229288e-01</rho>
      <alpha>
        1.</alpha>
      <index>
        0</index></_>
    <_>
      <sv_count>1</sv_count>
      <rho>9.6011888662105758e+00</rho>
      <alpha>
        1.</alpha>
      <index>
        1</index></_>
    <_>
      <sv_count>1</sv_count>
      <rho>7.2322551091328533e+00</rho>
      <alpha>
        1.</alpha>
      <index>
        2</index></_>
    <_>
      <sv_count>1</sv_count>
      <rho>1.6562060551191609e+00</rho>
      <alpha>
        1.</alpha>
      <index>
        3</index></_>
    <_>
      <sv_count>1</sv_count>
      <rho>2.9785848125215648e+00</rho>
      <alpha>
        1.</alpha>
      <index>
        4</index></_>
    <_>
      <sv_count>1</sv_count>
      <rho>-1.8942191170549946e-01</rho>
      <alpha>
        1.</alpha>
      <index>
        5</index></_></decision_functions></opencv_ml_svm>
</opencv_storage>
